<?xml version="1.0" encoding="UTF-8" standalone="yes"?>
<PMML xmlns="http://www.dmg.org/PMML-4_4" xmlns:data="http://jpmml.org/jpmml-model/InlineTable" version="4.4">
	<Header>
		<Application name="SkLearn2PMML package" version="0.110.0"/>
		<Timestamp>2024-10-18T21:38:04Z</Timestamp>
	</Header>
	<MiningBuildTask>
		<Extension name="repr">PMMLPipeline(steps=[('scaler', MinMaxScaler()),
       ('regressor', XGBRegressor(base_score=None, booster=None, callbacks=None,
             colsample_bylevel=None, colsample_bynode=None,
             colsample_bytree=0.8, device=None, early_stopping_rounds=None,
             enable_categorical=False, eval_metric=None, feature_types=None,
             gamma=None, grow_policy=None, importance_type=None,
             interaction_constraints=None, learning_rate=0.01, max_bin=None,
             max_cat_threshold=None, max_cat_to_onehot=None,
             max_delta_step=None, max_depth=4, max_leaves=None,
             min_child_weight=None, missing=nan, monotone_constraints=None,
             multi_strategy=None, n_estimators=500, n_jobs=None,
             num_parallel_tree=None, random_state=42, ...))])</Extension>
	</MiningBuildTask>
	<DataDictionary>
		<DataField name="Close" optype="continuous" dataType="float"/>
		<DataField name="Open" optype="continuous" dataType="double"/>
		<DataField name="High" optype="continuous" dataType="double"/>
		<DataField name="Low" optype="continuous" dataType="double"/>
		<DataField name="Volume" optype="continuous" dataType="double"/>
		<DataField name="Year" optype="continuous" dataType="double"/>
		<DataField name="Month" optype="continuous" dataType="double"/>
		<DataField name="Day" optype="continuous" dataType="double"/>
		<DataField name="Weekday" optype="continuous" dataType="double"/>
	</DataDictionary>
	<MiningModel functionName="regression" algorithmName="XGBoost (GBTree)" x-mathContext="float">
		<MiningSchema>
			<MiningField name="Close" usageType="target"/>
			<MiningField name="Open"/>
			<MiningField name="Low"/>
			<MiningField name="High"/>
			<MiningField name="Year"/>
			<MiningField name="Volume"/>
			<MiningField name="Day"/>
			<MiningField name="Month"/>
			<MiningField name="Weekday"/>
		</MiningSchema>
		<Targets>
			<Target field="Close" rescaleConstant="37.33853"/>
		</Targets>
		<LocalTransformations>
			<DerivedField name="minMaxScaler(Open)" optype="continuous" dataType="double">
				<Apply function="*">
					<FieldRef field="Open"/>
					<Constant dataType="double">0.007056664685784282</Constant>
				</Apply>
			</DerivedField>
			<DerivedField name="minMaxScaler(High)" optype="continuous" dataType="double">
				<Apply function="+">
					<Apply function="*">
						<FieldRef field="High"/>
						<Constant dataType="double">0.007037287167997266</Constant>
					</Apply>
					<Constant dataType="double">-0.007880276791006858</Constant>
				</Apply>
			</DerivedField>
			<DerivedField name="minMaxScaler(Low)" optype="continuous" dataType="double">
				<Apply function="+">
					<Apply function="*">
						<FieldRef field="Low"/>
						<Constant dataType="double">0.0071923861451957845</Constant>
					</Apply>
					<Constant dataType="double">-0.0077252271932654595</Constant>
				</Apply>
			</DerivedField>
			<DerivedField name="minMaxScaler(Volume)" optype="continuous" dataType="double">
				<Apply function="*">
					<FieldRef field="Volume"/>
					<Constant dataType="double">5.3078043513592384E-8</Constant>
				</Apply>
			</DerivedField>
			<DerivedField name="minMaxScaler(Year)" optype="continuous" dataType="double">
				<Apply function="+">
					<Apply function="*">
						<FieldRef field="Year"/>
						<Constant dataType="double">0.022727272727272728</Constant>
					</Apply>
					<Constant dataType="double">-45.0</Constant>
				</Apply>
			</DerivedField>
			<DerivedField name="minMaxScaler(Month)" optype="continuous" dataType="double">
				<Apply function="+">
					<Apply function="*">
						<FieldRef field="Month"/>
						<Constant dataType="double">0.09090909090909091</Constant>
					</Apply>
					<Constant dataType="double">-0.09090909090909091</Constant>
				</Apply>
			</DerivedField>
			<DerivedField name="minMaxScaler(Day)" optype="continuous" dataType="double">
				<Apply function="+">
					<Apply function="*">
						<FieldRef field="Day"/>
						<Constant dataType="double">0.03333333333333333</Constant>
					</Apply>
					<Constant dataType="double">-0.03333333333333333</Constant>
				</Apply>
			</DerivedField>
			<DerivedField name="minMaxScaler(Weekday)" optype="continuous" dataType="double">
				<Apply function="*">
					<FieldRef field="Weekday"/>
					<Constant dataType="double">0.25</Constant>
				</Apply>
			</DerivedField>
			<DerivedField name="float(minMaxScaler(Open))" optype="continuous" dataType="float">
				<FieldRef field="minMaxScaler(Open)"/>
			</DerivedField>
			<DerivedField name="float(minMaxScaler(Low))" optype="continuous" dataType="float">
				<FieldRef field="minMaxScaler(Low)"/>
			</DerivedField>
			<DerivedField name="float(minMaxScaler(High))" optype="continuous" dataType="float">
				<FieldRef field="minMaxScaler(High)"/>
			</DerivedField>
			<DerivedField name="float(minMaxScaler(Year))" optype="continuous" dataType="float">
				<FieldRef field="minMaxScaler(Year)"/>
			</DerivedField>
			<DerivedField name="float(minMaxScaler(Volume))" optype="continuous" dataType="float">
				<FieldRef field="minMaxScaler(Volume)"/>
			</DerivedField>
			<DerivedField name="float(minMaxScaler(Day))" optype="continuous" dataType="float">
				<FieldRef field="minMaxScaler(Day)"/>
			</DerivedField>
			<DerivedField name="float(minMaxScaler(Month))" optype="continuous" dataType="float">
				<FieldRef field="minMaxScaler(Month)"/>
			</DerivedField>
			<DerivedField name="float(minMaxScaler(Weekday))" optype="continuous" dataType="float">
				<FieldRef field="minMaxScaler(Weekday)"/>
			</DerivedField>
		</LocalTransformations>
		<Segmentation multipleModelMethod="sum" missingPredictionTreatment="returnMissing">
			<Segment id="1">
				<True/>
				<TreeModel functionName="regression" noTrueChildStrategy="returnLastPrediction" x-mathContext="float">
					<MiningSchema>
						<MiningField name="float(minMaxScaler(Open))"/>
						<MiningField name="float(minMaxScaler(Low))"/>
						<MiningField name="float(minMaxScaler(High))"/>
					</MiningSchema>
					<Node score="0.90754324">
						<True/>
						<Node score="0.12334761">
							<SimplePredicate field="float(minMaxScaler(Open))" operator="lessThan" value="0.41803682"/>
							<Node score="-0.18167776">
								<SimplePredicate field="float(minMaxScaler(Low))" operator="lessThan" value="0.15698041"/>
								<Node score="-0.30612713">
									<SimplePredicate field="float(minMaxScaler(High))" operator="lessThan" value="0.06545458"/>
									<Node score="-0.3455079">
										<SimplePredicate field="float(minMaxScaler(Low))" operator="lessThan" value="0.026298635"/>
									</Node>
								</Node>
								<Node score="-0.23138171">
									<SimplePredicate field="float(minMaxScaler(High))" operator="lessThan" value="0.11032393"/>
								</Node>
							</Node>
							<Node score="-0.023497215">
								<SimplePredicate field="float(minMaxScaler(High))" operator="lessThan" value="0.26627073"/>
								<Node score="-0.09838131">
									<SimplePredicate field="float(minMaxScaler(Low))" operator="lessThan" value="0.21408078"/>
								</Node>
							</Node>
							<Node score="0.04251061">
								<SimplePredicate field="float(minMaxScaler(High))" operator="lessThan" value="0.31534234"/>
							</Node>
						</Node>
						<Node score="0.47863665">
							<SimplePredicate field="float(minMaxScaler(High))" operator="lessThan" value="0.66622144"/>
							<Node score="0.33054364">
								<SimplePredicate field="float(minMaxScaler(Low))" operator="lessThan" value="0.5140105"/>
								<Node score="0.25292313">
									<SimplePredicate field="float(minMaxScaler(Open))" operator="lessThan" value="0.46835086"/>
								</Node>
							</Node>
							<Node score="0.38814884">
								<SimplePredicate field="float(minMaxScaler(High))" operator="lessThan" value="0.5662216"/>
							</Node>
						</Node>
						<Node score="0.70018417">
							<SimplePredicate field="float(minMaxScaler(Low))" operator="lessThan" value="0.798757"/>
							<Node score="0.620056">
								<SimplePredicate field="float(minMaxScaler(Low))" operator="lessThan" value="0.72877514"/>
							</Node>
						</Node>
						<Node score="0.79911375">
							<SimplePredicate field="float(minMaxScaler(High))" operator="lessThan" value="0.8624914"/>
						</Node>
					</Node>
				</TreeModel>
			</Segment>
			<Segment id="2">
				<True/>
				<TreeModel functionName="regression" noTrueChildStrategy="returnLastPrediction" x-mathContext="float">
					<MiningSchema>
						<MiningField name="float(minMaxScaler(Low))"/>
					</MiningSchema>
					<Node score="0.91945213">
						<True/>
						<Node score="0.11716848">
							<SimplePredicate field="float(minMaxScaler(Low))" operator="lessThan" value="0.3953361"/>
							<Node score="-0.18030395">
								<SimplePredicate field="float(minMaxScaler(Low))" operator="lessThan" value="0.15698041"/>
								<Node score="-0.3052114">
									<SimplePredicate field="float(minMaxScaler(Low))" operator="lessThan" value="0.064760394"/>
									<Node score="-0.34354657">
										<SimplePredicate field="float(minMaxScaler(Low))" operator="lessThan" value="0.024654973"/>
									</Node>
								</Node>
								<Node score="-0.23043063">
									<SimplePredicate field="float(minMaxScaler(Low))" operator="lessThan" value="0.11061864"/>
								</Node>
							</Node>
							<Node score="-0.023210824">
								<SimplePredicate field="float(minMaxScaler(Low))" operator="lessThan" value="0.26861897"/>
								<Node score="-0.09885761">
									<SimplePredicate field="float(minMaxScaler(Low))" operator="lessThan" value="0.21171448"/>
								</Node>
							</Node>
							<Node score="0.041830096">
								<SimplePredicate field="float(minMaxScaler(Low))" operator="lessThan" value="0.31593215"/>
							</Node>
						</Node>
						<Node score="0.48516664">
							<SimplePredicate field="float(minMaxScaler(Low))" operator="lessThan" value="0.669366"/>
							<Node score="0.3191013">
								<SimplePredicate field="float(minMaxScaler(Low))" operator="lessThan" value="0.50854427"/>
								<Node score="0.23754278">
									<SimplePredicate field="float(minMaxScaler(Low))" operator="lessThan" value="0.45891675"/>
								</Node>
							</Node>
							<Node score="0.3857276">
								<SimplePredicate field="float(minMaxScaler(Low))" operator="lessThan" value="0.57572114"/>
							</Node>
						</Node>
						<Node score="0.69426954">
							<SimplePredicate field="float(minMaxScaler(Low))" operator="lessThan" value="0.798757"/>
							<Node score="0.6141754">
								<SimplePredicate field="float(minMaxScaler(Low))" operator="lessThan" value="0.72877514"/>
							</Node>
						</Node>
						<Node score="0.7990314">
							<SimplePredicate field="float(minMaxScaler(Low))" operator="lessThan" value="0.8769383"/>
						</Node>
					</Node>
				</TreeModel>
			</Segment>
			<Segment id="3">
				<True/>
				<TreeModel functionName="regression" noTrueChildStrategy="returnLastPrediction" x-mathContext="float">
					<MiningSchema>
						<MiningField name="float(minMaxScaler(Open))"/>
						<MiningField name="float(minMaxScaler(Low))"/>
					</MiningSchema>
					<Node score="0.9117692">
						<True/>
						<Node score="0.11991638">
							<SimplePredicate field="float(minMaxScaler(Open))" operator="lessThan" value="0.41803682"/>
							<Node score="-0.18952471">
								<SimplePredicate field="float(minMaxScaler(Low))" operator="lessThan" value="0.15029149"/>
								<Node score="-0.3046652">
									<SimplePredicate field="float(minMaxScaler(Low))" operator="lessThan" value="0.062788"/>
									<Node score="-0.34096548">
										<SimplePredicate field="float(minMaxScaler(Low))" operator="lessThan" value="0.023668775"/>
									</Node>
								</Node>
								<Node score="-0.23694408">
									<SimplePredicate field="float(minMaxScaler(Low))" operator="lessThan" value="0.103222154"/>
								</Node>
							</Node>
							<Node score="-0.02461717">
								<SimplePredicate field="float(minMaxScaler(Low))" operator="lessThan" value="0.26537994"/>
								<Node score="-0.098818265">
									<SimplePredicate field="float(minMaxScaler(Low))" operator="lessThan" value="0.21171448"/>
								</Node>
							</Node>
							<Node score="0.040743116">
								<SimplePredicate field="float(minMaxScaler(Low))" operator="lessThan" value="0.3178741"/>
							</Node>
						</Node>
						<Node score="0.44929302">
							<SimplePredicate field="float(minMaxScaler(Open))" operator="lessThan" value="0.6449086"/>
							<Node score="0.32076293">
								<SimplePredicate field="float(minMaxScaler(Low))" operator="lessThan" value="0.50854427"/>
								<Node score="0.24657498">
									<SimplePredicate field="float(minMaxScaler(Open))" operator="lessThan" value="0.46835086"/>
								</Node>
							</Node>
							<Node score="0.37345707">
								<SimplePredicate field="float(minMaxScaler(Open))" operator="lessThan" value="0.5592407"/>
							</Node>
						</Node>
						<Node score="0.6861531">
							<SimplePredicate field="float(minMaxScaler(Low))" operator="lessThan" value="0.798757"/>
							<Node score="0.6046389">
								<SimplePredicate field="float(minMaxScaler(Low))" operator="lessThan" value="0.72877514"/>
							</Node>
						</Node>
						<Node score="0.78967845">
							<SimplePredicate field="float(minMaxScaler(Low))" operator="lessThan" value="0.8769383"/>
						</Node>
					</Node>
				</TreeModel>
			</Segment>
			<Segment id="4">
				<True/>
				<TreeModel functionName="regression" noTrueChildStrategy="returnLastPrediction" x-mathContext="float">
					<MiningSchema>
						<MiningField name="float(minMaxScaler(High))"/>
					</MiningSchema>
					<Node score="0.9065381">
						<True/>
						<Node score="0.12683074">
							<SimplePredicate field="float(minMaxScaler(High))" operator="lessThan" value="0.41984603"/>
							<Node score="-0.17032537">
								<SimplePredicate field="float(minMaxScaler(High))" operator="lessThan" value="0.16073802"/>
								<Node score="-0.29211596">
									<SimplePredicate field="float(minMaxScaler(High))" operator="lessThan" value="0.06851019"/>
									<Node score="-0.3340131">
										<SimplePredicate field="float(minMaxScaler(High))" operator="lessThan" value="0.028626325"/>
									</Node>
								</Node>
								<Node score="-0.21738161">
									<SimplePredicate field="float(minMaxScaler(High))" operator="lessThan" value="0.11605682"/>
								</Node>
							</Node>
							<Node score="-0.019721474">
								<SimplePredicate field="float(minMaxScaler(High))" operator="lessThan" value="0.27057928"/>
								<Node score="-0.094632864">
									<SimplePredicate field="float(minMaxScaler(High))" operator="lessThan" value="0.21667956"/>
								</Node>
							</Node>
							<Node score="0.05009692">
								<SimplePredicate field="float(minMaxScaler(High))" operator="lessThan" value="0.32202774"/>
							</Node>
						</Node>
						<Node score="0.47359788">
							<SimplePredicate field="float(minMaxScaler(High))" operator="lessThan" value="0.66622144"/>
							<Node score="0.33044928">
								<SimplePredicate field="float(minMaxScaler(High))" operator="lessThan" value="0.5216052"/>
								<Node score="0.25450745">
									<SimplePredicate field="float(minMaxScaler(High))" operator="lessThan" value="0.4728368"/>
								</Node>
							</Node>
							<Node score="0.386119">
								<SimplePredicate field="float(minMaxScaler(High))" operator="lessThan" value="0.5822666"/>
							</Node>
						</Node>
						<Node score="0.67995614">
							<SimplePredicate field="float(minMaxScaler(High))" operator="lessThan" value="0.79422975"/>
							<Node score="0.6012359">
								<SimplePredicate field="float(minMaxScaler(High))" operator="lessThan" value="0.7261088"/>
							</Node>
						</Node>
						<Node score="0.7839358">
							<SimplePredicate field="float(minMaxScaler(High))" operator="lessThan" value="0.8785364"/>
						</Node>
					</Node>
				</TreeModel>
			</Segment>
			<Segment id="5">
				<True/>
				<TreeModel functionName="regression" noTrueChildStrategy="returnLastPrediction" x-mathContext="float">
					<MiningSchema>
						<MiningField name="float(minMaxScaler(Open))"/>
						<MiningField name="float(minMaxScaler(Low))"/>
						<MiningField name="float(minMaxScaler(High))"/>
					</MiningSchema>
					<Node score="0.89659923">
						<True/>
						<Node score="0.11283076">
							<SimplePredicate field="float(minMaxScaler(Open))" operator="lessThan" value="0.41803682"/>
							<Node score="-0.17058265">
								<SimplePredicate field="float(minMaxScaler(Low))" operator="lessThan" value="0.15698041"/>
								<Node score="-0.2931493">
									<SimplePredicate field="float(minMaxScaler(Low))" operator="lessThan" value="0.06706152"/>
									<Node score="-0.33231965">
										<SimplePredicate field="float(minMaxScaler(High))" operator="lessThan" value="0.026053177"/>
									</Node>
								</Node>
								<Node score="-0.21754204">
									<SimplePredicate field="float(minMaxScaler(High))" operator="lessThan" value="0.11446107"/>
								</Node>
							</Node>
							<Node score="-0.025224851">
								<SimplePredicate field="float(minMaxScaler(High))" operator="lessThan" value="0.2630154"/>
								<Node score="-0.09615708">
									<SimplePredicate field="float(minMaxScaler(Low))" operator="lessThan" value="0.21171448"/>
								</Node>
							</Node>
							<Node score="0.03570091">
								<SimplePredicate field="float(minMaxScaler(Low))" operator="lessThan" value="0.3139183"/>
							</Node>
						</Node>
						<Node score="0.46989754">
							<SimplePredicate field="float(minMaxScaler(High))" operator="lessThan" value="0.66622144"/>
							<Node score="0.32261202">
								<SimplePredicate field="float(minMaxScaler(Low))" operator="lessThan" value="0.51832587"/>
								<Node score="0.24185653">
									<SimplePredicate field="float(minMaxScaler(Open))" operator="lessThan" value="0.46835086"/>
								</Node>
							</Node>
							<Node score="0.3797203">
								<SimplePredicate field="float(minMaxScaler(Low))" operator="lessThan" value="0.57572114"/>
							</Node>
						</Node>
						<Node score="0.6723116">
							<SimplePredicate field="float(minMaxScaler(Low))" operator="lessThan" value="0.798757"/>
							<Node score="0.5954285">
								<SimplePredicate field="float(minMaxScaler(High))" operator="lessThan" value="0.7261088"/>
							</Node>
						</Node>
						<Node score="0.77577764">
							<SimplePredicate field="float(minMaxScaler(High))" operator="lessThan" value="0.8785364"/>
						</Node>
					</Node>
				</TreeModel>
			</Segment>
			<Segment id="6">
				<True/>
				<TreeModel functionName="regression" noTrueChildStrategy="returnLastPrediction" x-mathContext="float">
					<MiningSchema>
						<MiningField name="float(minMaxScaler(Low))"/>
					</MiningSchema>
					<Node score="0.8879539">
						<True/>
						<Node score="0.13326983">
							<SimplePredicate field="float(minMaxScaler(Low))" operator="lessThan" value="0.42079714"/>
							<Node score="-0.17936002">
								<SimplePredicate field="float(minMaxScaler(Low))" operator="lessThan" value="0.15698041"/>
								<Node score="-0.29601595">
									<SimplePredicate field="float(minMaxScaler(Low))" operator="lessThan" value="0.062788"/>
									<Node score="-0.3316659">
										<SimplePredicate field="float(minMaxScaler(Low))" operator="lessThan" value="0.02260039"/>
									</Node>
								</Node>
								<Node score="-0.22703719">
									<SimplePredicate field="float(minMaxScaler(Low))" operator="lessThan" value="0.10618076"/>
								</Node>
							</Node>
							<Node score="-0.017399553">
								<SimplePredicate field="float(minMaxScaler(Low))" operator="lessThan" value="0.2731203"/>
								<Node score="-0.0921024">
									<SimplePredicate field="float(minMaxScaler(Low))" operator="lessThan" value="0.21652718"/>
								</Node>
							</Node>
							<Node score="0.055495415">
								<SimplePredicate field="float(minMaxScaler(Low))" operator="lessThan" value="0.33161154"/>
							</Node>
						</Node>
						<Node score="0.4658086">
							<SimplePredicate field="float(minMaxScaler(Low))" operator="lessThan" value="0.669366"/>
							<Node score="0.33145577">
								<SimplePredicate field="float(minMaxScaler(Low))" operator="lessThan" value="0.53004944"/>
								<Node score="0.25086647">
									<SimplePredicate field="float(minMaxScaler(Low))" operator="lessThan" value="0.4752435"/>
								</Node>
							</Node>
							<Node score="0.3846095">
								<SimplePredicate field="float(minMaxScaler(Low))" operator="lessThan" value="0.57572114"/>
							</Node>
						</Node>
						<Node score="0.66557807">
							<SimplePredicate field="float(minMaxScaler(Low))" operator="lessThan" value="0.798757"/>
							<Node score="0.5902181">
								<SimplePredicate field="float(minMaxScaler(Low))" operator="lessThan" value="0.72877514"/>
							</Node>
						</Node>
						<Node score="0.76652914">
							<SimplePredicate field="float(minMaxScaler(Low))" operator="lessThan" value="0.8769383"/>
						</Node>
					</Node>
				</TreeModel>
			</Segment>
			<Segment id="7">
				<True/>
				<TreeModel functionName="regression" noTrueChildStrategy="returnLastPrediction" x-mathContext="float">
					<MiningSchema>
						<MiningField name="float(minMaxScaler(Open))"/>
						<MiningField name="float(minMaxScaler(High))"/>
					</MiningSchema>
					<Node score="0.88020766">
						<True/>
						<Node score="0.11800832">
							<SimplePredicate field="float(minMaxScaler(Open))" operator="lessThan" value="0.41803682"/>
							<Node score="-0.17833406">
								<SimplePredicate field="float(minMaxScaler(High))" operator="lessThan" value="0.16073802"/>
								<Node score="-0.29327726">
									<SimplePredicate field="float(minMaxScaler(High))" operator="lessThan" value="0.06175567"/>
									<Node score="-0.32846236">
										<SimplePredicate field="float(minMaxScaler(High))" operator="lessThan" value="0.022354268"/>
									</Node>
								</Node>
								<Node score="-0.22634813">
									<SimplePredicate field="float(minMaxScaler(High))" operator="lessThan" value="0.104534335"/>
								</Node>
							</Node>
							<Node score="-0.02114161">
								<SimplePredicate field="float(minMaxScaler(High))" operator="lessThan" value="0.26777026"/>
								<Node score="-0.09146236">
									<SimplePredicate field="float(minMaxScaler(High))" operator="lessThan" value="0.21667956"/>
								</Node>
							</Node>
							<Node score="0.043528803">
								<SimplePredicate field="float(minMaxScaler(High))" operator="lessThan" value="0.3180165"/>
							</Node>
						</Node>
						<Node score="0.44880897">
							<SimplePredicate field="float(minMaxScaler(High))" operator="lessThan" value="0.66622144"/>
							<Node score="0.31634587">
								<SimplePredicate field="float(minMaxScaler(High))" operator="lessThan" value="0.51724213"/>
								<Node score="0.23625694">
									<SimplePredicate field="float(minMaxScaler(Open))" operator="lessThan" value="0.46835086"/>
								</Node>
							</Node>
							<Node score="0.3674186">
								<SimplePredicate field="float(minMaxScaler(High))" operator="lessThan" value="0.5662216"/>
							</Node>
						</Node>
						<Node score="0.65929097">
							<SimplePredicate field="float(minMaxScaler(High))" operator="lessThan" value="0.79422975"/>
							<Node score="0.5846973">
								<SimplePredicate field="float(minMaxScaler(High))" operator="lessThan" value="0.7261088"/>
							</Node>
						</Node>
						<Node score="0.7600949">
							<SimplePredicate field="float(minMaxScaler(High))" operator="lessThan" value="0.8785364"/>
						</Node>
					</Node>
				</TreeModel>
			</Segment>
			<Segment id="8">
				<True/>
				<TreeModel functionName="regression" noTrueChildStrategy="returnLastPrediction" x-mathContext="float">
					<MiningSchema>
						<MiningField name="float(minMaxScaler(Low))"/>
						<MiningField name="float(minMaxScaler(High))"/>
					</MiningSchema>
					<Node score="0.86753476">
						<True/>
						<Node score="0.111777395">
							<SimplePredicate field="float(minMaxScaler(Low))" operator="lessThan" value="0.42079714"/>
							<Node score="-0.1803021">
								<SimplePredicate field="float(minMaxScaler(Low))" operator="lessThan" value="0.15029149"/>
								<Node score="-0.2908594">
									<SimplePredicate field="float(minMaxScaler(Low))" operator="lessThan" value="0.062788"/>
									<Node score="-0.3257621">
										<SimplePredicate field="float(minMaxScaler(High))" operator="lessThan" value="0.021710983"/>
									</Node>
								</Node>
								<Node score="-0.22510387">
									<SimplePredicate field="float(minMaxScaler(Low))" operator="lessThan" value="0.103222154"/>
								</Node>
							</Node>
							<Node score="-0.026811264">
								<SimplePredicate field="float(minMaxScaler(High))" operator="lessThan" value="0.2617182"/>
								<Node score="-0.09569907">
									<SimplePredicate field="float(minMaxScaler(High))" operator="lessThan" value="0.21073839"/>
								</Node>
							</Node>
							<Node score="0.033375103">
								<SimplePredicate field="float(minMaxScaler(Low))" operator="lessThan" value="0.3139183"/>
							</Node>
						</Node>
						<Node score="0.44563827">
							<SimplePredicate field="float(minMaxScaler(High))" operator="lessThan" value="0.66622144"/>
							<Node score="0.3215287">
								<SimplePredicate field="float(minMaxScaler(High))" operator="lessThan" value="0.5239275"/>
								<Node score="0.24310113">
									<SimplePredicate field="float(minMaxScaler(Low))" operator="lessThan" value="0.4752435"/>
								</Node>
							</Node>
							<Node score="0.36907318">
								<SimplePredicate field="float(minMaxScaler(High))" operator="lessThan" value="0.5662216"/>
							</Node>
						</Node>
						<Node score="0.65160066">
							<SimplePredicate field="float(minMaxScaler(Low))" operator="lessThan" value="0.798757"/>
							<Node score="0.5794711">
								<SimplePredicate field="float(minMaxScaler(Low))" operator="lessThan" value="0.72877514"/>
							</Node>
						</Node>
						<Node score="0.750818">
							<SimplePredicate field="float(minMaxScaler(Low))" operator="lessThan" value="0.8769383"/>
						</Node>
					</Node>
				</TreeModel>
			</Segment>
			<Segment id="9">
				<True/>
				<TreeModel functionName="regression" noTrueChildStrategy="returnLastPrediction" x-mathContext="float">
					<MiningSchema>
						<MiningField name="float(minMaxScaler(Open))"/>
						<MiningField name="float(minMaxScaler(High))"/>
					</MiningSchema>
					<Node score="0.84661037">
						<True/>
						<Node score="0.11198304">
							<SimplePredicate field="float(minMaxScaler(Open))" operator="lessThan" value="0.41803682"/>
							<Node score="-0.18029587">
								<SimplePredicate field="float(minMaxScaler(High))" operator="lessThan" value="0.15425883"/>
								<Node score="-0.2871379">
									<SimplePredicate field="float(minMaxScaler(Open))" operator="lessThan" value="0.06966643"/>
									<Node score="-0.32189545">
										<SimplePredicate field="float(minMaxScaler(High))" operator="lessThan" value="0.022354268"/>
									</Node>
								</Node>
								<Node score="-0.22372656">
									<SimplePredicate field="float(minMaxScaler(High))" operator="lessThan" value="0.10103645"/>
								</Node>
							</Node>
							<Node score="-0.024595529">
								<SimplePredicate field="float(minMaxScaler(High))" operator="lessThan" value="0.2630154"/>
								<Node score="-0.09289759">
									<SimplePredicate field="float(minMaxScaler(High))" operator="lessThan" value="0.2139299"/>
								</Node>
							</Node>
							<Node score="0.035520524">
								<SimplePredicate field="float(minMaxScaler(High))" operator="lessThan" value="0.3125274"/>
							</Node>
						</Node>
						<Node score="0.4403419">
							<SimplePredicate field="float(minMaxScaler(High))" operator="lessThan" value="0.66622144"/>
							<Node score="0.29715252">
								<SimplePredicate field="float(minMaxScaler(High))" operator="lessThan" value="0.5075306"/>
								<Node score="0.22477004">
									<SimplePredicate field="float(minMaxScaler(High))" operator="lessThan" value="0.45503247"/>
								</Node>
							</Node>
							<Node score="0.3565845">
								<SimplePredicate field="float(minMaxScaler(High))" operator="lessThan" value="0.5662216"/>
							</Node>
						</Node>
						<Node score="0.64529395">
							<SimplePredicate field="float(minMaxScaler(High))" operator="lessThan" value="0.79422975"/>
							<Node score="0.57318366">
								<SimplePredicate field="float(minMaxScaler(High))" operator="lessThan" value="0.7261088"/>
							</Node>
						</Node>
						<Node score="0.7367462">
							<SimplePredicate field="float(minMaxScaler(High))" operator="lessThan" value="0.8624914"/>
						</Node>
					</Node>
				</TreeModel>
			</Segment>
			<Segment id="10">
				<True/>
				<TreeModel functionName="regression" noTrueChildStrategy="returnLastPrediction" x-mathContext="float">
					<MiningSchema>
						<MiningField name="float(minMaxScaler(Open))"/>
						<MiningField name="float(minMaxScaler(Low))"/>
						<MiningField name="float(minMaxScaler(High))"/>
					</MiningSchema>
					<Node score="0.83750105">
						<True/>
						<Node score="0.11296991">
							<SimplePredicate field="float(minMaxScaler(Open))" operator="lessThan" value="0.41803682"/>
							<Node score="-0.15367562">
								<SimplePredicate field="float(minMaxScaler(Low))" operator="lessThan" value="0.15698041"/>
								<Node score="-0.27477214">
									<SimplePredicate field="float(minMaxScaler(Open))" operator="lessThan" value="0.0780522"/>
									<Node score="-0.31457943">
										<SimplePredicate field="float(minMaxScaler(High))" operator="lessThan" value="0.028626325"/>
									</Node>
								</Node>
								<Node score="-0.20115077">
									<SimplePredicate field="float(minMaxScaler(High))" operator="lessThan" value="0.12031218"/>
								</Node>
							</Node>
							<Node score="-0.021478772">
								<SimplePredicate field="float(minMaxScaler(High))" operator="lessThan" value="0.26777026"/>
								<Node score="-0.09168889">
									<SimplePredicate field="float(minMaxScaler(Low))" operator="lessThan" value="0.21171448"/>
								</Node>
							</Node>
							<Node score="0.041601326">
								<SimplePredicate field="float(minMaxScaler(Low))" operator="lessThan" value="0.32010373"/>
							</Node>
						</Node>
						<Node score="0.4182255">
							<SimplePredicate field="float(minMaxScaler(Open))" operator="lessThan" value="0.6449086"/>
							<Node score="0.29492304">
								<SimplePredicate field="float(minMaxScaler(Low))" operator="lessThan" value="0.50854427"/>
								<Node score="0.21893005">
									<SimplePredicate field="float(minMaxScaler(Low))" operator="lessThan" value="0.45891675"/>
								</Node>
							</Node>
							<Node score="0.34844378">
								<SimplePredicate field="float(minMaxScaler(High))" operator="lessThan" value="0.5570027"/>
							</Node>
						</Node>
						<Node score="0.6297278">
							<SimplePredicate field="float(minMaxScaler(Low))" operator="lessThan" value="0.7889035"/>
							<Node score="0.5558238">
								<SimplePredicate field="float(minMaxScaler(Low))" operator="lessThan" value="0.71992844"/>
							</Node>
						</Node>
						<Node score="0.7241171">
							<SimplePredicate field="float(minMaxScaler(High))" operator="lessThan" value="0.8624914"/>
						</Node>
					</Node>
				</TreeModel>
			</Segment>
			<Segment id="11">
				<True/>
				<TreeModel functionName="regression" noTrueChildStrategy="returnLastPrediction" x-mathContext="float">
					<MiningSchema>
						<MiningField name="float(minMaxScaler(Open))"/>
						<MiningField name="float(minMaxScaler(Low))"/>
						<MiningField name="float(minMaxScaler(High))"/>
					</MiningSchema>
					<Node score="0.8275261">
						<True/>
						<Node score="0.10180226">
							<SimplePredicate field="float(minMaxScaler(Low))" operator="lessThan" value="0.3953361"/>
							<Node score="-0.15562326">
								<SimplePredicate field="float(minMaxScaler(High))" operator="lessThan" value="0.16073802"/>
								<Node score="-0.27291384">
									<SimplePredicate field="float(minMaxScaler(Low))" operator="lessThan" value="0.06886956"/>
									<Node score="-0.3113559">
										<SimplePredicate field="float(minMaxScaler(Low))" operator="lessThan" value="0.02909287"/>
									</Node>
								</Node>
								<Node score="-0.2016278">
									<SimplePredicate field="float(minMaxScaler(High))" operator="lessThan" value="0.11775391"/>
								</Node>
							</Node>
							<Node score="-0.025708014">
								<SimplePredicate field="float(minMaxScaler(Low))" operator="lessThan" value="0.2621605"/>
								<Node score="-0.09064614">
									<SimplePredicate field="float(minMaxScaler(Low))" operator="lessThan" value="0.20898136"/>
								</Node>
							</Node>
							<Node score="0.029897226">
								<SimplePredicate field="float(minMaxScaler(Low))" operator="lessThan" value="0.309459"/>
							</Node>
						</Node>
						<Node score="0.40811652">
							<SimplePredicate field="float(minMaxScaler(Open))" operator="lessThan" value="0.6449086"/>
							<Node score="0.28530434">
								<SimplePredicate field="float(minMaxScaler(Low))" operator="lessThan" value="0.5027904"/>
								<Node score="0.21311934">
									<SimplePredicate field="float(minMaxScaler(Open))" operator="lessThan" value="0.45818925"/>
								</Node>
							</Node>
							<Node score="0.33978924">
								<SimplePredicate field="float(minMaxScaler(Low))" operator="lessThan" value="0.5474551"/>
							</Node>
						</Node>
						<Node score="0.6190545">
							<SimplePredicate field="float(minMaxScaler(Low))" operator="lessThan" value="0.7889035"/>
							<Node score="0.53991705">
								<SimplePredicate field="float(minMaxScaler(Low))" operator="lessThan" value="0.70949954"/>
							</Node>
						</Node>
						<Node score="0.71671385">
							<SimplePredicate field="float(minMaxScaler(High))" operator="lessThan" value="0.8624914"/>
						</Node>
					</Node>
				</TreeModel>
			</Segment>
			<Segment id="12">
				<True/>
				<TreeModel functionName="regression" noTrueChildStrategy="returnLastPrediction" x-mathContext="float">
					<MiningSchema>
						<MiningField name="float(minMaxScaler(Low))"/>
						<MiningField name="float(minMaxScaler(High))"/>
					</MiningSchema>
					<Node score="0.83542794">
						<True/>
						<Node score="0.09893694">
							<SimplePredicate field="float(minMaxScaler(Low))" operator="lessThan" value="0.3953361"/>
							<Node score="-0.17746587">
								<SimplePredicate field="float(minMaxScaler(Low))" operator="lessThan" value="0.15029149"/>
								<Node score="-0.27918863">
									<SimplePredicate field="float(minMaxScaler(High))" operator="lessThan" value="0.06175567"/>
									<Node score="-0.31298786">
										<SimplePredicate field="float(minMaxScaler(High))" operator="lessThan" value="0.021710983"/>
									</Node>
								</Node>
								<Node score="-0.22240621">
									<SimplePredicate field="float(minMaxScaler(High))" operator="lessThan" value="0.09826227"/>
								</Node>
							</Node>
							<Node score="-0.027846433">
								<SimplePredicate field="float(minMaxScaler(Low))" operator="lessThan" value="0.25850722"/>
								<Node score="-0.09420545">
									<SimplePredicate field="float(minMaxScaler(Low))" operator="lessThan" value="0.20617634"/>
								</Node>
							</Node>
							<Node score="0.026156778">
								<SimplePredicate field="float(minMaxScaler(High))" operator="lessThan" value="0.30380118"/>
							</Node>
						</Node>
						<Node score="0.42761847">
							<SimplePredicate field="float(minMaxScaler(Low))" operator="lessThan" value="0.669366"/>
							<Node score="0.28744075">
								<SimplePredicate field="float(minMaxScaler(Low))" operator="lessThan" value="0.50854427"/>
								<Node score="0.21320568">
									<SimplePredicate field="float(minMaxScaler(Low))" operator="lessThan" value="0.45891675"/>
								</Node>
							</Node>
							<Node score="0.3451888">
								<SimplePredicate field="float(minMaxScaler(High))" operator="lessThan" value="0.5662216"/>
							</Node>
						</Node>
						<Node score="0.6263062">
							<SimplePredicate field="float(minMaxScaler(Low))" operator="lessThan" value="0.798757"/>
							<Node score="0.55497736">
								<SimplePredicate field="float(minMaxScaler(High))" operator="lessThan" value="0.7261088"/>
							</Node>
						</Node>
						<Node score="0.72231704">
							<SimplePredicate field="float(minMaxScaler(High))" operator="lessThan" value="0.8785364"/>
						</Node>
					</Node>
				</TreeModel>
			</Segment>
			<Segment id="13">
				<True/>
				<TreeModel functionName="regression" noTrueChildStrategy="returnLastPrediction" x-mathContext="float">
					<MiningSchema>
						<MiningField name="float(minMaxScaler(Open))"/>
						<MiningField name="float(minMaxScaler(Low))"/>
						<MiningField name="float(minMaxScaler(High))"/>
					</MiningSchema>
					<Node score="0.8259957">
						<True/>
						<Node score="0.116697945">
							<SimplePredicate field="float(minMaxScaler(Open))" operator="lessThan" value="0.41803682"/>
							<Node score="-0.14580572">
								<SimplePredicate field="float(minMaxScaler(Low))" operator="lessThan" value="0.15698041"/>
								<Node score="-0.26530144">
									<SimplePredicate field="float(minMaxScaler(Low))" operator="lessThan" value="0.07215689"/>
									<Node score="-0.30489075">
										<SimplePredicate field="float(minMaxScaler(Low))" operator="lessThan" value="0.030736534"/>
									</Node>
								</Node>
								<Node score="-0.19393714">
									<SimplePredicate field="float(minMaxScaler(High))" operator="lessThan" value="0.12180662"/>
								</Node>
							</Node>
							<Node score="-0.015289837">
								<SimplePredicate field="float(minMaxScaler(Low))" operator="lessThan" value="0.2731203"/>
								<Node score="-0.0837449">
									<SimplePredicate field="float(minMaxScaler(High))" operator="lessThan" value="0.22031294"/>
								</Node>
							</Node>
							<Node score="0.048220042">
								<SimplePredicate field="float(minMaxScaler(Low))" operator="lessThan" value="0.32729614"/>
							</Node>
						</Node>
						<Node score="0.4351849">
							<SimplePredicate field="float(minMaxScaler(High))" operator="lessThan" value="0.66622144"/>
							<Node score="0.30227828">
								<SimplePredicate field="float(minMaxScaler(Low))" operator="lessThan" value="0.5230729"/>
								<Node score="0.22810143">
									<SimplePredicate field="float(minMaxScaler(Low))" operator="lessThan" value="0.4752435"/>
								</Node>
							</Node>
							<Node score="0.3527003">
								<SimplePredicate field="float(minMaxScaler(High))" operator="lessThan" value="0.5822666"/>
							</Node>
						</Node>
						<Node score="0.62148994">
							<SimplePredicate field="float(minMaxScaler(High))" operator="lessThan" value="0.79422975"/>
							<Node score="0.54920006">
								<SimplePredicate field="float(minMaxScaler(Low))" operator="lessThan" value="0.72877514"/>
							</Node>
						</Node>
						<Node score="0.71660763">
							<SimplePredicate field="float(minMaxScaler(Low))" operator="lessThan" value="0.8769383"/>
						</Node>
					</Node>
				</TreeModel>
			</Segment>
			<Segment id="14">
				<True/>
				<TreeModel functionName="regression" noTrueChildStrategy="returnLastPrediction" x-mathContext="float">
					<MiningSchema>
						<MiningField name="float(minMaxScaler(Open))"/>
						<MiningField name="float(minMaxScaler(High))"/>
					</MiningSchema>
					<Node score="0.8040408">
						<True/>
						<Node score="0.11901029">
							<SimplePredicate field="float(minMaxScaler(Open))" operator="lessThan" value="0.41803682"/>
							<Node score="-0.15545154">
								<SimplePredicate field="float(minMaxScaler(High))" operator="lessThan" value="0.16073802"/>
								<Node score="-0.26485497">
									<SimplePredicate field="float(minMaxScaler(High))" operator="lessThan" value="0.06851019"/>
									<Node score="-0.3022293">
										<SimplePredicate field="float(minMaxScaler(High))" operator="lessThan" value="0.028626325"/>
									</Node>
								</Node>
								<Node score="-0.19792083">
									<SimplePredicate field="float(minMaxScaler(High))" operator="lessThan" value="0.11446107"/>
								</Node>
							</Node>
							<Node score="-0.014544458">
								<SimplePredicate field="float(minMaxScaler(High))" operator="lessThan" value="0.27201545"/>
								<Node score="-0.08125613">
									<SimplePredicate field="float(minMaxScaler(High))" operator="lessThan" value="0.22190869"/>
								</Node>
							</Node>
							<Node score="0.049157936">
								<SimplePredicate field="float(minMaxScaler(High))" operator="lessThan" value="0.32617974"/>
							</Node>
						</Node>
						<Node score="0.4016345">
							<SimplePredicate field="float(minMaxScaler(Open))" operator="lessThan" value="0.6449086"/>
							<Node score="0.28382868">
								<SimplePredicate field="float(minMaxScaler(High))" operator="lessThan" value="0.5075306"/>
								<Node score="0.21304882">
									<SimplePredicate field="float(minMaxScaler(High))" operator="lessThan" value="0.45503247"/>
								</Node>
							</Node>
							<Node score="0.33524615">
								<SimplePredicate field="float(minMaxScaler(High))" operator="lessThan" value="0.5570027"/>
							</Node>
						</Node>
						<Node score="0.60063547">
							<SimplePredicate field="float(minMaxScaler(High))" operator="lessThan" value="0.7862776"/>
							<Node score="0.52466404">
								<SimplePredicate field="float(minMaxScaler(High))" operator="lessThan" value="0.7113305"/>
							</Node>
						</Node>
						<Node score="0.69652283">
							<SimplePredicate field="float(minMaxScaler(High))" operator="lessThan" value="0.8624914"/>
						</Node>
					</Node>
				</TreeModel>
			</Segment>
			<Segment id="15">
				<True/>
				<TreeModel functionName="regression" noTrueChildStrategy="returnLastPrediction" x-mathContext="float">
					<MiningSchema>
						<MiningField name="float(minMaxScaler(Open))"/>
						<MiningField name="float(minMaxScaler(Year))"/>
					</MiningSchema>
					<Node score="0.81299347">
						<True/>
						<Node score="0.10113246">
							<SimplePredicate field="float(minMaxScaler(Open))" operator="lessThan" value="0.41803682"/>
							<Node score="-0.1666872">
								<SimplePredicate field="float(minMaxScaler(Open))" operator="lessThan" value="0.16265611"/>
								<Node score="-0.27218845">
									<SimplePredicate field="float(minMaxScaler(Open))" operator="lessThan" value="0.06966643"/>
									<Node score="-0.30516303">
										<SimplePredicate field="float(minMaxScaler(Year))" operator="lessThan" value="0.11363637"/>
									</Node>
								</Node>
								<Node score="-0.21016341">
									<SimplePredicate field="float(minMaxScaler(Open))" operator="lessThan" value="0.10982138"/>
								</Node>
							</Node>
							<Node score="-0.02687776">
								<SimplePredicate field="float(minMaxScaler(Open))" operator="lessThan" value="0.26526004"/>
								<Node score="-0.09052713">
									<SimplePredicate field="float(minMaxScaler(Open))" operator="lessThan" value="0.21289958"/>
								</Node>
							</Node>
							<Node score="0.027811341">
								<SimplePredicate field="float(minMaxScaler(Open))" operator="lessThan" value="0.31345704"/>
							</Node>
						</Node>
						<Node score="0.39564186">
							<SimplePredicate field="float(minMaxScaler(Open))" operator="lessThan" value="0.6449086"/>
							<Node score="0.27660558">
								<SimplePredicate field="float(minMaxScaler(Open))" operator="lessThan" value="0.508221"/>
								<Node score="0.20909673">
									<SimplePredicate field="float(minMaxScaler(Open))" operator="lessThan" value="0.45818925"/>
								</Node>
							</Node>
							<Node score="0.33011696">
								<SimplePredicate field="float(minMaxScaler(Open))" operator="lessThan" value="0.5592407"/>
							</Node>
						</Node>
						<Node score="0.6004132">
							<SimplePredicate field="float(minMaxScaler(Open))" operator="lessThan" value="0.78653586"/>
							<Node score="0.53199">
								<SimplePredicate field="float(minMaxScaler(Open))" operator="lessThan" value="0.7229553"/>
							</Node>
						</Node>
						<Node score="0.69359505">
							<SimplePredicate field="float(minMaxScaler(Open))" operator="lessThan" value="0.87721395"/>
						</Node>
					</Node>
				</TreeModel>
			</Segment>
			<Segment id="16">
				<True/>
				<TreeModel functionName="regression" noTrueChildStrategy="returnLastPrediction" x-mathContext="float">
					<MiningSchema>
						<MiningField name="float(minMaxScaler(Open))"/>
						<MiningField name="float(minMaxScaler(Year))"/>
					</MiningSchema>
					<Node score="0.8206816">
						<True/>
						<Node score="0.100619085">
							<SimplePredicate field="float(minMaxScaler(Open))" operator="lessThan" value="0.41803682"/>
							<Node score="-0.14565341">
								<SimplePredicate field="float(minMaxScaler(Open))" operator="lessThan" value="0.16265611"/>
								<Node score="-0.265369">
									<SimplePredicate field="float(minMaxScaler(Open))" operator="lessThan" value="0.0780522"/>
									<Node score="-0.30203268">
										<SimplePredicate field="float(minMaxScaler(Year))" operator="lessThan" value="0.11363637"/>
									</Node>
								</Node>
								<Node score="-0.18963647">
									<SimplePredicate field="float(minMaxScaler(Open))" operator="lessThan" value="0.12721197"/>
								</Node>
							</Node>
							<Node score="-0.027458822">
								<SimplePredicate field="float(minMaxScaler(Open))" operator="lessThan" value="0.26526004"/>
								<Node score="-0.09025922">
									<SimplePredicate field="float(minMaxScaler(Open))" operator="lessThan" value="0.21099427"/>
								</Node>
							</Node>
							<Node score="0.028287636">
								<SimplePredicate field="float(minMaxScaler(Open))" operator="lessThan" value="0.31536233"/>
							</Node>
						</Node>
						<Node score="0.3938145">
							<SimplePredicate field="float(minMaxScaler(Open))" operator="lessThan" value="0.6449086"/>
							<Node score="0.27890763">
								<SimplePredicate field="float(minMaxScaler(Open))" operator="lessThan" value="0.508221"/>
								<Node score="0.21773414">
									<SimplePredicate field="float(minMaxScaler(Open))" operator="lessThan" value="0.46835086"/>
								</Node>
							</Node>
							<Node score="0.32615474">
								<SimplePredicate field="float(minMaxScaler(Open))" operator="lessThan" value="0.5592407"/>
							</Node>
						</Node>
						<Node score="0.58874893">
							<SimplePredicate field="float(minMaxScaler(Open))" operator="lessThan" value="0.78653586"/>
							<Node score="0.51997346">
								<SimplePredicate field="float(minMaxScaler(Open))" operator="lessThan" value="0.71646315"/>
							</Node>
						</Node>
						<Node score="0.691443">
							<SimplePredicate field="float(minMaxScaler(Open))" operator="lessThan" value="0.89330316"/>
						</Node>
					</Node>
				</TreeModel>
			</Segment>
			<Segment id="17">
				<True/>
				<TreeModel functionName="regression" noTrueChildStrategy="returnLastPrediction" x-mathContext="float">
					<MiningSchema>
						<MiningField name="float(minMaxScaler(Open))"/>
						<MiningField name="float(minMaxScaler(Low))"/>
						<MiningField name="float(minMaxScaler(High))"/>
					</MiningSchema>
					<Node score="0.7816869">
						<True/>
						<Node score="0.094994955">
							<SimplePredicate field="float(minMaxScaler(Low))" operator="lessThan" value="0.3953361"/>
							<Node score="-0.1615665">
								<SimplePredicate field="float(minMaxScaler(Low))" operator="lessThan" value="0.15029149"/>
								<Node score="-0.26553172">
									<SimplePredicate field="float(minMaxScaler(High))" operator="lessThan" value="0.06175567"/>
									<Node score="-0.29759848">
										<SimplePredicate field="float(minMaxScaler(Low))" operator="lessThan" value="0.02186074"/>
									</Node>
								</Node>
								<Node score="-0.20301303">
									<SimplePredicate field="float(minMaxScaler(Low))" operator="lessThan" value="0.10618076"/>
								</Node>
							</Node>
							<Node score="-0.028799426">
								<SimplePredicate field="float(minMaxScaler(High))" operator="lessThan" value="0.2566962"/>
								<Node score="-0.09086858">
									<SimplePredicate field="float(minMaxScaler(Low))" operator="lessThan" value="0.20473787"/>
								</Node>
							</Node>
							<Node score="0.023822814">
								<SimplePredicate field="float(minMaxScaler(Low))" operator="lessThan" value="0.3061505"/>
							</Node>
						</Node>
						<Node score="0.39020297">
							<SimplePredicate field="float(minMaxScaler(Open))" operator="lessThan" value="0.6449086"/>
							<Node score="0.26839533">
								<SimplePredicate field="float(minMaxScaler(Low))" operator="lessThan" value="0.5027904"/>
								<Node score="0.20065297">
									<SimplePredicate field="float(minMaxScaler(Open))" operator="lessThan" value="0.45818925"/>
								</Node>
							</Node>
							<Node score="0.32146373">
								<SimplePredicate field="float(minMaxScaler(Open))" operator="lessThan" value="0.5592407"/>
							</Node>
						</Node>
						<Node score="0.5839801">
							<SimplePredicate field="float(minMaxScaler(High))" operator="lessThan" value="0.7862776"/>
							<Node score="0.5064153">
								<SimplePredicate field="float(minMaxScaler(Low))" operator="lessThan" value="0.70949954"/>
							</Node>
						</Node>
						<Node score="0.6766417">
							<SimplePredicate field="float(minMaxScaler(High))" operator="lessThan" value="0.8624914"/>
						</Node>
					</Node>
				</TreeModel>
			</Segment>
			<Segment id="18">
				<True/>
				<TreeModel functionName="regression" noTrueChildStrategy="returnLastPrediction" x-mathContext="float">
					<MiningSchema>
						<MiningField name="float(minMaxScaler(Open))"/>
						<MiningField name="float(minMaxScaler(Low))"/>
					</MiningSchema>
					<Node score="0.7585526">
						<True/>
						<Node score="0.093577184">
							<SimplePredicate field="float(minMaxScaler(Low))" operator="lessThan" value="0.3953361"/>
							<Node score="-0.16677">
								<SimplePredicate field="float(minMaxScaler(Low))" operator="lessThan" value="0.15029149"/>
								<Node score="-0.2630208">
									<SimplePredicate field="float(minMaxScaler(Open))" operator="lessThan" value="0.06966643"/>
									<Node score="-0.2949037">
										<SimplePredicate field="float(minMaxScaler(Low))" operator="lessThan" value="0.02186074"/>
									</Node>
								</Node>
								<Node score="-0.20865226">
									<SimplePredicate field="float(minMaxScaler(Low))" operator="lessThan" value="0.09878427"/>
								</Node>
							</Node>
							<Node score="-0.02641911">
								<SimplePredicate field="float(minMaxScaler(Low))" operator="lessThan" value="0.25850722"/>
								<Node score="-0.08864932">
									<SimplePredicate field="float(minMaxScaler(Low))" operator="lessThan" value="0.20617634"/>
								</Node>
							</Node>
							<Node score="0.0249064">
								<SimplePredicate field="float(minMaxScaler(Low))" operator="lessThan" value="0.3061505"/>
							</Node>
						</Node>
						<Node score="0.3846828">
							<SimplePredicate field="float(minMaxScaler(Open))" operator="lessThan" value="0.6449086"/>
							<Node score="0.2718067">
								<SimplePredicate field="float(minMaxScaler(Low))" operator="lessThan" value="0.50854427"/>
								<Node score="0.20102514">
									<SimplePredicate field="float(minMaxScaler(Low))" operator="lessThan" value="0.45891675"/>
								</Node>
							</Node>
							<Node score="0.32280886">
								<SimplePredicate field="float(minMaxScaler(Open))" operator="lessThan" value="0.5592407"/>
							</Node>
						</Node>
						<Node score="0.5721087">
							<SimplePredicate field="float(minMaxScaler(Low))" operator="lessThan" value="0.7772518"/>
							<Node score="0.50329727">
								<SimplePredicate field="float(minMaxScaler(Low))" operator="lessThan" value="0.70949954"/>
							</Node>
						</Node>
						<Node score="0.66042215">
							<SimplePredicate field="float(minMaxScaler(Low))" operator="lessThan" value="0.85500145"/>
						</Node>
					</Node>
				</TreeModel>
			</Segment>
			<Segment id="19">
				<True/>
				<TreeModel functionName="regression" noTrueChildStrategy="returnLastPrediction" x-mathContext="float">
					<MiningSchema>
						<MiningField name="float(minMaxScaler(Open))"/>
						<MiningField name="float(minMaxScaler(Year))"/>
					</MiningSchema>
					<Node score="0.7932591">
						<True/>
						<Node score="0.116364464">
							<SimplePredicate field="float(minMaxScaler(Open))" operator="lessThan" value="0.41803682"/>
							<Node score="-0.15014136">
								<SimplePredicate field="float(minMaxScaler(Open))" operator="lessThan" value="0.16265611"/>
								<Node score="-0.25876367">
									<SimplePredicate field="float(minMaxScaler(Open))" operator="lessThan" value="0.07418184"/>
									<Node score="-0.2930806">
										<SimplePredicate field="float(minMaxScaler(Year))" operator="lessThan" value="0.11363637"/>
									</Node>
								</Node>
								<Node score="-0.19036335">
									<SimplePredicate field="float(minMaxScaler(Open))" operator="lessThan" value="0.11949726"/>
								</Node>
							</Node>
							<Node score="-0.012408249">
								<SimplePredicate field="float(minMaxScaler(Open))" operator="lessThan" value="0.28055975"/>
								<Node score="-0.07840942">
									<SimplePredicate field="float(minMaxScaler(Open))" operator="lessThan" value="0.22760543"/>
								</Node>
							</Node>
							<Node score="0.050037697">
								<SimplePredicate field="float(minMaxScaler(Open))" operator="lessThan" value="0.33610895"/>
							</Node>
						</Node>
						<Node score="0.38198695">
							<SimplePredicate field="float(minMaxScaler(Open))" operator="lessThan" value="0.6449086"/>
							<Node score="0.27832603">
								<SimplePredicate field="float(minMaxScaler(Open))" operator="lessThan" value="0.5204996"/>
								<Node score="0.21129808">
									<SimplePredicate field="float(minMaxScaler(Open))" operator="lessThan" value="0.46835086"/>
								</Node>
							</Node>
							<Node score="0.32190207">
								<SimplePredicate field="float(minMaxScaler(Open))" operator="lessThan" value="0.5592407"/>
							</Node>
						</Node>
						<Node score="0.58664894">
							<SimplePredicate field="float(minMaxScaler(Open))" operator="lessThan" value="0.8007903"/>
							<Node score="0.5133824">
								<SimplePredicate field="float(minMaxScaler(Open))" operator="lessThan" value="0.7293063"/>
							</Node>
						</Node>
						<Node score="0.6802033">
							<SimplePredicate field="float(minMaxScaler(Open))" operator="lessThan" value="0.89330316"/>
						</Node>
					</Node>
				</TreeModel>
			</Segment>
			<Segment id="20">
				<True/>
				<TreeModel functionName="regression" noTrueChildStrategy="returnLastPrediction" x-mathContext="float">
					<MiningSchema>
						<MiningField name="float(minMaxScaler(Open))"/>
						<MiningField name="float(minMaxScaler(Low))"/>
						<MiningField name="float(minMaxScaler(High))"/>
					</MiningSchema>
					<Node score="0.7930443">
						<True/>
						<Node score="0.09163862">
							<SimplePredicate field="float(minMaxScaler(Low))" operator="lessThan" value="0.3953361"/>
							<Node score="-0.17026325">
								<SimplePredicate field="float(minMaxScaler(High))" operator="lessThan" value="0.14947347"/>
								<Node score="-0.25902703">
									<SimplePredicate field="float(minMaxScaler(Open))" operator="lessThan" value="0.06321583"/>
									<Node score="-0.28933838">
										<SimplePredicate field="float(minMaxScaler(High))" operator="lessThan" value="0.019781118"/>
									</Node>
								</Node>
								<Node score="-0.21494241">
									<SimplePredicate field="float(minMaxScaler(High))" operator="lessThan" value="0.09150775"/>
								</Node>
							</Node>
							<Node score="-0.02767958">
								<SimplePredicate field="float(minMaxScaler(High))" operator="lessThan" value="0.2566962"/>
								<Node score="-0.09014056">
									<SimplePredicate field="float(minMaxScaler(Low))" operator="lessThan" value="0.20473787"/>
								</Node>
							</Node>
							<Node score="0.023694804">
								<SimplePredicate field="float(minMaxScaler(High))" operator="lessThan" value="0.30380118"/>
							</Node>
						</Node>
						<Node score="0.38060877">
							<SimplePredicate field="float(minMaxScaler(Open))" operator="lessThan" value="0.6449086"/>
							<Node score="0.26194382">
								<SimplePredicate field="float(minMaxScaler(Low))" operator="lessThan" value="0.5027904"/>
								<Node score="0.19767676">
									<SimplePredicate field="float(minMaxScaler(High))" operator="lessThan" value="0.45503247"/>
								</Node>
							</Node>
							<Node score="0.31371048">
								<SimplePredicate field="float(minMaxScaler(Low))" operator="lessThan" value="0.55558246"/>
							</Node>
						</Node>
						<Node score="0.5929998">
							<SimplePredicate field="float(minMaxScaler(Low))" operator="lessThan" value="0.80630904"/>
							<Node score="0.52137417">
								<SimplePredicate field="float(minMaxScaler(High))" operator="lessThan" value="0.7387759"/>
							</Node>
						</Node>
						<Node score="0.6783379">
							<SimplePredicate field="float(minMaxScaler(Low))" operator="lessThan" value="0.90002584"/>
						</Node>
					</Node>
				</TreeModel>
			</Segment>
			<Segment id="21">
				<True/>
				<TreeModel functionName="regression" noTrueChildStrategy="returnLastPrediction" x-mathContext="float">
					<MiningSchema>
						<MiningField name="float(minMaxScaler(Open))"/>
						<MiningField name="float(minMaxScaler(Low))"/>
						<MiningField name="float(minMaxScaler(High))"/>
					</MiningSchema>
					<Node score="0.74658555">
						<True/>
						<Node score="0.11754918">
							<SimplePredicate field="float(minMaxScaler(Open))" operator="lessThan" value="0.41803682"/>
							<Node score="-0.13122296">
								<SimplePredicate field="float(minMaxScaler(High))" operator="lessThan" value="0.16392952"/>
								<Node score="-0.24250081">
									<SimplePredicate field="float(minMaxScaler(Low))" operator="lessThan" value="0.07215689"/>
									<Node score="-0.2802437">
										<SimplePredicate field="float(minMaxScaler(Low))" operator="lessThan" value="0.0323802"/>
									</Node>
								</Node>
								<Node score="-0.1784405">
									<SimplePredicate field="float(minMaxScaler(Open))" operator="lessThan" value="0.13047773"/>
								</Node>
							</Node>
							<Node score="-0.009545107">
								<SimplePredicate field="float(minMaxScaler(Low))" operator="lessThan" value="0.27694944"/>
								<Node score="-0.07192431">
									<SimplePredicate field="float(minMaxScaler(Low))" operator="lessThan" value="0.22373585"/>
								</Node>
							</Node>
							<Node score="0.053130217">
								<SimplePredicate field="float(minMaxScaler(Low))" operator="lessThan" value="0.33700585"/>
							</Node>
						</Node>
						<Node score="0.40217957">
							<SimplePredicate field="float(minMaxScaler(High))" operator="lessThan" value="0.66622144"/>
							<Node score="0.27408108">
								<SimplePredicate field="float(minMaxScaler(High))" operator="lessThan" value="0.51724213"/>
								<Node score="0.20551586">
									<SimplePredicate field="float(minMaxScaler(Open))" operator="lessThan" value="0.46835086"/>
								</Node>
							</Node>
							<Node score="0.32368255">
								<SimplePredicate field="float(minMaxScaler(High))" operator="lessThan" value="0.5822666"/>
							</Node>
						</Node>
						<Node score="0.56384206">
							<SimplePredicate field="float(minMaxScaler(Low))" operator="lessThan" value="0.7889035"/>
							<Node score="0.5021747">
								<SimplePredicate field="float(minMaxScaler(Low))" operator="lessThan" value="0.71992844"/>
							</Node>
						</Node>
						<Node score="0.65008867">
							<SimplePredicate field="float(minMaxScaler(Low))" operator="lessThan" value="0.86356044"/>
						</Node>
					</Node>
				</TreeModel>
			</Segment>
			<Segment id="22">
				<True/>
				<TreeModel functionName="regression" noTrueChildStrategy="returnLastPrediction" x-mathContext="float">
					<MiningSchema>
						<MiningField name="float(minMaxScaler(Open))"/>
						<MiningField name="float(minMaxScaler(High))"/>
					</MiningSchema>
					<Node score="0.7581915">
						<True/>
						<Node score="0.09177505">
							<SimplePredicate field="float(minMaxScaler(High))" operator="lessThan" value="0.39317474"/>
							<Node score="-0.13184582">
								<SimplePredicate field="float(minMaxScaler(High))" operator="lessThan" value="0.16073802"/>
								<Node score="-0.24257053">
									<SimplePredicate field="float(minMaxScaler(High))" operator="lessThan" value="0.071244165"/>
									<Node score="-0.2786859">
										<SimplePredicate field="float(minMaxScaler(High))" operator="lessThan" value="0.03023455"/>
									</Node>
								</Node>
								<Node score="-0.17742956">
									<SimplePredicate field="float(minMaxScaler(High))" operator="lessThan" value="0.12180662"/>
								</Node>
							</Node>
							<Node score="-0.025094425">
								<SimplePredicate field="float(minMaxScaler(High))" operator="lessThan" value="0.2584196"/>
								<Node score="-0.08256846">
									<SimplePredicate field="float(minMaxScaler(High))" operator="lessThan" value="0.21073839"/>
								</Node>
							</Node>
							<Node score="0.025682433">
								<SimplePredicate field="float(minMaxScaler(High))" operator="lessThan" value="0.30682722"/>
							</Node>
						</Node>
						<Node score="0.37318146">
							<SimplePredicate field="float(minMaxScaler(Open))" operator="lessThan" value="0.6449086"/>
							<Node score="0.25137833">
								<SimplePredicate field="float(minMaxScaler(High))" operator="lessThan" value="0.50154895"/>
								<Node score="0.18012947">
									<SimplePredicate field="float(minMaxScaler(Open))" operator="lessThan" value="0.44118267"/>
								</Node>
							</Node>
							<Node score="0.30707735">
								<SimplePredicate field="float(minMaxScaler(High))" operator="lessThan" value="0.5570027"/>
							</Node>
						</Node>
						<Node score="0.56655645">
							<SimplePredicate field="float(minMaxScaler(High))" operator="lessThan" value="0.79422975"/>
							<Node score="0.4994598">
								<SimplePredicate field="float(minMaxScaler(High))" operator="lessThan" value="0.7261088"/>
							</Node>
						</Node>
						<Node score="0.65356594">
							<SimplePredicate field="float(minMaxScaler(High))" operator="lessThan" value="0.8785364"/>
						</Node>
					</Node>
				</TreeModel>
			</Segment>
			<Segment id="23">
				<True/>
				<TreeModel functionName="regression" noTrueChildStrategy="returnLastPrediction" x-mathContext="float">
					<MiningSchema>
						<MiningField name="float(minMaxScaler(High))"/>
					</MiningSchema>
					<Node score="0.74939084">
						<True/>
						<Node score="0.109487616">
							<SimplePredicate field="float(minMaxScaler(High))" operator="lessThan" value="0.39317474"/>
							<Node score="-0.1294802">
								<SimplePredicate field="float(minMaxScaler(High))" operator="lessThan" value="0.16392952"/>
								<Node score="-0.24016866">
									<SimplePredicate field="float(minMaxScaler(High))" operator="lessThan" value="0.071244165"/>
									<Node score="-0.2759002">
										<SimplePredicate field="float(minMaxScaler(High))" operator="lessThan" value="0.03023455"/>
									</Node>
								</Node>
								<Node score="-0.17546262">
									<SimplePredicate field="float(minMaxScaler(High))" operator="lessThan" value="0.12180662"/>
								</Node>
							</Node>
							<Node score="-0.008631599">
								<SimplePredicate field="float(minMaxScaler(High))" operator="lessThan" value="0.2742495"/>
								<Node score="-0.068951964">
									<SimplePredicate field="float(minMaxScaler(High))" operator="lessThan" value="0.2282917"/>
								</Node>
							</Node>
							<Node score="0.04791619">
								<SimplePredicate field="float(minMaxScaler(High))" operator="lessThan" value="0.32850206"/>
							</Node>
						</Node>
						<Node score="0.39402866">
							<SimplePredicate field="float(minMaxScaler(High))" operator="lessThan" value="0.66622144"/>
							<Node score="0.27623084">
								<SimplePredicate field="float(minMaxScaler(High))" operator="lessThan" value="0.5239275"/>
								<Node score="0.20161536">
									<SimplePredicate field="float(minMaxScaler(High))" operator="lessThan" value="0.4728368"/>
								</Node>
							</Node>
							<Node score="0.32172555">
								<SimplePredicate field="float(minMaxScaler(High))" operator="lessThan" value="0.5822666"/>
							</Node>
						</Node>
						<Node score="0.5651365">
							<SimplePredicate field="float(minMaxScaler(High))" operator="lessThan" value="0.79422975"/>
							<Node score="0.50311685">
								<SimplePredicate field="float(minMaxScaler(High))" operator="lessThan" value="0.7325127"/>
							</Node>
						</Node>
						<Node score="0.64737743">
							<SimplePredicate field="float(minMaxScaler(High))" operator="lessThan" value="0.8785364"/>
						</Node>
					</Node>
				</TreeModel>
			</Segment>
			<Segment id="24">
				<True/>
				<TreeModel functionName="regression" noTrueChildStrategy="returnLastPrediction" x-mathContext="float">
					<MiningSchema>
						<MiningField name="float(minMaxScaler(Open))"/>
						<MiningField name="float(minMaxScaler(Low))"/>
						<MiningField name="float(minMaxScaler(High))"/>
					</MiningSchema>
					<Node score="0.7649743">
						<True/>
						<Node score="0.09746204">
							<SimplePredicate field="float(minMaxScaler(Low))" operator="lessThan" value="0.3953361"/>
							<Node score="-0.12718819">
								<SimplePredicate field="float(minMaxScaler(High))" operator="lessThan" value="0.16392952"/>
								<Node score="-0.23638992">
									<SimplePredicate field="float(minMaxScaler(Low))" operator="lessThan" value="0.07215689"/>
									<Node score="-0.27245986">
										<SimplePredicate field="float(minMaxScaler(Low))" operator="lessThan" value="0.0318871"/>
									</Node>
								</Node>
								<Node score="-0.17332135">
									<SimplePredicate field="float(minMaxScaler(Open))" operator="lessThan" value="0.13047773"/>
								</Node>
							</Node>
							<Node score="-0.014436164">
								<SimplePredicate field="float(minMaxScaler(Low))" operator="lessThan" value="0.26861897"/>
								<Node score="-0.07166672">
									<SimplePredicate field="float(minMaxScaler(Low))" operator="lessThan" value="0.22223543"/>
								</Node>
							</Node>
							<Node score="0.035833187">
								<SimplePredicate field="float(minMaxScaler(High))" operator="lessThan" value="0.3180165"/>
							</Node>
						</Node>
						<Node score="0.37754378">
							<SimplePredicate field="float(minMaxScaler(Low))" operator="lessThan" value="0.669366"/>
							<Node score="0.25102234">
								<SimplePredicate field="float(minMaxScaler(Low))" operator="lessThan" value="0.5027904"/>
								<Node score="0.18952352">
									<SimplePredicate field="float(minMaxScaler(High))" operator="lessThan" value="0.45503247"/>
								</Node>
							</Node>
							<Node score="0.3052399">
								<SimplePredicate field="float(minMaxScaler(High))" operator="lessThan" value="0.5662216"/>
							</Node>
						</Node>
						<Node score="0.5641541">
							<SimplePredicate field="float(minMaxScaler(Low))" operator="lessThan" value="0.80630904"/>
							<Node score="0.49810302">
								<SimplePredicate field="float(minMaxScaler(Low))" operator="lessThan" value="0.73639905"/>
							</Node>
						</Node>
						<Node score="0.6510041">
							<SimplePredicate field="float(minMaxScaler(Low))" operator="lessThan" value="0.90002584"/>
						</Node>
					</Node>
				</TreeModel>
			</Segment>
			<Segment id="25">
				<True/>
				<TreeModel functionName="regression" noTrueChildStrategy="returnLastPrediction" x-mathContext="float">
					<MiningSchema>
						<MiningField name="float(minMaxScaler(Open))"/>
						<MiningField name="float(minMaxScaler(Low))"/>
					</MiningSchema>
					<Node score="0.7103936">
						<True/>
						<Node score="0.08987544">
							<SimplePredicate field="float(minMaxScaler(Low))" operator="lessThan" value="0.3953361"/>
							<Node score="-0.16230252">
								<SimplePredicate field="float(minMaxScaler(Low))" operator="lessThan" value="0.1457603"/>
								<Node score="-0.24590726">
									<SimplePredicate field="float(minMaxScaler(Open))" operator="lessThan" value="0.06321583"/>
									<Node score="-0.27525103">
										<SimplePredicate field="float(minMaxScaler(Low))" operator="lessThan" value="0.02005271"/>
									</Node>
								</Node>
								<Node score="-0.20400153">
									<SimplePredicate field="float(minMaxScaler(Low))" operator="lessThan" value="0.092373975"/>
								</Node>
							</Node>
							<Node score="-0.027353462">
								<SimplePredicate field="float(minMaxScaler(Low))" operator="lessThan" value="0.2564849"/>
								<Node score="-0.08708201">
									<SimplePredicate field="float(minMaxScaler(Low))" operator="lessThan" value="0.20184885"/>
								</Node>
							</Node>
							<Node score="0.02374392">
								<SimplePredicate field="float(minMaxScaler(Low))" operator="lessThan" value="0.309459"/>
							</Node>
						</Node>
						<Node score="0.36070514">
							<SimplePredicate field="float(minMaxScaler(Open))" operator="lessThan" value="0.6449086"/>
							<Node score="0.2446851">
								<SimplePredicate field="float(minMaxScaler(Low))" operator="lessThan" value="0.5027904"/>
								<Node score="0.17572832">
									<SimplePredicate field="float(minMaxScaler(Open))" operator="lessThan" value="0.44118267"/>
								</Node>
							</Node>
							<Node score="0.29759675">
								<SimplePredicate field="float(minMaxScaler(Open))" operator="lessThan" value="0.5592407"/>
							</Node>
						</Node>
						<Node score="0.53781146">
							<SimplePredicate field="float(minMaxScaler(Low))" operator="lessThan" value="0.7889035"/>
							<Node score="0.47040865">
								<SimplePredicate field="float(minMaxScaler(Low))" operator="lessThan" value="0.70949954"/>
							</Node>
						</Node>
						<Node score="0.6185476">
							<SimplePredicate field="float(minMaxScaler(Low))" operator="lessThan" value="0.85500145"/>
						</Node>
					</Node>
				</TreeModel>
			</Segment>
			<Segment id="26">
				<True/>
				<TreeModel functionName="regression" noTrueChildStrategy="returnLastPrediction" x-mathContext="float">
					<MiningSchema>
						<MiningField name="float(minMaxScaler(Open))"/>
						<MiningField name="float(minMaxScaler(High))"/>
					</MiningSchema>
					<Node score="0.7037362">
						<True/>
						<Node score="0.108394794">
							<SimplePredicate field="float(minMaxScaler(High))" operator="lessThan" value="0.39317474"/>
							<Node score="-0.14122707">
								<SimplePredicate field="float(minMaxScaler(Open))" operator="lessThan" value="0.16787806"/>
								<Node score="-0.24059694">
									<SimplePredicate field="float(minMaxScaler(High))" operator="lessThan" value="0.06175567"/>
									<Node score="-0.27036786">
										<SimplePredicate field="float(minMaxScaler(High))" operator="lessThan" value="0.024444953"/>
									</Node>
								</Node>
								<Node score="-0.18355043">
									<SimplePredicate field="float(minMaxScaler(High))" operator="lessThan" value="0.10839406"/>
								</Node>
							</Node>
							<Node score="-0.010317048">
								<SimplePredicate field="float(minMaxScaler(High))" operator="lessThan" value="0.2742495"/>
								<Node score="-0.06979018">
									<SimplePredicate field="float(minMaxScaler(High))" operator="lessThan" value="0.22549914"/>
								</Node>
							</Node>
							<Node score="0.04832304">
								<SimplePredicate field="float(minMaxScaler(High))" operator="lessThan" value="0.33110583"/>
							</Node>
						</Node>
						<Node score="0.35935578">
							<SimplePredicate field="float(minMaxScaler(Open))" operator="lessThan" value="0.6449086"/>
							<Node score="0.24184786">
								<SimplePredicate field="float(minMaxScaler(High))" operator="lessThan" value="0.50154895"/>
								<Node score="0.17376886">
									<SimplePredicate field="float(minMaxScaler(High))" operator="lessThan" value="0.4383541"/>
								</Node>
							</Node>
							<Node score="0.29508272">
								<SimplePredicate field="float(minMaxScaler(High))" operator="lessThan" value="0.5570027"/>
							</Node>
						</Node>
						<Node score="0.5361377">
							<SimplePredicate field="float(minMaxScaler(High))" operator="lessThan" value="0.7862776"/>
							<Node score="0.47196788">
								<SimplePredicate field="float(minMaxScaler(High))" operator="lessThan" value="0.71738255"/>
							</Node>
						</Node>
						<Node score="0.61267173">
							<SimplePredicate field="float(minMaxScaler(High))" operator="lessThan" value="0.8524281"/>
						</Node>
					</Node>
				</TreeModel>
			</Segment>
			<Segment id="27">
				<True/>
				<TreeModel functionName="regression" noTrueChildStrategy="returnLastPrediction" x-mathContext="float">
					<MiningSchema>
						<MiningField name="float(minMaxScaler(Open))"/>
						<MiningField name="float(minMaxScaler(Low))"/>
						<MiningField name="float(minMaxScaler(High))"/>
					</MiningSchema>
					<Node score="0.74203056">
						<True/>
						<Node score="0.097216755">
							<SimplePredicate field="float(minMaxScaler(Low))" operator="lessThan" value="0.3953361"/>
							<Node score="-0.12012304">
								<SimplePredicate field="float(minMaxScaler(High))" operator="lessThan" value="0.16392952"/>
								<Node score="-0.2274314">
									<SimplePredicate field="float(minMaxScaler(Open))" operator="lessThan" value="0.08369647"/>
									<Node score="-0.26334497">
										<SimplePredicate field="float(minMaxScaler(High))" operator="lessThan" value="0.033129346"/>
									</Node>
								</Node>
								<Node score="-0.16679323">
									<SimplePredicate field="float(minMaxScaler(High))" operator="lessThan" value="0.12563136"/>
								</Node>
							</Node>
							<Node score="-0.015736055">
								<SimplePredicate field="float(minMaxScaler(Low))" operator="lessThan" value="0.26861897"/>
								<Node score="-0.072101414">
									<SimplePredicate field="float(minMaxScaler(High))" operator="lessThan" value="0.22031294"/>
								</Node>
							</Node>
							<Node score="0.036138125">
								<SimplePredicate field="float(minMaxScaler(Low))" operator="lessThan" value="0.32276493"/>
							</Node>
						</Node>
						<Node score="0.37912276">
							<SimplePredicate field="float(minMaxScaler(High))" operator="lessThan" value="0.66622144"/>
							<Node score="0.24827203">
								<SimplePredicate field="float(minMaxScaler(High))" operator="lessThan" value="0.5075306"/>
								<Node score="0.18439798">
									<SimplePredicate field="float(minMaxScaler(High))" operator="lessThan" value="0.45503247"/>
								</Node>
							</Node>
							<Node score="0.30020264">
								<SimplePredicate field="float(minMaxScaler(High))" operator="lessThan" value="0.5822666"/>
							</Node>
						</Node>
						<Node score="0.55971235">
							<SimplePredicate field="float(minMaxScaler(Low))" operator="lessThan" value="0.81443644"/>
							<Node score="0.4931845">
								<SimplePredicate field="float(minMaxScaler(Low))" operator="lessThan" value="0.7474034"/>
							</Node>
						</Node>
						<Node score="0.6361699">
							<SimplePredicate field="float(minMaxScaler(Low))" operator="lessThan" value="0.90002584"/>
						</Node>
					</Node>
				</TreeModel>
			</Segment>
			<Segment id="28">
				<True/>
				<TreeModel functionName="regression" noTrueChildStrategy="returnLastPrediction" x-mathContext="float">
					<MiningSchema>
						<MiningField name="float(minMaxScaler(Open))"/>
						<MiningField name="float(minMaxScaler(Year))"/>
					</MiningSchema>
					<Node score="0.7293028">
						<True/>
						<Node score="0.08424607">
							<SimplePredicate field="float(minMaxScaler(Open))" operator="lessThan" value="0.41803682"/>
							<Node score="-0.15346488">
								<SimplePredicate field="float(minMaxScaler(Open))" operator="lessThan" value="0.15432926"/>
								<Node score="-0.23928316">
									<SimplePredicate field="float(minMaxScaler(Open))" operator="lessThan" value="0.06321583"/>
									<Node score="-0.2681347">
										<SimplePredicate field="float(minMaxScaler(Year))" operator="lessThan" value="0.11363637"/>
									</Node>
								</Node>
								<Node score="-0.19226383">
									<SimplePredicate field="float(minMaxScaler(Open))" operator="lessThan" value="0.10304826"/>
								</Node>
							</Node>
							<Node score="-0.02579988">
								<SimplePredicate field="float(minMaxScaler(Open))" operator="lessThan" value="0.26406038"/>
								<Node score="-0.084431335">
									<SimplePredicate field="float(minMaxScaler(Open))" operator="lessThan" value="0.20887728"/>
								</Node>
							</Node>
							<Node score="0.020791322">
								<SimplePredicate field="float(minMaxScaler(Open))" operator="lessThan" value="0.30689436"/>
							</Node>
						</Node>
						<Node score="0.34845543">
							<SimplePredicate field="float(minMaxScaler(Open))" operator="lessThan" value="0.6449086"/>
							<Node score="0.25688264">
								<SimplePredicate field="float(minMaxScaler(Open))" operator="lessThan" value="0.5233928"/>
								<Node score="0.18996382">
									<SimplePredicate field="float(minMaxScaler(Open))" operator="lessThan" value="0.46835086"/>
								</Node>
							</Node>
							<Node score="0.2957551">
								<SimplePredicate field="float(minMaxScaler(Open))" operator="lessThan" value="0.5592407"/>
							</Node>
						</Node>
						<Node score="0.5251559">
							<SimplePredicate field="float(minMaxScaler(Open))" operator="lessThan" value="0.78653586"/>
							<Node score="0.46681055">
								<SimplePredicate field="float(minMaxScaler(Open))" operator="lessThan" value="0.7229553"/>
							</Node>
						</Node>
						<Node score="0.61342305">
							<SimplePredicate field="float(minMaxScaler(Open))" operator="lessThan" value="0.89330316"/>
						</Node>
					</Node>
				</TreeModel>
			</Segment>
			<Segment id="29">
				<True/>
				<TreeModel functionName="regression" noTrueChildStrategy="returnLastPrediction" x-mathContext="float">
					<MiningSchema>
						<MiningField name="float(minMaxScaler(Low))"/>
						<MiningField name="float(minMaxScaler(High))"/>
					</MiningSchema>
					<Node score="0.72753984">
						<True/>
						<Node score="0.112193">
							<SimplePredicate field="float(minMaxScaler(Low))" operator="lessThan" value="0.3953361"/>
							<Node score="-0.11825722">
								<SimplePredicate field="float(minMaxScaler(High))" operator="lessThan" value="0.16392952"/>
								<Node score="-0.22323863">
									<SimplePredicate field="float(minMaxScaler(High))" operator="lessThan" value="0.071244165"/>
									<Node score="-0.2581131">
										<SimplePredicate field="float(minMaxScaler(Low))" operator="lessThan" value="0.0333664"/>
									</Node>
								</Node>
								<Node score="-0.1644138">
									<SimplePredicate field="float(minMaxScaler(High))" operator="lessThan" value="0.12563136"/>
								</Node>
							</Node>
							<Node score="-0.0068242797">
								<SimplePredicate field="float(minMaxScaler(High))" operator="lessThan" value="0.2780447"/>
								<Node score="-0.065590575">
									<SimplePredicate field="float(minMaxScaler(High))" operator="lessThan" value="0.2282917"/>
								</Node>
							</Node>
							<Node score="0.05101916">
								<SimplePredicate field="float(minMaxScaler(Low))" operator="lessThan" value="0.33909163"/>
							</Node>
						</Node>
						<Node score="0.35151285">
							<SimplePredicate field="float(minMaxScaler(Low))" operator="lessThan" value="0.669366"/>
							<Node score="0.232749">
								<SimplePredicate field="float(minMaxScaler(Low))" operator="lessThan" value="0.5027904"/>
								<Node score="0.16885787">
									<SimplePredicate field="float(minMaxScaler(High))" operator="lessThan" value="0.4383541"/>
								</Node>
							</Node>
							<Node score="0.28620598">
								<SimplePredicate field="float(minMaxScaler(High))" operator="lessThan" value="0.5570027"/>
							</Node>
						</Node>
						<Node score="0.5543303">
							<SimplePredicate field="float(minMaxScaler(Low))" operator="lessThan" value="0.81443644"/>
							<Node score="0.48740652">
								<SimplePredicate field="float(minMaxScaler(High))" operator="lessThan" value="0.74947256"/>
							</Node>
						</Node>
						<Node score="0.62298375">
							<SimplePredicate field="float(minMaxScaler(Low))" operator="lessThan" value="0.90002584"/>
						</Node>
					</Node>
				</TreeModel>
			</Segment>
			<Segment id="30">
				<True/>
				<TreeModel functionName="regression" noTrueChildStrategy="returnLastPrediction" x-mathContext="float">
					<MiningSchema>
						<MiningField name="float(minMaxScaler(High))"/>
					</MiningSchema>
					<Node score="0.68303186">
						<True/>
						<Node score="0.084337264">
							<SimplePredicate field="float(minMaxScaler(High))" operator="lessThan" value="0.39317474"/>
							<Node score="-0.14983223">
								<SimplePredicate field="float(minMaxScaler(High))" operator="lessThan" value="0.14947347"/>
								<Node score="-0.23410723">
									<SimplePredicate field="float(minMaxScaler(High))" operator="lessThan" value="0.053875387"/>
									<Node score="-0.26213008">
										<SimplePredicate field="float(minMaxScaler(High))" operator="lessThan" value="0.019781118"/>
									</Node>
								</Node>
								<Node score="-0.18841113">
									<SimplePredicate field="float(minMaxScaler(High))" operator="lessThan" value="0.096332416"/>
								</Node>
							</Node>
							<Node score="-0.02674013">
								<SimplePredicate field="float(minMaxScaler(High))" operator="lessThan" value="0.25516427"/>
								<Node score="-0.08320794">
									<SimplePredicate field="float(minMaxScaler(High))" operator="lessThan" value="0.20295684"/>
								</Node>
							</Node>
							<Node score="0.020513317">
								<SimplePredicate field="float(minMaxScaler(High))" operator="lessThan" value="0.30380118"/>
							</Node>
						</Node>
						<Node score="0.35733157">
							<SimplePredicate field="float(minMaxScaler(High))" operator="lessThan" value="0.66622144"/>
							<Node score="0.2317168">
								<SimplePredicate field="float(minMaxScaler(High))" operator="lessThan" value="0.50154895"/>
								<Node score="0.1662396">
									<SimplePredicate field="float(minMaxScaler(High))" operator="lessThan" value="0.4383541"/>
								</Node>
							</Node>
							<Node score="0.28697157">
								<SimplePredicate field="float(minMaxScaler(High))" operator="lessThan" value="0.5662216"/>
							</Node>
						</Node>
						<Node score="0.5174656">
							<SimplePredicate field="float(minMaxScaler(High))" operator="lessThan" value="0.7862776"/>
							<Node score="0.46432623">
								<SimplePredicate field="float(minMaxScaler(High))" operator="lessThan" value="0.7261088"/>
							</Node>
						</Node>
						<Node score="0.5940378">
							<SimplePredicate field="float(minMaxScaler(High))" operator="lessThan" value="0.8624914"/>
						</Node>
					</Node>
				</TreeModel>
			</Segment>
			<Segment id="31">
				<True/>
				<TreeModel functionName="regression" noTrueChildStrategy="returnLastPrediction" x-mathContext="float">
					<MiningSchema>
						<MiningField name="float(minMaxScaler(Open))"/>
						<MiningField name="float(minMaxScaler(High))"/>
					</MiningSchema>
					<Node score="0.7149749">
						<True/>
						<Node score="0.10916434">
							<SimplePredicate field="float(minMaxScaler(High))" operator="lessThan" value="0.39317474"/>
							<Node score="-0.11570115">
								<SimplePredicate field="float(minMaxScaler(High))" operator="lessThan" value="0.16392952"/>
								<Node score="-0.2187079">
									<SimplePredicate field="float(minMaxScaler(Open))" operator="lessThan" value="0.08369647"/>
									<Node score="-0.25338084">
										<SimplePredicate field="float(minMaxScaler(High))" operator="lessThan" value="0.033129346"/>
									</Node>
								</Node>
								<Node score="-0.16005614">
									<SimplePredicate field="float(minMaxScaler(High))" operator="lessThan" value="0.12563136"/>
								</Node>
							</Node>
							<Node score="-0.0041167676">
								<SimplePredicate field="float(minMaxScaler(High))" operator="lessThan" value="0.27935594"/>
								<Node score="-0.06206621">
									<SimplePredicate field="float(minMaxScaler(High))" operator="lessThan" value="0.23084491"/>
								</Node>
							</Node>
							<Node score="0.051416203">
								<SimplePredicate field="float(minMaxScaler(High))" operator="lessThan" value="0.33532822"/>
							</Node>
						</Node>
						<Node score="0.3348137">
							<SimplePredicate field="float(minMaxScaler(Open))" operator="lessThan" value="0.6449086"/>
							<Node score="0.23525082">
								<SimplePredicate field="float(minMaxScaler(High))" operator="lessThan" value="0.50154895"/>
								<Node score="0.17835467">
									<SimplePredicate field="float(minMaxScaler(High))" operator="lessThan" value="0.45503247"/>
								</Node>
							</Node>
							<Node score="0.27841383">
								<SimplePredicate field="float(minMaxScaler(High))" operator="lessThan" value="0.5491914"/>
							</Node>
						</Node>
						<Node score="0.5301959">
							<SimplePredicate field="float(minMaxScaler(High))" operator="lessThan" value="0.80534863"/>
							<Node score="0.46675634">
								<SimplePredicate field="float(minMaxScaler(High))" operator="lessThan" value="0.7387759"/>
							</Node>
						</Node>
						<Node score="0.6069011">
							<SimplePredicate field="float(minMaxScaler(High))" operator="lessThan" value="0.89697415"/>
						</Node>
					</Node>
				</TreeModel>
			</Segment>
			<Segment id="32">
				<True/>
				<TreeModel functionName="regression" noTrueChildStrategy="returnLastPrediction" x-mathContext="float">
					<MiningSchema>
						<MiningField name="float(minMaxScaler(Open))"/>
						<MiningField name="float(minMaxScaler(Low))"/>
						<MiningField name="float(minMaxScaler(High))"/>
					</MiningSchema>
					<Node score="0.7078896">
						<True/>
						<Node score="0.10450021">
							<SimplePredicate field="float(minMaxScaler(High))" operator="lessThan" value="0.39317474"/>
							<Node score="-0.11525233">
								<SimplePredicate field="float(minMaxScaler(High))" operator="lessThan" value="0.16392952"/>
								<Node score="-0.21614675">
									<SimplePredicate field="float(minMaxScaler(Open))" operator="lessThan" value="0.08369647"/>
									<Node score="-0.25042146">
										<SimplePredicate field="float(minMaxScaler(Low))" operator="lessThan" value="0.0333664"/>
									</Node>
								</Node>
								<Node score="-0.15876201">
									<SimplePredicate field="float(minMaxScaler(Low))" operator="lessThan" value="0.12585542"/>
								</Node>
							</Node>
							<Node score="-0.0064366865">
								<SimplePredicate field="float(minMaxScaler(Low))" operator="lessThan" value="0.27853173"/>
								<Node score="-0.06276181">
									<SimplePredicate field="float(minMaxScaler(Low))" operator="lessThan" value="0.22667463"/>
								</Node>
							</Node>
							<Node score="0.048306502">
								<SimplePredicate field="float(minMaxScaler(Low))" operator="lessThan" value="0.33700585"/>
							</Node>
						</Node>
						<Node score="0.3604898">
							<SimplePredicate field="float(minMaxScaler(High))" operator="lessThan" value="0.66622144"/>
							<Node score="0.24693564">
								<SimplePredicate field="float(minMaxScaler(High))" operator="lessThan" value="0.51724213"/>
								<Node score="0.18528333">
									<SimplePredicate field="float(minMaxScaler(Low))" operator="lessThan" value="0.4752435"/>
								</Node>
							</Node>
							<Node score="0.28933543">
								<SimplePredicate field="float(minMaxScaler(Low))" operator="lessThan" value="0.57572114"/>
							</Node>
						</Node>
						<Node score="0.52091664">
							<SimplePredicate field="float(minMaxScaler(Low))" operator="lessThan" value="0.80630904"/>
							<Node score="0.45936576">
								<SimplePredicate field="float(minMaxScaler(Low))" operator="lessThan" value="0.73639905"/>
							</Node>
						</Node>
						<Node score="0.5994528">
							<SimplePredicate field="float(minMaxScaler(Low))" operator="lessThan" value="0.90002584"/>
						</Node>
					</Node>
				</TreeModel>
			</Segment>
			<Segment id="33">
				<True/>
				<TreeModel functionName="regression" noTrueChildStrategy="returnLastPrediction" x-mathContext="float">
					<MiningSchema>
						<MiningField name="float(minMaxScaler(Open))"/>
						<MiningField name="float(minMaxScaler(Low))"/>
						<MiningField name="float(minMaxScaler(High))"/>
					</MiningSchema>
					<Node score="0.7031392">
						<True/>
						<Node score="0.079897426">
							<SimplePredicate field="float(minMaxScaler(Low))" operator="lessThan" value="0.3953361"/>
							<Node score="-0.1426577">
								<SimplePredicate field="float(minMaxScaler(High))" operator="lessThan" value="0.15425883"/>
								<Node score="-0.22715282">
									<SimplePredicate field="float(minMaxScaler(Open))" operator="lessThan" value="0.06321583"/>
									<Node score="-0.25457713">
										<SimplePredicate field="float(minMaxScaler(Low))" operator="lessThan" value="0.02005271"/>
									</Node>
								</Node>
								<Node score="-0.17978565">
									<SimplePredicate field="float(minMaxScaler(High))" operator="lessThan" value="0.099010095"/>
								</Node>
							</Node>
							<Node score="-0.025715072">
								<SimplePredicate field="float(minMaxScaler(Low))" operator="lessThan" value="0.2564849"/>
								<Node score="-0.08132294">
									<SimplePredicate field="float(minMaxScaler(Low))" operator="lessThan" value="0.20013472"/>
								</Node>
							</Node>
							<Node score="0.019671941">
								<SimplePredicate field="float(minMaxScaler(Low))" operator="lessThan" value="0.30209538"/>
							</Node>
						</Node>
						<Node score="0.32778323">
							<SimplePredicate field="float(minMaxScaler(Open))" operator="lessThan" value="0.6449086"/>
							<Node score="0.23621204">
								<SimplePredicate field="float(minMaxScaler(Low))" operator="lessThan" value="0.50854427"/>
								<Node score="0.18106808">
									<SimplePredicate field="float(minMaxScaler(Open))" operator="lessThan" value="0.46835086"/>
								</Node>
							</Node>
							<Node score="0.27443582">
								<SimplePredicate field="float(minMaxScaler(Low))" operator="lessThan" value="0.5474551"/>
							</Node>
						</Node>
						<Node score="0.51494724">
							<SimplePredicate field="float(minMaxScaler(Low))" operator="lessThan" value="0.80630904"/>
							<Node score="0.4524019">
								<SimplePredicate field="float(minMaxScaler(Low))" operator="lessThan" value="0.73639905"/>
							</Node>
						</Node>
						<Node score="0.5945456">
							<SimplePredicate field="float(minMaxScaler(Low))" operator="lessThan" value="0.90002584"/>
						</Node>
					</Node>
				</TreeModel>
			</Segment>
			<Segment id="34">
				<True/>
				<TreeModel functionName="regression" noTrueChildStrategy="returnLastPrediction" x-mathContext="float">
					<MiningSchema>
						<MiningField name="float(minMaxScaler(Open))"/>
						<MiningField name="float(minMaxScaler(Low))"/>
					</MiningSchema>
					<Node score="0.66273063">
						<True/>
						<Node score="0.079063624">
							<SimplePredicate field="float(minMaxScaler(Low))" operator="lessThan" value="0.3953361"/>
							<Node score="-0.14461857">
								<SimplePredicate field="float(minMaxScaler(Low))" operator="lessThan" value="0.1457603"/>
								<Node score="-0.22482795">
									<SimplePredicate field="float(minMaxScaler(Open))" operator="lessThan" value="0.06321583"/>
									<Node score="-0.251849">
										<SimplePredicate field="float(minMaxScaler(Low))" operator="lessThan" value="0.02005271"/>
									</Node>
								</Node>
								<Node score="-0.18009573">
									<SimplePredicate field="float(minMaxScaler(Low))" operator="lessThan" value="0.09681187"/>
								</Node>
							</Node>
							<Node score="-0.027947463">
								<SimplePredicate field="float(minMaxScaler(Low))" operator="lessThan" value="0.253223"/>
								<Node score="-0.08333384">
									<SimplePredicate field="float(minMaxScaler(Low))" operator="lessThan" value="0.19855241"/>
								</Node>
							</Node>
							<Node score="0.01791562">
								<SimplePredicate field="float(minMaxScaler(Low))" operator="lessThan" value="0.30209538"/>
							</Node>
						</Node>
						<Node score="0.320212">
							<SimplePredicate field="float(minMaxScaler(Open))" operator="lessThan" value="0.6449086"/>
							<Node score="0.2218119">
								<SimplePredicate field="float(minMaxScaler(Low))" operator="lessThan" value="0.5027904"/>
								<Node score="0.1605447">
									<SimplePredicate field="float(minMaxScaler(Open))" operator="lessThan" value="0.44118267"/>
								</Node>
							</Node>
							<Node score="0.267408">
								<SimplePredicate field="float(minMaxScaler(Low))" operator="lessThan" value="0.5433554"/>
							</Node>
						</Node>
						<Node score="0.48736033">
							<SimplePredicate field="float(minMaxScaler(Low))" operator="lessThan" value="0.7772518"/>
							<Node score="0.4275661">
								<SimplePredicate field="float(minMaxScaler(Low))" operator="lessThan" value="0.70949954"/>
							</Node>
						</Node>
						<Node score="0.566209">
							<SimplePredicate field="float(minMaxScaler(Low))" operator="lessThan" value="0.86356044"/>
						</Node>
					</Node>
				</TreeModel>
			</Segment>
			<Segment id="35">
				<True/>
				<TreeModel functionName="regression" noTrueChildStrategy="returnLastPrediction" x-mathContext="float">
					<MiningSchema>
						<MiningField name="float(minMaxScaler(Open))"/>
						<MiningField name="float(minMaxScaler(Year))"/>
					</MiningSchema>
					<Node score="0.65569276">
						<True/>
						<Node score="0.077687636">
							<SimplePredicate field="float(minMaxScaler(Open))" operator="lessThan" value="0.39517322"/>
							<Node score="-0.14766845">
								<SimplePredicate field="float(minMaxScaler(Open))" operator="lessThan" value="0.15041417"/>
								<Node score="-0.22309679">
									<SimplePredicate field="float(minMaxScaler(Open))" operator="lessThan" value="0.06321583"/>
									<Node score="-0.25018406">
										<SimplePredicate field="float(minMaxScaler(Year))" operator="lessThan" value="0.11363637"/>
									</Node>
								</Node>
								<Node score="-0.18625294">
									<SimplePredicate field="float(minMaxScaler(Open))" operator="lessThan" value="0.09724271"/>
								</Node>
							</Node>
							<Node score="-0.029387018">
								<SimplePredicate field="float(minMaxScaler(Open))" operator="lessThan" value="0.25634414"/>
								<Node score="-0.08304989">
									<SimplePredicate field="float(minMaxScaler(Open))" operator="lessThan" value="0.20443158"/>
								</Node>
							</Node>
							<Node score="0.016476996">
								<SimplePredicate field="float(minMaxScaler(Open))" operator="lessThan" value="0.30689436"/>
							</Node>
						</Node>
						<Node score="0.32316855">
							<SimplePredicate field="float(minMaxScaler(Open))" operator="lessThan" value="0.6449086"/>
							<Node score="0.22318234">
								<SimplePredicate field="float(minMaxScaler(Open))" operator="lessThan" value="0.5020111"/>
								<Node score="0.16568151">
									<SimplePredicate field="float(minMaxScaler(Open))" operator="lessThan" value="0.45818925"/>
								</Node>
							</Node>
							<Node score="0.2667271">
								<SimplePredicate field="float(minMaxScaler(Open))" operator="lessThan" value="0.5537365"/>
							</Node>
						</Node>
						<Node score="0.48001987">
							<SimplePredicate field="float(minMaxScaler(Open))" operator="lessThan" value="0.77856183"/>
							<Node score="0.42141128">
								<SimplePredicate field="float(minMaxScaler(Open))" operator="lessThan" value="0.7096888"/>
							</Node>
						</Node>
						<Node score="0.5629189">
							<SimplePredicate field="float(minMaxScaler(Open))" operator="lessThan" value="0.8644414"/>
						</Node>
					</Node>
				</TreeModel>
			</Segment>
			<Segment id="36">
				<True/>
				<TreeModel functionName="regression" noTrueChildStrategy="returnLastPrediction" x-mathContext="float">
					<MiningSchema>
						<MiningField name="float(minMaxScaler(Low))"/>
						<MiningField name="float(minMaxScaler(High))"/>
					</MiningSchema>
					<Node score="0.6808881">
						<True/>
						<Node score="0.08485504">
							<SimplePredicate field="float(minMaxScaler(High))" operator="lessThan" value="0.39317474"/>
							<Node score="-0.118536234">
								<SimplePredicate field="float(minMaxScaler(High))" operator="lessThan" value="0.16392952"/>
								<Node score="-0.21191128">
									<SimplePredicate field="float(minMaxScaler(Low))" operator="lessThan" value="0.07215689"/>
									<Node score="-0.24347217">
										<SimplePredicate field="float(minMaxScaler(Low))" operator="lessThan" value="0.027942304"/>
									</Node>
								</Node>
								<Node score="-0.15611014">
									<SimplePredicate field="float(minMaxScaler(High))" operator="lessThan" value="0.11775391"/>
								</Node>
							</Node>
							<Node score="-0.01925728">
								<SimplePredicate field="float(minMaxScaler(High))" operator="lessThan" value="0.26009962"/>
								<Node score="-0.068758905">
									<SimplePredicate field="float(minMaxScaler(Low))" operator="lessThan" value="0.21408078"/>
								</Node>
							</Node>
							<Node score="0.025622759">
								<SimplePredicate field="float(minMaxScaler(High))" operator="lessThan" value="0.3125274"/>
							</Node>
						</Node>
						<Node score="0.3491845">
							<SimplePredicate field="float(minMaxScaler(Low))" operator="lessThan" value="0.669366"/>
							<Node score="0.2413681">
								<SimplePredicate field="float(minMaxScaler(High))" operator="lessThan" value="0.5239275"/>
								<Node score="0.17667778">
									<SimplePredicate field="float(minMaxScaler(Low))" operator="lessThan" value="0.4752435"/>
								</Node>
							</Node>
							<Node score="0.28328964">
								<SimplePredicate field="float(minMaxScaler(High))" operator="lessThan" value="0.5822666"/>
							</Node>
						</Node>
						<Node score="0.5174325">
							<SimplePredicate field="float(minMaxScaler(Low))" operator="lessThan" value="0.81443644"/>
							<Node score="0.45415592">
								<SimplePredicate field="float(minMaxScaler(High))" operator="lessThan" value="0.74947256"/>
							</Node>
						</Node>
						<Node score="0.5827583">
							<SimplePredicate field="float(minMaxScaler(High))" operator="lessThan" value="0.89697415"/>
						</Node>
					</Node>
				</TreeModel>
			</Segment>
			<Segment id="37">
				<True/>
