<?xml version="1.0" encoding="UTF-8" standalone="yes"?>
<PMML xmlns="http://www.dmg.org/PMML-4_4" xmlns:data="http://jpmml.org/jpmml-model/InlineTable" version="4.4">
	<Header>
		<Application name="SkLearn2PMML package" version="0.110.0"/>
		<Timestamp>2024-10-18T01:33:49Z</Timestamp>
	</Header>
	<MiningBuildTask>
		<Extension name="repr">PMMLPipeline(steps=[('scaler', MinMaxScaler()),
       ('regressor', MLPRegressor(hidden_layer_sizes=(64, 32), max_iter=500, random_state=42))])</Extension>
	</MiningBuildTask>
	<DataDictionary>
		<DataField name="Adj_Close" optype="continuous" dataType="double"/>
		<DataField name="Open" optype="continuous" dataType="double"/>
		<DataField name="High" optype="continuous" dataType="double"/>
		<DataField name="Low" optype="continuous" dataType="double"/>
		<DataField name="Close" optype="continuous" dataType="double"/>
		<DataField name="Volume" optype="continuous" dataType="double"/>
	</DataDictionary>
	<NeuralNetwork functionName="regression" algorithmName="sklearn.neural_network._multilayer_perceptron.MLPRegressor" activationFunction="rectifier">
		<MiningSchema>
			<MiningField name="Adj_Close" usageType="target"/>
			<MiningField name="Open"/>
			<MiningField name="High"/>
			<MiningField name="Low"/>
			<MiningField name="Close"/>
			<MiningField name="Volume"/>
		</MiningSchema>
		<LocalTransformations>
			<DerivedField name="minMaxScaler(Open)" optype="continuous" dataType="double">
				<Apply function="*">
					<FieldRef field="Open"/>
					<Constant dataType="double">0.0033654168092545674</Constant>
				</Apply>
			</DerivedField>
			<DerivedField name="minMaxScaler(High)" optype="continuous" dataType="double">
				<Apply function="+">
					<Apply function="*">
						<FieldRef field="High"/>
						<Constant dataType="double">0.0033885096761971257</Constant>
					</Apply>
					<Constant dataType="double">-0.011436220157165299</Constant>
				</Apply>
			</DerivedField>
			<DerivedField name="minMaxScaler(Low)" optype="continuous" dataType="double">
				<Apply function="+">
					<Apply function="*">
						<FieldRef field="Low"/>
						<Constant dataType="double">0.003417849043998799</Constant>
					</Apply>
					<Constant dataType="double">-0.010965597929657863</Constant>
				</Apply>
			</DerivedField>
			<DerivedField name="minMaxScaler(Close)" optype="continuous" dataType="double">
				<Apply function="+">
					<Apply function="*">
						<FieldRef field="Close"/>
						<Constant dataType="double">0.0034044677645903346</Constant>
					</Apply>
					<Constant dataType="double">-0.010922666329142834</Constant>
				</Apply>
			</DerivedField>
			<DerivedField name="minMaxScaler(Volume)" optype="continuous" dataType="double">
				<Apply function="*">
					<FieldRef field="Volume"/>
					<Constant dataType="double">3.03112970203995E-7</Constant>
				</Apply>
			</DerivedField>
		</LocalTransformations>
		<NeuralInputs>
			<NeuralInput id="input/1">
				<DerivedField optype="continuous" dataType="double">
					<FieldRef field="minMaxScaler(Open)"/>
				</DerivedField>
			</NeuralInput>
			<NeuralInput id="input/2">
				<DerivedField optype="continuous" dataType="double">
					<FieldRef field="minMaxScaler(High)"/>
				</DerivedField>
			</NeuralInput>
			<NeuralInput id="input/3">
				<DerivedField optype="continuous" dataType="double">
					<FieldRef field="minMaxScaler(Low)"/>
				</DerivedField>
			</NeuralInput>
			<NeuralInput id="input/4">
				<DerivedField optype="continuous" dataType="double">
					<FieldRef field="minMaxScaler(Close)"/>
				</DerivedField>
			</NeuralInput>
			<NeuralInput id="input/5">
				<DerivedField optype="continuous" dataType="double">
					<FieldRef field="minMaxScaler(Volume)"/>
				</DerivedField>
			</NeuralInput>
		</NeuralInputs>
		<NeuralLayer>
			<Neuron id="1/1" bias="0.03881077782562288">
				<Con from="input/1" weight="0.34253470756300713"/>
				<Con from="input/2" weight="0.3361860995514481"/>
				<Con from="input/3" weight="0.1465006236707655"/>
				<Con from="input/4" weight="0.7073723618192"/>
				<Con from="input/5" weight="0.5300946076457738"/>
			</Neuron>
			<Neuron id="1/2" bias="0.11948452995869305">
				<Con from="input/1" weight="0.6939405149976334"/>
				<Con from="input/2" weight="0.5024704612856451"/>
				<Con from="input/3" weight="0.455918538491467"/>
				<Con from="input/4" weight="0.5616263677573882"/>
				<Con from="input/5" weight="0.40203218799746904"/>
			</Neuron>
			<Neuron id="1/3" bias="-0.13412133372773757">
				<Con from="input/1" weight="0.550428716016894"/>
				<Con from="input/2" weight="0.24805148328044868"/>
				<Con from="input/3" weight="0.36982091827504754"/>
				<Con from="input/4" weight="0.372773886703445"/>
				<Con from="input/5" weight="0.39678133927544573"/>
			</Neuron>
			<Neuron id="1/4" bias="-0.1297879068707015">
				<Con from="input/1" weight="3.247124072307714E-152"/>
				<Con from="input/2" weight="4.793140456153718E-130"/>
				<Con from="input/3" weight="-2.019106839279046E-133"/>
				<Con from="input/4" weight="-2.695303778744734E-148"/>
				<Con from="input/5" weight="1.0163064438822639E-116"/>
			</Neuron>
			<Neuron id="1/5" bias="0.3282093115120984">
				<Con from="input/1" weight="0.2072840905388042"/>
				<Con from="input/2" weight="0.19790933969790261"/>
				<Con from="input/3" weight="0.2024619865440544"/>
				<Con from="input/4" weight="0.5867658070761402"/>
				<Con from="input/5" weight="0.3280864148485749"/>
			</Neuron>
			<Neuron id="1/6" bias="0.12995982590812144">
				<Con from="input/1" weight="0.2061770875097449"/>
				<Con from="input/2" weight="0.7494269461945371"/>
				<Con from="input/3" weight="0.33672558463892"/>
				<Con from="input/4" weight="0.7026221807850852"/>
				<Con from="input/5" weight="0.557624123890875"/>
			</Neuron>
			<Neuron id="1/7" bias="-0.04559551534627871">
				<Con from="input/1" weight="-0.34777880677339684"/>
				<Con from="input/2" weight="0.07329403745957527"/>
				<Con from="input/3" weight="0.17389543007068725"/>
				<Con from="input/4" weight="0.14098164627279314"/>
				<Con from="input/5" weight="-0.29080260395774876"/>
			</Neuron>
			<Neuron id="1/8" bias="0.017711671952067277">
				<Con from="input/1" weight="0.6272011189489339"/>
				<Con from="input/2" weight="0.2908627008906316"/>
				<Con from="input/3" weight="0.33319141667791974"/>
				<Con from="input/4" weight="0.6401490504877079"/>
				<Con from="input/5" weight="0.2517939181117438"/>
			</Neuron>
			<Neuron id="1/9" bias="-0.1719357027492029">
				<Con from="input/1" weight="0.5492901089716323"/>
				<Con from="input/2" weight="0.24204439194968122"/>
				<Con from="input/3" weight="0.5062814230088142"/>
				<Con from="input/4" weight="0.624589454217877"/>
				<Con from="input/5" weight="0.6526361140662013"/>
			</Neuron>
			<Neuron id="1/10" bias="-0.16869231063064036">
				<Con from="input/1" weight="0.10259821540189928"/>
				<Con from="input/2" weight="0.165873150679648"/>
				<Con from="input/3" weight="0.09961552991772978"/>
				<Con from="input/4" weight="-0.2651383349410799"/>
				<Con from="input/5" weight="0.10611145833925273"/>
			</Neuron>
			<Neuron id="1/11" bias="-0.08494267999763189">
				<Con from="input/1" weight="-8.594491997127917E-107"/>
				<Con from="input/2" weight="-9.78305528666071E-143"/>
				<Con from="input/3" weight="-8.741973999659461E-150"/>
				<Con from="input/4" weight="-2.779807773257426E-125"/>
				<Con from="input/5" weight="-2.0802000089579615E-143"/>
			</Neuron>
			<Neuron id="1/12" bias="0.11587003073945927">
				<Con from="input/1" weight="0.6898843556955803"/>
				<Con from="input/2" weight="0.6012107432059308"/>
				<Con from="input/3" weight="0.7141872250238603"/>
				<Con from="input/4" weight="0.7074584896144683"/>
				<Con from="input/5" weight="0.36593334461754534"/>
			</Neuron>
			<Neuron id="1/13" bias="-0.3355248468214155">
				<Con from="input/1" weight="0.649849080504544"/>
				<Con from="input/2" weight="0.6587861084193929"/>
				<Con from="input/3" weight="0.7329373763385569"/>
				<Con from="input/4" weight="0.5682115407188528"/>
				<Con from="input/5" weight="-0.19950589442211902"/>
			</Neuron>
			<Neuron id="1/14" bias="-0.22642800362017873">
				<Con from="input/1" weight="5.448514500269914E-133"/>
				<Con from="input/2" weight="-1.3820928809419808E-113"/>
				<Con from="input/3" weight="-5.121750772615552E-137"/>
				<Con from="input/4" weight="1.784998225020708E-105"/>
				<Con from="input/5" weight="1.8515532448132246E-142"/>
			</Neuron>
			<Neuron id="1/15" bias="-0.2677530341978715">
				<Con from="input/1" weight="3.7502941022413143E-128"/>
				<Con from="input/2" weight="-1.5253035409759541E-149"/>
				<Con from="input/3" weight="-1.0337543773276324E-150"/>
				<Con from="input/4" weight="1.4792994259748602E-117"/>
				<Con from="input/5" weight="-3.0070523752136253E-129"/>
			</Neuron>
			<Neuron id="1/16" bias="-0.270863375166774">
				<Con from="input/1" weight="-5.1966681987886184E-129"/>
				<Con from="input/2" weight="2.4812598922487736E-119"/>
				<Con from="input/3" weight="-2.6683521965205767E-143"/>
				<Con from="input/4" weight="-3.596622194527558E-147"/>
				<Con from="input/5" weight="-2.0797758541833957E-129"/>
			</Neuron>
			<Neuron id="1/17" bias="0.24429065639697745">
				<Con from="input/1" weight="0.3121461869536513"/>
				<Con from="input/2" weight="0.6906223964657104"/>
				<Con from="input/3" weight="0.3221987388343371"/>
				<Con from="input/4" weight="0.19028451536827462"/>
				<Con from="input/5" weight="0.4764869816960159"/>
			</Neuron>
			<Neuron id="1/18" bias="0.09338712945388852">
				<Con from="input/1" weight="0.4422862521079265"/>
				<Con from="input/2" weight="0.5451300069965376"/>
				<Con from="input/3" weight="0.17440776982996012"/>
				<Con from="input/4" weight="0.2774022206708553"/>
				<Con from="input/5" weight="0.5264967301821767"/>
			</Neuron>
			<Neuron id="1/19" bias="-0.015231444637421931">
				<Con from="input/1" weight="5.699302414842908E-153"/>
				<Con from="input/2" weight="7.764869157384266E-147"/>
				<Con from="input/3" weight="-1.3740503639682758E-151"/>
				<Con from="input/4" weight="-4.5923942719908314E-154"/>
				<Con from="input/5" weight="5.614319773615982E-151"/>
			</Neuron>
			<Neuron id="1/20" bias="-0.23718447220916977">
				<Con from="input/1" weight="-5.8449134624945774E-142"/>
				<Con from="input/2" weight="1.752592083760938E-112"/>
				<Con from="input/3" weight="1.0058326632999747E-150"/>
				<Con from="input/4" weight="6.686341497509863E-144"/>
				<Con from="input/5" weight="3.4991054215257684E-151"/>
			</Neuron>
			<Neuron id="1/21" bias="-0.15881102854411047">
				<Con from="input/1" weight="0.5372853588113359"/>
				<Con from="input/2" weight="0.40197256274848797"/>
				<Con from="input/3" weight="0.21250137799878138"/>
				<Con from="input/4" weight="0.6099129672230453"/>
				<Con from="input/5" weight="0.603939219169634"/>
			</Neuron>
			<Neuron id="1/22" bias="-0.12866180439604058">
				<Con from="input/1" weight="0.2675032823493937"/>
				<Con from="input/2" weight="0.42702542338717286"/>
				<Con from="input/3" weight="0.3628917421868757"/>
				<Con from="input/4" weight="0.37562080435395956"/>
				<Con from="input/5" weight="0.518324226250284"/>
			</Neuron>
			<Neuron id="1/23" bias="-0.2726106913628278">
				<Con from="input/1" weight="-0.1738439713944306"/>
				<Con from="input/2" weight="0.09720628977573491"/>
				<Con from="input/3" weight="0.2160816083735977"/>
				<Con from="input/4" weight="0.11138607562172309"/>
				<Con from="input/5" weight="0.2090447642132268"/>
			</Neuron>
			<Neuron id="1/24" bias="0.16414640134300995">
				<Con from="input/1" weight="0.11499668011065102"/>
				<Con from="input/2" weight="0.13079327424025097"/>
				<Con from="input/3" weight="-0.03956321960035579"/>
				<Con from="input/4" weight="-0.1172045690313185"/>
				<Con from="input/5" weight="0.5020675908032322"/>
			</Neuron>
			<Neuron id="1/25" bias="-0.16031332562687556">
				<Con from="input/1" weight="0.42288535489209195"/>
				<Con from="input/2" weight="0.7177070118959381"/>
				<Con from="input/3" weight="0.2442972763294751"/>
				<Con from="input/4" weight="0.393607332819156"/>
				<Con from="input/5" weight="0.6528697982322574"/>
			</Neuron>
			<Neuron id="1/26" bias="0.03204551037701777">
				<Con from="input/1" weight="0.5932847725284813"/>
				<Con from="input/2" weight="0.4709469659066885"/>
				<Con from="input/3" weight="0.4465333815235445"/>
				<Con from="input/4" weight="0.6397108393838592"/>
				<Con from="input/5" weight="0.15457572400979783"/>
			</Neuron>
			<Neuron id="1/27" bias="-0.5942820245414363">
				<Con from="input/1" weight="0.1019658800995849"/>
				<Con from="input/2" weight="0.10097413948342132"/>
				<Con from="input/3" weight="0.5843972104922389"/>
				<Con from="input/4" weight="0.4258926310715612"/>
				<Con from="input/5" weight="-0.6978164833900534"/>
			</Neuron>
			<Neuron id="1/28" bias="-0.268165065019991">
				<Con from="input/1" weight="9.155971515086462E-152"/>
				<Con from="input/2" weight="-1.9489190873986465E-141"/>
				<Con from="input/3" weight="-9.015450610457567E-136"/>
				<Con from="input/4" weight="3.758719002112859E-124"/>
				<Con from="input/5" weight="-1.1641679951339968E-116"/>
			</Neuron>
			<Neuron id="1/29" bias="-0.6530096274676415">
				<Con from="input/1" weight="0.30752624968742653"/>
				<Con from="input/2" weight="0.4551314737168672"/>
				<Con from="input/3" weight="0.3682083509648798"/>
				<Con from="input/4" weight="0.4021760808784674"/>
				<Con from="input/5" weight="-0.6762984779997114"/>
			</Neuron>
			<Neuron id="1/30" bias="0.013882018114190854">
				<Con from="input/1" weight="0.1213559384415949"/>
				<Con from="input/2" weight="0.48213521977912716"/>
				<Con from="input/3" weight="0.5680358348585743"/>
				<Con from="input/4" weight="0.49292788654214914"/>
				<Con from="input/5" weight="-0.03317518754831024"/>
			</Neuron>
			<Neuron id="1/31" bias="0.020556528659042738">
				<Con from="input/1" weight="0.4900265956519265"/>
				<Con from="input/2" weight="0.6436677369965578"/>
				<Con from="input/3" weight="0.2994001936185632"/>
				<Con from="input/4" weight="0.25042671906595426"/>
				<Con from="input/5" weight="0.2599904047348611"/>
			</Neuron>
			<Neuron id="1/32" bias="0.08751088305508171">
				<Con from="input/1" weight="0.13997911464168777"/>
				<Con from="input/2" weight="0.38740534289535483"/>
				<Con from="input/3" weight="0.49471174410621643"/>
				<Con from="input/4" weight="0.31954132947305"/>
				<Con from="input/5" weight="0.19032051358527433"/>
			</Neuron>
			<Neuron id="1/33" bias="0.7532978428512587">
				<Con from="input/1" weight="-0.15422923118937706"/>
				<Con from="input/2" weight="-0.09337342997756236"/>
				<Con from="input/3" weight="-0.10477729249637949"/>
				<Con from="input/4" weight="-0.25437101075518154"/>
				<Con from="input/5" weight="0.43753164372546016"/>
			</Neuron>
			<Neuron id="1/34" bias="-0.19879042969434052">
				<Con from="input/1" weight="-8.976593545743969E-111"/>
				<Con from="input/2" weight="-3.610334705191393E-153"/>
				<Con from="input/3" weight="-5.029118530037109E-150"/>
				<Con from="input/4" weight="-1.4225636245249676E-136"/>
				<Con from="input/5" weight="5.905254724981857E-153"/>
			</Neuron>
			<Neuron id="1/35" bias="-0.2724814597854864">
				<Con from="input/1" weight="0.2551472478467035"/>
				<Con from="input/2" weight="-0.29905729735455044"/>
				<Con from="input/3" weight="0.05939064847596544"/>
				<Con from="input/4" weight="0.2595083720195712"/>
				<Con from="input/5" weight="-0.29367593822745636"/>
			</Neuron>
			<Neuron id="1/36" bias="0.0525223010699737">
				<Con from="input/1" weight="0.6211053092860486"/>
				<Con from="input/2" weight="0.26264570861469677"/>
				<Con from="input/3" weight="0.4837633240237466"/>
				<Con from="input/4" weight="0.4372829256142615"/>
				<Con from="input/5" weight="0.009314684959461337"/>
			</Neuron>
			<Neuron id="1/37" bias="-0.27924839436384763">
				<Con from="input/1" weight="1.5155673654630133E-143"/>
				<Con from="input/2" weight="3.696817440206212E-108"/>
				<Con from="input/3" weight="-1.0062293009546856E-115"/>
				<Con from="input/4" weight="3.5896793548219245E-118"/>
				<Con from="input/5" weight="-3.8711071871668635E-128"/>
			</Neuron>
			<Neuron id="1/38" bias="0.037667368432725785">
				<Con from="input/1" weight="0.18413895203930794"/>
				<Con from="input/2" weight="0.5581769981842644"/>
				<Con from="input/3" weight="0.6435562354847122"/>
				<Con from="input/4" weight="0.5616145837546249"/>
				<Con from="input/5" weight="0.18658278195065567"/>
			</Neuron>
			<Neuron id="1/39" bias="0.1683534512646529">
				<Con from="input/1" weight="0.48019622036942133"/>
				<Con from="input/2" weight="0.31509398784615783"/>
				<Con from="input/3" weight="0.28870872569827455"/>
				<Con from="input/4" weight="0.6047243145914071"/>
				<Con from="input/5" weight="-0.024828076842793777"/>
			</Neuron>
			<Neuron id="1/40" bias="0.056542969482236326">
				<Con from="input/1" weight="0.3797633840057537"/>
				<Con from="input/2" weight="0.4730861036769116"/>
				<Con from="input/3" weight="0.25326869497131704"/>
				<Con from="input/4" weight="0.4757282184842166"/>
				<Con from="input/5" weight="0.28014809144750347"/>
			</Neuron>
			<Neuron id="1/41" bias="-0.14947006590351272">
				<Con from="input/1" weight="0.2254744961321426"/>
				<Con from="input/2" weight="0.7291661921042312"/>
				<Con from="input/3" weight="0.18182475005697551"/>
				<Con from="input/4" weight="0.5417642649567015"/>
				<Con from="input/5" weight="0.5965415241654127"/>
			</Neuron>
			<Neuron id="1/42" bias="0.6776310982026529">
				<Con from="input/1" weight="0.037973989601677506"/>
				<Con from="input/2" weight="-0.32338369590256894"/>
				<Con from="input/3" weight="-0.04281975671143677"/>
				<Con from="input/4" weight="-0.19132622766643184"/>
				<Con from="input/5" weight="0.3118269906099454"/>
			</Neuron>
			<Neuron id="1/43" bias="-0.14464471729488257">
				<Con from="input/1" weight="-0.1832210598308942"/>
				<Con from="input/2" weight="-0.029277614908568304"/>
				<Con from="input/3" weight="0.1352532114555229"/>
				<Con from="input/4" weight="-0.1662848990696512"/>
				<Con from="input/5" weight="0.814685178437722"/>
			</Neuron>
			<Neuron id="1/44" bias="-0.1535351794190812">
				<Con from="input/1" weight="0.6789878703692754"/>
				<Con from="input/2" weight="0.6306073413582065"/>
				<Con from="input/3" weight="0.1583943819718229"/>
				<Con from="input/4" weight="0.6180647599679523"/>
				<Con from="input/5" weight="0.19639180032165773"/>
			</Neuron>
			<Neuron id="1/45" bias="0.3272408678494192">
				<Con from="input/1" weight="0.2583497923467932"/>
				<Con from="input/2" weight="0.2783642422354935"/>
				<Con from="input/3" weight="0.42395474891977936"/>
				<Con from="input/4" weight="0.3136957330323766"/>
				<Con from="input/5" weight="0.004331554688520245"/>
			</Neuron>
			<Neuron id="1/46" bias="-0.06717299953414674">
				<Con from="input/1" weight="-4.006204430328601E-147"/>
				<Con from="input/2" weight="-3.866057409907081E-114"/>
				<Con from="input/3" weight="8.607057790042016E-134"/>
				<Con from="input/4" weight="-1.2720310593797847E-107"/>
				<Con from="input/5" weight="-3.33095866476083E-152"/>
			</Neuron>
			<Neuron id="1/47" bias="0.2712052916188678">
				<Con from="input/1" weight="0.30187723307431646"/>
				<Con from="input/2" weight="0.33206680241925884"/>
				<Con from="input/3" weight="0.5179404630826336"/>
				<Con from="input/4" weight="0.5469975102036025"/>
				<Con from="input/5" weight="0.28332454918955147"/>
			</Neuron>
			<Neuron id="1/48" bias="0.297512522222131">
				<Con from="input/1" weight="0.45322734341326143"/>
				<Con from="input/2" weight="0.28201328845120194"/>
				<Con from="input/3" weight="0.2678128100031295"/>
				<Con from="input/4" weight="0.29610203305104066"/>
				<Con from="input/5" weight="0.3553663162863022"/>
			</Neuron>
			<Neuron id="1/49" bias="-0.22548695624571313">
				<Con from="input/1" weight="0.5168488859444155"/>
				<Con from="input/2" weight="0.7890776641870716"/>
				<Con from="input/3" weight="0.6073104359695428"/>
				<Con from="input/4" weight="0.8031454223733344"/>
				<Con from="input/5" weight="0.6027420130450308"/>
			</Neuron>
			<Neuron id="1/50" bias="-0.13964902210506489">
				<Con from="input/1" weight="-0.14466254660190558"/>
				<Con from="input/2" weight="0.11007261946511587"/>
				<Con from="input/3" weight="-0.039040834895279236"/>
				<Con from="input/4" weight="0.16229064945099628"/>
				<Con from="input/5" weight="1.293302160390625"/>
			</Neuron>
			<Neuron id="1/51" bias="-0.22518842689101207">
				<Con from="input/1" weight="0.7538683617900668"/>
				<Con from="input/2" weight="0.6003656696935622"/>
				<Con from="input/3" weight="0.7395256662698164"/>
				<Con from="input/4" weight="0.7739920184474165"/>
				<Con from="input/5" weight="0.47232575287649425"/>
			</Neuron>
			<Neuron id="1/52" bias="-0.28413726583468235">
				<Con from="input/1" weight="-1.187734080153507E-133"/>
				<Con from="input/2" weight="-7.583517242294194E-121"/>
				<Con from="input/3" weight="-2.0766471647808537E-122"/>
				<Con from="input/4" weight="2.5524338618789787E-151"/>
				<Con from="input/5" weight="2.395783981382446E-146"/>
			</Neuron>
			<Neuron id="1/53" bias="-0.23918449279413723">
				<Con from="input/1" weight="4.261131680234409E-112"/>
				<Con from="input/2" weight="4.8940839449918276E-130"/>
				<Con from="input/3" weight="-1.6290371520334694E-147"/>
				<Con from="input/4" weight="5.878703347490556E-107"/>
				<Con from="input/5" weight="-4.75944927926041E-131"/>
			</Neuron>
			<Neuron id="1/54" bias="0.09678338632242975">
				<Con from="input/1" weight="0.6370253610530634"/>
				<Con from="input/2" weight="0.2695129357579297"/>
				<Con from="input/3" weight="0.19851120044684253"/>
				<Con from="input/4" weight="0.7127955154735522"/>
				<Con from="input/5" weight="0.13833515501280885"/>
			</Neuron>
			<Neuron id="1/55" bias="-0.31316677250690056">
				<Con from="input/1" weight="0.5038714330635017"/>
				<Con from="input/2" weight="0.724103534031124"/>
				<Con from="input/3" weight="0.702766502939706"/>
				<Con from="input/4" weight="0.45707207515154835"/>
				<Con from="input/5" weight="-0.2866681651966519"/>
			</Neuron>
			<Neuron id="1/56" bias="-0.19365307352228733">
				<Con from="input/1" weight="0.7093338429246625"/>
				<Con from="input/2" weight="0.5265492728298324"/>
				<Con from="input/3" weight="0.6883538947264236"/>
				<Con from="input/4" weight="0.785788027608358"/>
				<Con from="input/5" weight="0.230168632777933"/>
			</Neuron>
			<Neuron id="1/57" bias="0.2171117166956566">
				<Con from="input/1" weight="0.14376068502005354"/>
				<Con from="input/2" weight="0.616380510873585"/>
				<Con from="input/3" weight="0.2649208710257321"/>
				<Con from="input/4" weight="0.7141423282854826"/>
				<Con from="input/5" weight="-0.025213289939595287"/>
			</Neuron>
			<Neuron id="1/58" bias="-1.356163071492443">
				<Con from="input/1" weight="0.3274933343306658"/>
				<Con from="input/2" weight="0.8238476719120903"/>
				<Con from="input/3" weight="0.6405417750167065"/>
				<Con from="input/4" weight="0.8208646089288097"/>
				<Con from="input/5" weight="-0.7968085860945183"/>
			</Neuron>
			<Neuron id="1/59" bias="0.18920533699703512">
				<Con from="input/1" weight="0.16114581325410204"/>
				<Con from="input/2" weight="0.36555633380818"/>
				<Con from="input/3" weight="0.6361906043744356"/>
				<Con from="input/4" weight="0.35680053113436405"/>
				<Con from="input/5" weight="0.48754737462660747"/>
			</Neuron>
			<Neuron id="1/60" bias="-0.12865503493304212">
				<Con from="input/1" weight="-7.784267911946067E-146"/>
				<Con from="input/2" weight="-4.932951706410654E-120"/>
				<Con from="input/3" weight="-3.7510787659757154E-153"/>
				<Con from="input/4" weight="-6.62488119862921E-152"/>
				<Con from="input/5" weight="-2.0073135421369122E-143"/>
			</Neuron>
			<Neuron id="1/61" bias="-0.2251940989768214">
				<Con from="input/1" weight="3.7924307363449585E-152"/>
				<Con from="input/2" weight="2.3936054041446625E-134"/>
				<Con from="input/3" weight="4.119913793190157E-152"/>
				<Con from="input/4" weight="1.3962498916163128E-123"/>
				<Con from="input/5" weight="-8.99775923042473E-153"/>
			</Neuron>
			<Neuron id="1/62" bias="0.12010720833477696">
				<Con from="input/1" weight="0.3260316818835912"/>
				<Con from="input/2" weight="0.47025491387623264"/>
				<Con from="input/3" weight="0.33153094049723514"/>
				<Con from="input/4" weight="0.411384525606304"/>
				<Con from="input/5" weight="0.10156608470451121"/>
			</Neuron>
			<Neuron id="1/63" bias="0.07398709749165354">
				<Con from="input/1" weight="0.6353393525011342"/>
				<Con from="input/2" weight="0.6828626779807231"/>
				<Con from="input/3" weight="0.225617009679187"/>
				<Con from="input/4" weight="0.306608247121645"/>
				<Con from="input/5" weight="0.08383028013558325"/>
			</Neuron>
			<Neuron id="1/64" bias="0.15152927349211864">
				<Con from="input/1" weight="0.306425559124608"/>
				<Con from="input/2" weight="0.6566726017278741"/>
				<Con from="input/3" weight="0.6476025053056049"/>
				<Con from="input/4" weight="0.48375242524327394"/>
				<Con from="input/5" weight="0.0734475303898813"/>
			</Neuron>
		</NeuralLayer>
		<NeuralLayer>
			<Neuron id="2/1" bias="0.32076702353174846">
				<Con from="1/1" weight="0.5507196286417565"/>
				<Con from="1/2" weight="0.26672698014263635"/>
				<Con from="1/3" weight="0.4780964734694993"/>
				<Con from="1/4" weight="-1.4230755991631942E-151"/>
				<Con from="1/5" weight="0.520198030557224"/>
				<Con from="1/6" weight="0.43531759162096056"/>
				<Con from="1/7" weight="-0.10654435951364227"/>
				<Con from="1/8" weight="0.4313877925450847"/>
				<Con from="1/9" weight="0.26028547818966913"/>
				<Con from="1/10" weight="-0.1477163244662687"/>
				<Con from="1/11" weight="3.752601682715514E-121"/>
				<Con from="1/12" weight="0.31771958276755785"/>
				<Con from="1/13" weight="0.43512005492762584"/>
				<Con from="1/14" weight="7.5642960016704685E-146"/>
				<Con from="1/15" weight="-2.6253531264755256E-130"/>
				<Con from="1/16" weight="-5.518458873500228E-153"/>
				<Con from="1/17" weight="0.24085814400081476"/>
				<Con from="1/18" weight="0.4664037827681239"/>
				<Con from="1/19" weight="-1.516088654354704E-123"/>
				<Con from="1/20" weight="-4.631687942870942E-144"/>
				<Con from="1/21" weight="0.7337844639323631"/>
				<Con from="1/22" weight="0.6586339201330046"/>
				<Con from="1/23" weight="0.46390870000348605"/>
				<Con from="1/24" weight="0.20453713946189464"/>
				<Con from="1/25" weight="0.6173657009093665"/>
				<Con from="1/26" weight="0.2158377840513983"/>
				<Con from="1/27" weight="0.43494399912427545"/>
				<Con from="1/28" weight="-6.601801064205906E-123"/>
				<Con from="1/29" weight="0.6529912913033561"/>
				<Con from="1/30" weight="0.4739200848423638"/>
				<Con from="1/31" weight="0.5620980704920924"/>
				<Con from="1/32" weight="0.3684834761454092"/>
				<Con from="1/33" weight="-0.5702141633461657"/>
				<Con from="1/34" weight="-1.2457104966311036E-117"/>
				<Con from="1/35" weight="-1.1770300112933105E-127"/>
				<Con from="1/36" weight="0.353596585970524"/>
				<Con from="1/37" weight="-1.9956570375115943E-134"/>
				<Con from="1/38" weight="0.47843958580791707"/>
				<Con from="1/39" weight="0.21260952399875868"/>
				<Con from="1/40" weight="0.5078720726945489"/>
				<Con from="1/41" weight="0.7792528058192132"/>
				<Con from="1/42" weight="-0.8072222011852843"/>
				<Con from="1/43" weight="-1.6321041079793563"/>
				<Con from="1/44" weight="0.45463053025818034"/>
				<Con from="1/45" weight="0.32144482533082697"/>
				<Con from="1/46" weight="3.224827513903502E-151"/>
				<Con from="1/47" weight="0.4636507087417149"/>
				<Con from="1/48" weight="0.43112941111924347"/>
				<Con from="1/49" weight="0.5998383324688347"/>
				<Con from="1/50" weight="-1.2559818259624018"/>
				<Con from="1/51" weight="0.3148484315412892"/>
				<Con from="1/52" weight="-9.981143205294985E-151"/>
				<Con from="1/53" weight="2.1525780822135444E-152"/>
				<Con from="1/54" weight="0.14754582404121322"/>
				<Con from="1/55" weight="0.38864449371534676"/>
				<Con from="1/56" weight="0.45691962336375164"/>
				<Con from="1/57" weight="0.2517052131049956"/>
				<Con from="1/58" weight="2.028872174489578"/>
				<Con from="1/59" weight="0.5047764106821256"/>
				<Con from="1/60" weight="-1.8868229374733842E-151"/>
				<Con from="1/61" weight="1.2423934343121596E-121"/>
				<Con from="1/62" weight="0.38805470890746285"/>
				<Con from="1/63" weight="0.33208853709282177"/>
				<Con from="1/64" weight="0.29186977959088084"/>
			</Neuron>
			<Neuron id="2/2" bias="-0.12383469668275379">
				<Con from="1/1" weight="0.11462994207944213"/>
				<Con from="1/2" weight="-0.11088365492067252"/>
				<Con from="1/3" weight="-0.22674431434230424"/>
				<Con from="1/4" weight="8.188856783538703E-147"/>
				<Con from="1/5" weight="0.14432482082780504"/>
				<Con from="1/6" weight="-0.09724426339838282"/>
				<Con from="1/7" weight="0.20380690406736057"/>
				<Con from="1/8" weight="0.06537713006393789"/>
				<Con from="1/9" weight="-0.11961177715606384"/>
				<Con from="1/10" weight="0.00380664068570265"/>
				<Con from="1/11" weight="-4.638763960735152E-115"/>
				<Con from="1/12" weight="0.1363562411668012"/>
				<Con from="1/13" weight="0.13372519723372076"/>
				<Con from="1/14" weight="2.801648501321029E-131"/>
				<Con from="1/15" weight="1.147496795597748E-133"/>
				<Con from="1/16" weight="8.850610872921334E-153"/>
				<Con from="1/17" weight="0.16027278127811284"/>
				<Con from="1/18" weight="-0.15239196012000555"/>
				<Con from="1/19" weight="-5.474868461755146E-153"/>
				<Con from="1/20" weight="-6.515788799632554E-154"/>
				<Con from="1/21" weight="-0.04635774239765609"/>
				<Con from="1/22" weight="-0.06525082009614235"/>
				<Con from="1/23" weight="-0.14126345631217588"/>
				<Con from="1/24" weight="0.10382623206712673"/>
				<Con from="1/25" weight="0.05488909736905102"/>
				<Con from="1/26" weight="0.19128882892270582"/>
				<Con from="1/27" weight="0.0688129291129971"/>
				<Con from="1/28" weight="3.6018336109226315E-152"/>
				<Con from="1/29" weight="0.08371116401408794"/>
				<Con from="1/30" weight="0.12330893160784175"/>
				<Con from="1/31" weight="-0.049769242025300586"/>
				<Con from="1/32" weight="-0.014373009716404204"/>
				<Con from="1/33" weight="6.347018329036931E-129"/>
				<Con from="1/34" weight="1.629625306306373E-124"/>
				<Con from="1/35" weight="-0.05458451296759044"/>
				<Con from="1/36" weight="-0.05877309938980641"/>
				<Con from="1/37" weight="-3.4745831281543535E-148"/>
				<Con from="1/38" weight="-0.05426262675409663"/>
				<Con from="1/39" weight="-0.11244124496916567"/>
				<Con from="1/40" weight="0.11017938553998716"/>
				<Con from="1/41" weight="0.14003583157463964"/>
				<Con from="1/42" weight="-0.0011415013728381614"/>
				<Con from="1/43" weight="1.1598351209471683E-5"/>
				<Con from="1/44" weight="0.1434433500063299"/>
				<Con from="1/45" weight="0.029676524666059027"/>
				<Con from="1/46" weight="-7.502177962166872E-152"/>
				<Con from="1/47" weight="-0.049011272369225714"/>
				<Con from="1/48" weight="0.20582756418981202"/>
				<Con from="1/49" weight="-0.2734948735835182"/>
				<Con from="1/50" weight="0.010853017542424584"/>
				<Con from="1/51" weight="-0.23367419868180433"/>
				<Con from="1/52" weight="3.2676230634092126E-125"/>
				<Con from="1/53" weight="-3.1883958786222948E-124"/>
				<Con from="1/54" weight="-0.24668309874686073"/>
				<Con from="1/55" weight="0.16791967351488885"/>
				<Con from="1/56" weight="0.1363963205212184"/>
				<Con from="1/57" weight="0.04287408329752178"/>
				<Con from="1/58" weight="0.19304103187890928"/>
				<Con from="1/59" weight="-0.26136090781549787"/>
				<Con from="1/60" weight="1.8494727628876307E-150"/>
				<Con from="1/61" weight="3.894181734794283E-153"/>
				<Con from="1/62" weight="-0.07110194499421807"/>
				<Con from="1/63" weight="0.0790587470969865"/>
				<Con from="1/64" weight="-0.2367824622450854"/>
			</Neuron>
			<Neuron id="2/3" bias="0.1982970070383585">
				<Con from="1/1" weight="-0.12863470499169993"/>
				<Con from="1/2" weight="0.05245054999522996"/>
				<Con from="1/3" weight="0.12168038561947371"/>
				<Con from="1/4" weight="1.0743428489300002E-152"/>
				<Con from="1/5" weight="-0.25609384029744175"/>
				<Con from="1/6" weight="-0.22708224713034406"/>
				<Con from="1/7" weight="-0.03526175287887846"/>
				<Con from="1/8" weight="-0.26126986019172893"/>
				<Con from="1/9" weight="-0.14023596542873007"/>
				<Con from="1/10" weight="-0.05676461284789265"/>
				<Con from="1/11" weight="-2.6043780770030778E-148"/>
				<Con from="1/12" weight="-0.06333515547346628"/>
				<Con from="1/13" weight="-0.22980652753251926"/>
				<Con from="1/14" weight="5.627802006548818E-153"/>
				<Con from="1/15" weight="-2.7214060349640924E-151"/>
				<Con from="1/16" weight="-1.490628900330232E-131"/>
				<Con from="1/17" weight="-0.27737427236106604"/>
				<Con from="1/18" weight="-0.19529038058852613"/>
				<Con from="1/19" weight="1.6187200329545304E-141"/>
				<Con from="1/20" weight="3.393522508448499E-151"/>
				<Con from="1/21" weight="0.11215204589154282"/>
				<Con from="1/22" weight="3.2873524655285796E-151"/>
				<Con from="1/23" weight="0.1943776242631903"/>
				<Con from="1/24" weight="-1.7996166873529238E-129"/>
				<Con from="1/25" weight="0.03503458761458674"/>
				<Con from="1/26" weight="0.06167473388348076"/>
				<Con from="1/27" weight="0.057946497924247005"/>
				<Con from="1/28" weight="-7.526197193997834E-137"/>
				<Con from="1/29" weight="-9.763252189142124E-4"/>
				<Con from="1/30" weight="-0.03870902837161504"/>
				<Con from="1/31" weight="2.890394496017322E-150"/>
				<Con from="1/32" weight="-0.09690568225956636"/>
				<Con from="1/33" weight="-0.15179583138612449"/>
				<Con from="1/34" weight="-9.616813998945151E-149"/>
				<Con from="1/35" weight="-0.10182708027662522"/>
				<Con from="1/36" weight="0.013243171659242985"/>
				<Con from="1/37" weight="-2.222115353863331E-134"/>
				<Con from="1/38" weight="0.00787371217382908"/>
				<Con from="1/39" weight="-0.16714222565926204"/>
				<Con from="1/40" weight="0.1781250611901728"/>
				<Con from="1/41" weight="-0.004924515217828761"/>
				<Con from="1/42" weight="0.21336006223873089"/>
				<Con from="1/43" weight="1.2178331735139654E-147"/>
				<Con from="1/44" weight="-0.2320590205987474"/>
				<Con from="1/45" weight="-0.24858659537242422"/>
				<Con from="1/46" weight="8.923638250055083E-119"/>
				<Con from="1/47" weight="0.13921039525672668"/>
				<Con from="1/48" weight="-0.22409834385689104"/>
				<Con from="1/49" weight="0.02502899038948529"/>
				<Con from="1/50" weight="0.17873007873543248"/>
				<Con from="1/51" weight="0.07937403216048784"/>
				<Con from="1/52" weight="-2.8498752719208544E-117"/>
				<Con from="1/53" weight="-2.5554206343729E-152"/>
				<Con from="1/54" weight="-0.05299431779161751"/>
				<Con from="1/55" weight="0.04595896077990815"/>
				<Con from="1/56" weight="-0.05479114532768572"/>
				<Con from="1/57" weight="0.06285628526312652"/>
				<Con from="1/58" weight="0.10587731937756473"/>
				<Con from="1/59" weight="0.008949652420142186"/>
				<Con from="1/60" weight="5.112639800158501E-120"/>
				<Con from="1/61" weight="-7.944531436232187E-124"/>
				<Con from="1/62" weight="-0.20041448280225446"/>
				<Con from="1/63" weight="0.038071473594304864"/>
				<Con from="1/64" weight="-0.07724724780321575"/>
			</Neuron>
			<Neuron id="2/4" bias="-0.278312454966114">
				<Con from="1/1" weight="-0.10271380062355166"/>
				<Con from="1/2" weight="0.15391682857520989"/>
				<Con from="1/3" weight="0.1505839130192571"/>
				<Con from="1/4" weight="-1.4580813527390187E-152"/>
				<Con from="1/5" weight="-0.26166865725424104"/>
				<Con from="1/6" weight="0.10831493047536303"/>
				<Con from="1/7" weight="2.3214357746907566E-142"/>
				<Con from="1/8" weight="0.19045433761667369"/>
				<Con from="1/9" weight="0.0355605841580912"/>
				<Con from="1/10" weight="8.253449338413851E-116"/>
				<Con from="1/11" weight="-3.4156288727647546E-135"/>
				<Con from="1/12" weight="-0.03165079800663275"/>
				<Con from="1/13" weight="0.1841452895315362"/>
				<Con from="1/14" weight="5.019077248346762E-154"/>
				<Con from="1/15" weight="4.431676931970033E-153"/>
				<Con from="1/16" weight="-2.4184589829634965E-134"/>
				<Con from="1/17" weight="-0.19053325673476731"/>
				<Con from="1/18" weight="0.2142977072807667"/>
				<Con from="1/19" weight="-1.3168571416278013E-153"/>
				<Con from="1/20" weight="2.5138227393514917E-124"/>
				<Con from="1/21" weight="0.27824558397871096"/>
				<Con from="1/22" weight="0.19041441153606664"/>
				<Con from="1/23" weight="-0.4052755979564492"/>
				<Con from="1/24" weight="0.43200621859338856"/>
				<Con from="1/25" weight="0.23675964196204663"/>
				<Con from="1/26" weight="-0.10037517522172791"/>
				<Con from="1/27" weight="-0.11568429482367137"/>
				<Con from="1/28" weight="3.2655201103506286E-151"/>
				<Con from="1/29" weight="-0.05458555158812267"/>
				<Con from="1/30" weight="0.04611369488083931"/>
				<Con from="1/31" weight="0.03136439101188552"/>
				<Con from="1/32" weight="0.07220092113528721"/>
				<Con from="1/33" weight="-0.19468462400835906"/>
				<Con from="1/34" weight="8.764593360949567E-153"/>
				<Con from="1/35" weight="3.214105236888842E-149"/>
				<Con from="1/36" weight="0.03091126133343934"/>
				<Con from="1/37" weight="1.7120017075677335E-151"/>
				<Con from="1/38" weight="-0.05970133306480041"/>
				<Con from="1/39" weight="-0.08605670183278125"/>
				<Con from="1/40" weight="-0.09492667078525968"/>
				<Con from="1/41" weight="0.312691690741116"/>
				<Con from="1/42" weight="-0.1935278196900906"/>
				<Con from="1/43" weight="1.77422069242568"/>
				<Con from="1/44" weight="0.06140882704132468"/>
				<Con from="1/45" weight="-0.16967833889420175"/>
				<Con from="1/46" weight="2.2478711658495068E-118"/>
				<Con from="1/47" weight="0.10400223210099596"/>
				<Con from="1/48" weight="-0.05296081261263659"/>
				<Con from="1/49" weight="0.017418650221718318"/>
				<Con from="1/50" weight="1.3474460797361694"/>
				<Con from="1/51" weight="0.09128345395177109"/>
				<Con from="1/52" weight="-2.1145769503326053E-149"/>
				<Con from="1/53" weight="-5.384080956801649E-151"/>
				<Con from="1/54" weight="0.21186951308955113"/>
				<Con from="1/55" weight="-0.024195423208167297"/>
				<Con from="1/56" weight="0.04668086748308518"/>
				<Con from="1/57" weight="-0.03018083700680815"/>
				<Con from="1/58" weight="-0.2528587484246021"/>
				<Con from="1/59" weight="0.2699095977263166"/>
				<Con from="1/60" weight="1.1039960490289965E-152"/>
				<Con from="1/61" weight="3.849671237206621E-152"/>
				<Con from="1/62" weight="-0.0010782517112196688"/>
				<Con from="1/63" weight="0.12201493685131756"/>
				<Con from="1/64" weight="-0.09083506040436332"/>
			</Neuron>
			<Neuron id="2/5" bias="0.2744552768180809">
				<Con from="1/1" weight="0.2697991358277996"/>
				<Con from="1/2" weight="0.34239695579714874"/>
				<Con from="1/3" weight="-0.28945489232953925"/>
				<Con from="1/4" weight="5.986132334652019E-153"/>
				<Con from="1/5" weight="0.30514398925006697"/>
				<Con from="1/6" weight="0.20684139874410268"/>
				<Con from="1/7" weight="-0.030854657304118953"/>
				<Con from="1/8" weight="0.11714445233323212"/>
				<Con from="1/9" weight="-0.4106769429804828"/>
				<Con from="1/10" weight="-5.031278601305498E-18"/>
				<Con from="1/11" weight="-2.815385194203829E-142"/>
				<Con from="1/12" weight="0.10133278984505832"/>
				<Con from="1/13" weight="-0.5698268566630244"/>
				<Con from="1/14" weight="-5.607197801516585E-153"/>
				<Con from="1/15" weight="1.671966739554693E-123"/>
				<Con from="1/16" weight="-1.4925258068212308E-129"/>
				<Con from="1/17" weight="0.19745626059361265"/>
				<Con from="1/18" weight="0.5334142047717102"/>
				<Con from="1/19" weight="2.382669821578249E-145"/>
				<Con from="1/20" weight="1.4333191161321675E-123"/>
				<Con from="1/21" weight="-0.26593543317800633"/>
				<Con from="1/22" weight="0.0073537538974428945"/>
				<Con from="1/23" weight="-1.1226876899176024"/>
				<Con from="1/24" weight="0.10904454096100333"/>
				<Con from="1/25" weight="-0.4634682733913162"/>
				<Con from="1/26" weight="-0.06760509635940642"/>
				<Con from="1/27" weight="-0.38851141330142563"/>
				<Con from="1/28" weight="-2.7848835338572716E-127"/>
				<Con from="1/29" weight="-0.5577541480952009"/>
				<Con from="1/30" weight="0.02393603858954743"/>
				<Con from="1/31" weight="0.27459800604766577"/>
				<Con from="1/32" weight="0.04962437655084593"/>
				<Con from="1/33" weight="0.1834084477711367"/>
				<Con from="1/34" weight="5.7118483766553076E-129"/>
				<Con from="1/35" weight="-3.2609832544215335E-136"/>
				<Con from="1/36" weight="0.20405261198641358"/>
				<Con from="1/37" weight="-4.509900033323552E-146"/>
				<Con from="1/38" weight="0.1619651304452543"/>
				<Con from="1/39" weight="0.06416172544081489"/>
				<Con from="1/40" weight="0.08496455265024017"/>
				<Con from="1/41" weight="-0.5376996275375927"/>
				<Con from="1/42" weight="0.553723364088862"/>
				<Con from="1/43" weight="1.6882698348029506"/>
				<Con from="1/44" weight="-0.362267675311405"/>
				<Con from="1/45" weight="0.48454350327752205"/>
				<Con from="1/46" weight="-2.2510299292166098E-136"/>
				<Con from="1/47" weight="0.47637215329473875"/>
				<Con from="1/48" weight="0.5352608388216472"/>
				<Con from="1/49" weight="-0.27917412367702166"/>
				<Con from="1/50" weight="1.5500664604463945"/>
				<Con from="1/51" weight="-0.4445316418313604"/>
				<Con from="1/52" weight="5.568357561179441E-118"/>
				<Con from="1/53" weight="9.94112103409772E-133"/>
				<Con from="1/54" weight="0.2062247974561154"/>
				<Con from="1/55" weight="-0.44953499514186074"/>
				<Con from="1/56" weight="-0.3424824085696894"/>
				<Con from="1/57" weight="0.15985260293422"/>
				<Con from="1/58" weight="-2.409170929342135"/>
				<Con from="1/59" weight="0.5062790508744226"/>
				<Con from="1/60" weight="-1.675135466399898E-142"/>
				<Con from="1/61" weight="-7.419618288121032E-127"/>
				<Con from="1/62" weight="0.3770341670087623"/>
				<Con from="1/63" weight="0.23465964148996168"/>
				<Con from="1/64" weight="0.2931850329536575"/>
			</Neuron>
			<Neuron id="2/6" bias="-0.20809567086000877">
				<Con from="1/1" weight="0.5919024055560913"/>
				<Con from="1/2" weight="0.5194216522550462"/>
				<Con from="1/3" weight="0.795243805643442"/>
				<Con from="1/4" weight="3.364040449639864E-125"/>
				<Con from="1/5" weight="0.3599691068061088"/>
				<Con from="1/6" weight="0.5116984636098066"/>
				<Con from="1/7" weight="0.30273007556212017"/>
				<Con from="1/8" weight="0.24281433099781025"/>
				<Con from="1/9" weight="0.7111686058769233"/>
				<Con from="1/10" weight="-0.021304325549515304"/>
				<Con from="1/11" weight="-4.622108877557536E-148"/>
				<Con from="1/12" weight="0.2831085502102051"/>
				<Con from="1/13" weight="0.48576356105031393"/>
				<Con from="1/14" weight="6.767793524803452E-143"/>
				<Con from="1/15" weight="3.853105883164052E-151"/>
				<Con from="1/16" weight="5.955787982318475E-120"/>
				<Con from="1/17" weight="0.06167467861409953"/>
				<Con from="1/18" weight="0.39886150525864655"/>
				<Con from="1/19" weight="-3.8740210098618195E-152"/>
				<Con from="1/20" weight="2.6736000670582787E-129"/>
				<Con from="1/21" weight="0.686106905801162"/>
				<Con from="1/22" weight="0.780284820568561"/>
				<Con from="1/23" weight="0.13969735943071246"/>
				<Con from="1/24" weight="-0.6672247313929643"/>
				<Con from="1/25" weight="0.7272218519820566"/>
				<Con from="1/26" weight="0.5394679075439054"/>
				<Con from="1/27" weight="0.5127694577503786"/>
				<Con from="1/28" weight="2.3706592067172043E-128"/>
				<Con from="1/29" weight="0.6049991742745409"/>
				<Con from="1/30" weight="0.5764790369588504"/>
				<Con from="1/31" weight="0.21998022224344296"/>
				<Con from="1/32" weight="0.334310707352499"/>
				<Con from="1/33" weight="-1.1769075770733053"/>
				<Con from="1/34" weight="9.43872222757611E-134"/>
				<Con from="1/35" weight="0.1425168069073685"/>
				<Con from="1/36" weight="0.5507008771682609"/>
				<Con from="1/37" weight="5.045595347974986E-126"/>
				<Con from="1/38" weight="0.6138342232725349"/>
				<Con from="1/39" weight="0.3457920281271096"/>
				<Con from="1/40" weight="0.24873448880238008"/>
				<Con from="1/41" weight="0.7113377258527896"/>
				<Con from="1/42" weight="-0.982369413134119"/>
				<Con from="1/43" weight="-1.6880516122480436"/>
				<Con from="1/44" weight="0.4085326884350947"/>
				<Con from="1/45" weight="-0.003651247686847504"/>
				<Con from="1/46" weight="-7.717401109000883E-146"/>
				<Con from="1/47" weight="0.364458013515098"/>
				<Con from="1/48" weight="0.08313448074587426"/>
				<Con from="1/49" weight="0.32296277720253"/>
				<Con from="1/50" weight="-1.3584550674911966"/>
				<Con from="1/51" weight="0.6370834097808034"/>
				<Con from="1/52" weight="7.932559013894624E-153"/>
				<Con from="1/53" weight="4.998511798606225E-120"/>
				<Con from="1/54" weight="0.3847954284288362"/>
				<Con from="1/55" weight="0.6278241866538951"/>
				<Con from="1/56" weight="0.6589197512276374"/>
				<Con from="1/57" weight="0.18388002884251756"/>
				<Con from="1/58" weight="2.328952592213069"/>
				<Con from="1/59" weight="0.3307935061213371"/>
				<Con from="1/60" weight="2.1532150876235697E-151"/>
				<Con from="1/61" weight="4.616495038576622E-150"/>
				<Con from="1/62" weight="0.16053343248283894"/>
				<Con from="1/63" weight="0.3824446255318687"/>
				<Con from="1/64" weight="0.41242353057549747"/>
			</Neuron>
			<Neuron id="2/7" bias="-0.048418292954489975">
				<Con from="1/1" weight="0.20022731759775125"/>
				<Con from="1/2" weight="0.16175405160900314"/>
				<Con from="1/3" weight="-0.1793598621400018"/>
				<Con from="1/4" weight="5.409603319320764E-119"/>
				<Con from="1/5" weight="0.21886286210475137"/>
				<Con from="1/6" weight="0.14928645730389492"/>
				<Con from="1/7" weight="5.233971986740513E-151"/>
				<Con from="1/8" weight="0.16395221477319924"/>
				<Con from="1/9" weight="-0.09268135726521011"/>
				<Con from="1/10" weight="-6.895456300441527E-118"/>
				<Con from="1/11" weight="5.430988139323706E-141"/>
				<Con from="1/12" weight="0.1648711451558858"/>
				<Con from="1/13" weight="-0.22561789070793223"/>
				<Con from="1/14" weight="1.3706396931579342E-122"/>
				<Con from="1/15" weight="-5.44399893894762E-153"/>
				<Con from="1/16" weight="-5.213626771841161E-152"/>
				<Con from="1/17" weight="0.1911970605523921"/>
				<Con from="1/18" weight="0.19663976665053196"/>
				<Con from="1/19" weight="-4.329601507356397E-145"/>
				<Con from="1/20" weight="6.639703566897637E-120"/>
				<Con from="1/21" weight="-0.10555595738872971"/>
				<Con from="1/22" weight="-0.11755527555224919"/>
				<Con from="1/23" weight="-1.1823285873146065"/>
				<Con from="1/24" weight="-0.05364755154487965"/>
				<Con from="1/25" weight="-0.13907478883474297"/>
				<Con from="1/26" weight="0.10420949664645787"/>
				<Con from="1/27" weight="-0.5648337856831054"/>
				<Con from="1/28" weight="6.96688852217576E-148"/>
				<Con from="1/29" weight="-0.36259470181788106"/>
				<Con from="1/30" weight="0.05869369657251042"/>
				<Con from="1/31" weight="0.15993909268576484"/>
				<Con from="1/32" weight="0.17768062955557176"/>
				<Con from="1/33" weight="-0.29390983691125594"/>
				<Con from="1/34" weight="-3.908696836225012E-147"/>
				<Con from="1/35" weight="-1.7408520275888953E-136"/>
				<Con from="1/36" weight="0.17376720327541686"/>
				<Con from="1/37" weight="5.905980490367534E-153"/>
				<Con from="1/38" weight="0.10430149346118395"/>
				<Con from="1/39" weight="0.1422107895295062"/>
				<Con from="1/40" weight="0.19042059020859697"/>
				<Con from="1/41" weight="-0.21424100057698553"/>
				<Con from="1/42" weight="-0.25645048199157655"/>
				<Con from="1/43" weight="1.6965410213891463"/>
				<Con from="1/44" weight="-0.06806277237130812"/>
				<Con from="1/45" weight="0.15757215000859429"/>
				<Con from="1/46" weight="2.893706550933598E-116"/>
				<Con from="1/47" weight="0.17892873256780784"/>
				<Con from="1/48" weight="0.21714058136111847"/>
				<Con from="1/49" weight="-0.245453918764773"/>
				<Con from="1/50" weight="1.605621378560269"/>
				<Con from="1/51" weight="-0.24450498845829882"/>
				<Con from="1/52" weight="-4.221422852621957E-121"/>
				<Con from="1/53" weight="-9.02317643773693E-131"/>
				<Con from="1/54" weight="0.14742338089392282"/>
				<Con from="1/55" weight="-0.2837477772590352"/>
				<Con from="1/56" weight="-0.16706691466685736"/>
				<Con from="1/57" weight="0.09574948350160106"/>
				<Con from="1/58" weight="-2.448273427870266"/>
				<Con from="1/59" weight="0.1652666622374482"/>
				<Con from="1/60" weight="2.4249132837885528E-151"/>
				<Con from="1/61" weight="-5.408237905725799E-151"/>
				<Con from="1/62" weight="0.13402418806309807"/>
				<Con from="1/63" weight="0.1562445340450751"/>
				<Con from="1/64" weight="0.1480098308995989"/>
			</Neuron>
			<Neuron id="2/8" bias="-0.17292747841075645">
				<Con from="1/1" weight="4.793540041226576E-153"/>
				<Con from="1/2" weight="-6.59051750847766E-151"/>
				<Con from="1/3" weight="5.192996066387264E-151"/>
				<Con from="1/4" weight="4.2502968207157825E-145"/>
				<Con from="1/5" weight="8.352180013446063E-131"/>
				<Con from="1/6" weight="-5.311481704186163E-131"/>
				<Con from="1/7" weight="2.180949101140773E-149"/>
				<Con from="1/8" weight="-6.690600340775873E-123"/>
				<Con from="1/9" weight="1.9575550830892538E-148"/>
				<Con from="1/10" weight="-2.482425393389323E-129"/>
				<Con from="1/11" weight="-6.901069408093495E-153"/>
				<Con from="1/12" weight="8.273948480342984E-151"/>
				<Con from="1/13" weight="9.160965345380222E-131"/>
				<Con from="1/14" weight="-8.96358504055529E-123"/>
				<Con from="1/15" weight="9.616489103262063E-152"/>
				<Con from="1/16" weight="4.4092077210354206E-144"/>
				<Con from="1/17" weight="3.4988095615702504E-153"/>
				<Con from="1/18" weight="-5.233310050193191E-144"/>
				<Con from="1/19" weight="1.9686649065572754E-146"/>
				<Con from="1/20" weight="5.687363649317882E-153"/>
				<Con from="1/21" weight="-8.717881194600689E-153"/>
				<Con from="1/22" weight="-8.035505514795802E-155"/>
				<Con from="1/23" weight="1.118679505649948E-133"/>
				<Con from="1/24" weight="-5.77765663251434E-153"/>
				<Con from="1/25" weight="2.556056532289786E-117"/>
				<Con from="1/26" weight="-2.0117172504898233E-154"/>
				<Con from="1/27" weight="1.0160171794779972E-120"/>
				<Con from="1/28" weight="-1.2644147791320916E-153"/>
				<Con from="1/29" weight="-9.871946986571718E-151"/>
				<Con from="1/30" weight="1.054237796302941E-120"/>
				<Con from="1/31" weight="-2.2699069140256145E-153"/>
				<Con from="1/32" weight="2.3777252811177505E-142"/>
				<Con from="1/33" weight="-3.707526807630446E-121"/>
				<Con from="1/34" weight="-2.7733480429672216E-132"/>
				<Con from="1/35" weight="6.400116909547525E-153"/>
				<Con from="1/36" weight="2.5736721149774314E-145"/>
				<Con from="1/37" weight="1.887863359563749E-142"/>
				<Con from="1/38" weight="5.199452200798128E-125"/>
				<Con from="1/39" weight="-1.8083890875993154E-136"/>
				<Con from="1/40" weight="9.588672171393351E-123"/>
				<Con from="1/41" weight="-1.1347007577609458E-127"/>
				<Con from="1/42" weight="3.0013711819948498E-151"/>
				<Con from="1/43" weight="6.826723803964577E-127"/>
				<Con from="1/44" weight="-2.131826973877689E-151"/>
				<Con from="1/45" weight="7.822839935430361E-116"/>
				<Con from="1/46" weight="6.102557589605756E-153"/>
				<Con from="1/47" weight="-4.058561801400151E-153"/>
				<Con from="1/48" weight="-1.445707873698023E-143"/>
				<Con from="1/49" weight="3.746833413644087E-151"/>
				<Con from="1/50" weight="-8.140268340634677E-138"/>
				<Con from="1/51" weight="-6.65371521139306E-132"/>
				<Con from="1/52" weight="-9.241431048234062E-120"/>
				<Con from="1/53" weight="5.159892145122616E-149"/>
				<Con from="1/54" weight="-3.10101818937613E-150"/>
				<Con from="1/55" weight="2.2593306855371117E-127"/>
				<Con from="1/56" weight="2.3587314436731094E-134"/>
				<Con from="1/57" weight="-9.387803196539753E-147"/>
				<Con from="1/58" weight="-5.83348892942638E-147"/>
				<Con from="1/59" weight="5.632077635290327E-133"/>
				<Con from="1/60" weight="-6.086653370764308E-122"/>
				<Con from="1/61" weight="-9.26587138830663E-129"/>
				<Con from="1/62" weight="6.648273483002914E-151"/>
				<Con from="1/63" weight="-2.7559619366274093E-144"/>
				<Con from="1/64" weight="-2.6102930916699096E-138"/>
			</Neuron>
			<Neuron id="2/9" bias="0.11184367420767201">
				<Con from="1/1" weight="0.34389272886935174"/>
				<Con from="1/2" weight="0.1084615085944522"/>
				<Con from="1/3" weight="0.25989033998294775"/>
				<Con from="1/4" weight="5.775283171915436E-120"/>
				<Con from="1/5" weight="0.3338855403802501"/>
				<Con from="1/6" weight="0.36159531430919134"/>
				<Con from="1/7" weight="0.12661774031001033"/>
				<Con from="1/8" weight="0.17490521591353209"/>
				<Con from="1/9" weight="0.6153788895507618"/>
				<Con from="1/10" weight="0.1786506789116564"/>
				<Con from="1/11" weight="1.1726857095394814E-151"/>
				<Con from="1/12" weight="0.1923373288235178"/>
				<Con from="1/13" weight="0.331169220911801"/>
				<Con from="1/14" weight="-8.380616466144951E-154"/>
				<Con from="1/15" weight="-2.6079580724741115E-116"/>
				<Con from="1/16" weight="2.633214829056034E-151"/>
				<Con from="1/17" weight="0.28001862604018474"/>
				<Con from="1/18" weight="0.13706169230597223"/>
				<Con from="1/19" weight="2.7753134301111344E-153"/>
				<Con from="1/20" weight="-6.767574432003273E-135"/>
				<Con from="1/21" weight="0.3518607609713379"/>
				<Con from="1/22" weight="0.46925451834019305"/>
				<Con from="1/23" weight="-0.05926867234421852"/>
				<Con from="1/24" weight="-0.047734663465608194"/>
				<Con from="1/25" weight="0.6523299246469684"/>
				<Con from="1/26" weight="0.2998531510898945"/>
				<Con from="1/27" weight="0.5647319506683313"/>
				<Con from="1/28" weight="2.336815557197383E-136"/>
				<Con from="1/29" weight="0.29817568714964976"/>
				<Con from="1/30" weight="0.29659132236744024"/>
				<Con from="1/31" weight="0.38514739578371643"/>
				<Con from="1/32" weight="0.440979248708012"/>
				<Con from="1/33" weight="-0.8183450520341622"/>
				<Con from="1/34" weight="2.694358750923405E-120"/>
				<Con from="1/35" weight="0.15939303974586225"/>
				<Con from="1/36" weight="0.6159436259763775"/>
				<Con from="1/37" weight="4.584449151931496E-118"/>
				<Con from="1/38" weight="0.14087698647127267"/>
				<Con from="1/39" weight="0.1975389125432959"/>
				<Con from="1/40" weight="0.4193479438613393"/>
				<Con from="1/41" weight="0.6826572645467001"/>
				<Con from="1/42" weight="-0.5696395739760131"/>
				<Con from="1/43" weight="-1.6853030145326366"/>
				<Con from="1/44" weight="0.37567693348495956"/>
				<Con from="1/45" weight="0.5277234002432595"/>
				<Con from="1/46" weight="9.289000242556316E-154"/>
				<Con from="1/47" weight="0.5489026843431074"/>
				<Con from="1/48" weight="0.3587155166138719"/>
				<Con from="1/49" weight="0.5219107851827046"/>
				<Con from="1/50" weight="-1.460254970797137"/>
				<Con from="1/51" weight="0.5004060898572742"/>
				<Con from="1/52" weight="4.0407148326442594E-153"/>
				<Con from="1/53" weight="4.4774543840946755E-152"/>
				<Con from="1/54" weight="0.5091903153794354"/>
				<Con from="1/55" weight="0.6569607194975617"/>
				<Con from="1/56" weight="0.5252845418235609"/>
				<Con from="1/57" weight="0.4022029361737763"/>
				<Con from="1/58" weight="2.235537035422527"/>
				<Con from="1/59" weight="0.3826876885916973"/>
				<Con from="1/60" weight="-3.66326504282433E-142"/>
				<Con from="1/61" weight="-8.591602079140545E-152"/>
				<Con from="1/62" weight="0.6093648786356833"/>
				<Con from="1/63" weight="0.2831520591295466"/>
				<Con from="1/64" weight="0.5745745307443365"/>
			</Neuron>
			<Neuron id="2/10" bias="0.09168323900783723">
				<Con from="1/1" weight="0.5586888652650803"/>
				<Con from="1/2" weight="0.3658250640062013"/>
				<Con from="1/3" weight="0.5056724330532711"/>
				<Con from="1/4" weight="-2.1891503581050194E-126"/>
				<Con from="1/5" weight="0.23382734621447193"/>
				<Con from="1/6" weight="0.3782684201566413"/>
				<Con from="1/7" weight="-0.07665510782376862"/>
				<Con from="1/8" weight="0.2895093530641543"/>
				<Con from="1/9" weight="0.4848512580226582"/>
				<Con from="1/10" weight="-0.10026973409039823"/>
				<Con from="1/11" weight="6.473584759816823E-153"/>
				<Con from="1/12" weight="0.5369287127330887"/>
				<Con from="1/13" weight="0.5971819479922473"/>
				<Con from="1/14" weight="-6.492003749142361E-127"/>
				<Con from="1/15" weight="-1.9123408461446365E-149"/>
				<Con from="1/16" weight="-4.6534040310271367E-153"/>
				<Con from="1/17" weight="0.5255013923440683"/>
				<Con from="1/18" weight="0.5952278447351959"/>
				<Con from="1/19" weight="-2.1259101007854937E-151"/>
				<Con from="1/20" weight="2.761849383188532E-152"/>
				<Con from="1/21" weight="0.3086212291467912"/>
				<Con from="1/22" weight="0.635177613636035"/>
				<Con from="1/23" weight="-0.09168652917155137"/>
				<Con from="1/24" weight="-0.16858413959400187"/>
				<Con from="1/25" weight="0.319471664235509"/>
				<Con from="1/26" weight="0.44720096146922705"/>
				<Con from="1/27" weight="0.6679281482103779"/>
				<Con from="1/28" weight="9.6967970762366E-151"/>
				<Con from="1/29" weight="0.3204495022480421"/>
				<Con from="1/30" weight="0.25926810053826715"/>
				<Con from="1/31" weight="0.5412902850904739"/>
				<Con from="1/32" weight="0.27831255038460667"/>
				<Con from="1/33" weight="-0.7912011632929915"/>
				<Con from="1/34" weight="-6.086548452699639E-148"/>
				<Con from="1/35" weight="-0.17005092264901214"/>
				<Con from="1/36" weight="0.15958325183687447"/>
				<Con from="1/37" weight="-2.0169331551710976E-151"/>
				<Con from="1/38" weight="0.4639894462002728"/>
				<Con from="1/39" weight="0.35496974209283777"/>
				<Con from="1/40" weight="0.583379619181895"/>
				<Con from="1/41" weight="0.673892737738288"/>
				<Con from="1/42" weight="-0.7533793257869708"/>
				<Con from="1/43" weight="-1.7415219082397193"/>
				<Con from="1/44" weight="0.3958723479504983"/>
				<Con from="1/45" weight="0.4241264918463097"/>
				<Con from="1/46" weight="8.620352056636346E-142"/>
				<Con from="1/47" weight="0.5322154420759487"/>
				<Con from="1/48" weight="0.15169393443162352"/>
				<Con from="1/49" weight="0.2521853795875394"/>
				<Con from="1/50" weight="-1.3230530431085707"/>
				<Con from="1/51" weight="0.2819187768591862"/>
				<Con from="1/52" weight="6.2313154933727935E-143"/>
				<Con from="1/53" weight="6.522487608140193E-153"/>
				<Con from="1/54" weight="0.3007570573082054"/>
				<Con from="1/55" weight="0.529471256874285"/>
				<Con from="1/56" weight="0.599990390137647"/>
				<Con from="1/57" weight="0.5559271624979543"/>
				<Con from="1/58" weight="1.865921294558113"/>
				<Con from="1/59" weight="0.15087529463933297"/>
				<Con from="1/60" weight="4.2383691515676974E-151"/>
				<Con from="1/61" weight="-2.7856862347774773E-146"/>
				<Con from="1/62" weight="0.4831644379785352"/>
				<Con from="1/63" weight="0.5379870826706108"/>
				<Con from="1/64" weight="0.31578501318059643"/>
			</Neuron>
			<Neuron id="2/11" bias="0.19997917165585957">
				<Con from="1/1" weight="0.37327436635581424"/>
				<Con from="1/2" weight="0.36341706493347425"/>
				<Con from="1/3" weight="0.35465769631288235"/>
				<Con from="1/4" weight="-8.130769161110808E-153"/>
				<Con from="1/5" weight="0.5532092329688432"/>
				<Con from="1/6" weight="0.5882912167464132"/>
				<Con from="1/7" weight="-0.1493622415474726"/>
				<Con from="1/8" weight="0.5991204831840157"/>
				<Con from="1/9" weight="0.31672806209165427"/>
				<Con from="1/10" weight="-0.12388021057690882"/>
				<Con from="1/11" weight="-2.720705386089419E-150"/>
				<Con from="1/12" weight="0.3370976333826906"/>
				<Con from="1/13" weight="0.6506382495556268"/>
				<Con from="1/14" weight="1.1069319761993188E-115"/>
				<Con from="1/15" weight="6.207497376709028E-134"/>
				<Con from="1/16" weight="9.890687408744944E-117"/>
				<Con from="1/17" weight="0.5227033904600501"/>
				<Con from="1/18" weight="0.22767655113022658"/>
				<Con from="1/19" weight="-2.025803537727621E-149"/>
				<Con from="1/20" weight="1.140996998344387E-128"/>
				<Con from="1/21" weight="0.3219768505226173"/>
				<Con from="1/22" weight="0.4159218751830047"/>
				<Con from="1/23" weight="0.2806384006967018"/>
				<Con from="1/24" weight="0.12330182297522536"/>
				<Con from="1/25" weight="0.45933398556787974"/>
				<Con from="1/26" weight="0.20792305421156537"/>
				<Con from="1/27" weight="0.6168067364190971"/>
				<Con from="1/28" weight="1.9734932589519924E-121"/>
				<Con from="1/29" weight="0.5483368118633838"/>
				<Con from="1/30" weight="0.6538017892909995"/>
				<Con from="1/31" weight="0.4525628344880438"/>
				<Con from="1/32" weight="0.554715505471942"/>
				<Con from="1/33" weight="-0.6590245852517654"/>
				<Con from="1/34" weight="-8.746175249968423E-151"/>
				<Con from="1/35" weight="0.03851714013493903"/>
				<Con from="1/36" weight="0.2811164155725262"/>
				<Con from="1/37" weight="1.003098067640436E-135"/>
				<Con from="1/38" weight="0.4928105589104695"/>
				<Con from="1/39" weight="0.5735818952998335"/>
				<Con from="1/40" weight="0.45592999128616374"/>
				<Con from="1/41" weight="0.699426732806062"/>
				<Con from="1/42" weight="-0.5277844181001019"/>
				<Con from="1/43" weight="-1.6762179517144624"/>
				<Con from="1/44" weight="0.4784383655909057"/>
				<Con from="1/45" weight="0.25621110429733085"/>
				<Con from="1/46" weight="-5.02412562775853E-135"/>
				<Con from="1/47" weight="0.1263378879765911"/>
				<Con from="1/48" weight="0.26019160640332034"/>
				<Con from="1/49" weight="0.5701319429517732"/>
				<Con from="1/50" weight="-1.160895796636502"/>
				<Con from="1/51" weight="0.6518405773159348"/>
				<Con from="1/52" weight="-1.7934879534555302E-143"/>
				<Con from="1/53" weight="2.6944186570743365E-150"/>
				<Con from="1/54" weight="0.5437395480421566"/>
				<Con from="1/55" weight="0.8067384536866652"/>
				<Con from="1/56" weight="0.2989186823746317"/>
				<Con from="1/57" weight="0.5694447914025458"/>
				<Con from="1/58" weight="2.2927849048137325"/>
				<Con from="1/59" weight="0.17419181329729772"/>
				<Con from="1/60" weight="6.713272141931911E-152"/>
				<Con from="1/61" weight="-1.1712647058180951E-114"/>
				<Con from="1/62" weight="0.5168162786975468"/>
				<Con from="1/63" weight="0.40462055383578976"/>
				<Con from="1/64" weight="0.4862248764731288"/>
			</Neuron>
			<Neuron id="2/12" bias="0.24500320612953105">
				<Con from="1/1" weight="0.6237512511119222"/>
				<Con from="1/2" weight="0.5185972263369552"/>
				<Con from="1/3" weight="0.313868557685981"/>
				<Con from="1/4" weight="-3.8063765536720382E-152"/>
				<Con from="1/5" weight="0.4581492488409378"/>
				<Con from="1/6" weight="0.2828405102705405"/>
				<Con from="1/7" weight="-0.13337960653439024"/>
				<Con from="1/8" weight="0.5103144820637342"/>
				<Con from="1/9" weight="0.488682602894621"/>
				<Con from="1/10" weight="0.10177153883179473"/>
				<Con from="1/11" weight="7.475946048216621E-122"/>
				<Con from="1/12" weight="0.3406702017357001"/>
				<Con from="1/13" weight="0.536159329027682"/>
				<Con from="1/14" weight="-1.5479902809102218E-132"/>
				<Con from="1/15" weight="1.2989095175422652E-118"/>
				<Con from="1/16" weight="-1.7184213733517823E-131"/>
				<Con from="1/17" weight="0.23955511581278008"/>
				<Con from="1/18" weight="0.4164114469735991"/>
				<Con from="1/19" weight="-4.238986370806426E-121"/>
				<Con from="1/20" weight="-2.1519084050393977E-143"/>
				<Con from="1/21" weight="0.5820141174817117"/>
				<Con from="1/22" weight="0.316457139368445"/>
				<Con from="1/23" weight="-0.019845224758973157"/>
				<Con from="1/24" weight="0.016411878152535517"/>
				<Con from="1/25" weight="0.6109856271259415"/>
				<Con from="1/26" weight="0.5562943085920605"/>
				<Con from="1/27" weight="0.46751640865923966"/>
				<Con from="1/28" weight="-1.0852142747741394E-153"/>
				<Con from="1/29" weight="0.3261525575045816"/>
				<Con from="1/30" weight="0.27656917803643066"/>
				<Con from="1/31" weight="0.6033269979818865"/>
				<Con from="1/32" weight="0.1662720194632876"/>
				<Con from="1/33" weight="-0.37158093387820434"/>
				<Con from="1/34" weight="3.2743082051596833E-152"/>
				<Con from="1/35" weight="-0.22766416209815277"/>
				<Con from="1/36" weight="0.14256972182503472"/>
				<Con from="1/37" weight="1.1700448129914495E-152"/>
				<Con from="1/38" weight="0.40041635460923514"/>
				<Con from="1/39" weight="0.39610224337529715"/>
				<Con from="1/40" weight="0.4619252213560362"/>
				<Con from="1/41" weight="0.40947542187185865"/>
				<Con from="1/42" weight="-0.6817173781672768"/>
				<Con from="1/43" weight="-1.69561177894343"/>
				<Con from="1/44" weight="0.573084632680018"/>
				<Con from="1/45" weight="0.197992251773627"/>
				<Con from="1/46" weight="-4.1042664808672773E-150"/>
				<Con from="1/47" weight="0.13389899577140496"/>
				<Con from="1/48" weight="0.4430263905317595"/>
				<Con from="1/49" weight="0.4782401147293311"/>
				<Con from="1/50" weight="-1.313073087413342"/>
				<Con from="1/51" weight="0.5200688223576594"/>
				<Con from="1/52" weight="5.728074510297768E-116"/>
				<Con from="1/53" weight="-1.0363258459153817E-152"/>
				<Con from="1/54" weight="0.5779399998615204"/>
				<Con from="1/55" weight="0.4677215686061913"/>
				<Con from="1/56" weight="0.28494637507880655"/>
				<Con from="1/57" weight="0.455129646280608"/>
				<Con from="1/58" weight="1.7310696083698407"/>
				<Con from="1/59" weight="0.5376531895288589"/>
				<Con from="1/60" weight="4.974335548938011E-119"/>
				<Con from="1/61" weight="-7.562833236482303E-129"/>
				<Con from="1/62" weight="0.32008787864910904"/>
				<Con from="1/63" weight="0.5294601773395187"/>
				<Con from="1/64" weight="0.142545056044047"/>
			</Neuron>
			<Neuron id="2/13" bias="-0.05619090097799035">
				<Con from="1/1" weight="0.13101029072776643"/>
				<Con from="1/2" weight="-0.1067740435022705"/>
				<Con from="1/3" weight="-0.207437830661642"/>
				<Con from="1/4" weight="1.6194882335519832E-144"/>
				<Con from="1/5" weight="0.15228405417586696"/>
				<Con from="1/6" weight="-0.21488454241690505"/>
				<Con from="1/7" weight="-0.21305503697752154"/>
				<Con from="1/8" weight="-0.18573210700050524"/>
				<Con from="1/9" weight="-0.009705450223509363"/>
				<Con from="1/10" weight="0.19941512432333358"/>
				<Con from="1/11" weight="6.132215677386832E-133"/>
				<Con from="1/12" weight="0.1723569673179065"/>
				<Con from="1/13" weight="0.05558495788815711"/>
				<Con from="1/14" weight="3.866283241526553E-128"/>
				<Con from="1/15" weight="8.660133344472863E-131"/>
				<Con from="1/16" weight="6.693769396488196E-145"/>
				<Con from="1/17" weight="-0.14596005068758552"/>
				<Con from="1/18" weight="-0.12924354445679148"/>
				<Con from="1/19" weight="-1.9627383996144351E-143"/>
				<Con from="1/20" weight="7.851286847875342E-136"/>
				<Con from="1/21" weight="-0.1202472352877099"/>
				<Con from="1/22" weight="-0.01904216372226007"/>
				<Con from="1/23" weight="-0.24682001478081078"/>
				<Con from="1/24" weight="9.543260551839263E-124"/>
				<Con from="1/25" weight="-0.2076605883445029"/>
				<Con from="1/26" weight="0.20523195681419126"/>
				<Con from="1/27" weight="0.22505165265335808"/>
				<Con from="1/28" weight="1.9183084941348721E-143"/>
				<Con from="1/29" weight="0.005422418975438191"/>
				<Con from="1/30" weight="0.21936439931896798"/>
				<Con from="1/31" weight="0.14287620496518302"/>
				<Con from="1/32" weight="0.21740447836443577"/>
				<Con from="1/33" weight="-0.10299022978820088"/>
				<Con from="1/34" weight="9.633488809403125E-129"/>
				<Con from="1/35" weight="-0.10493948093246293"/>
				<Con from="1/36" weight="0.027604833868324755"/>
				<Con from="1/37" weight="9.157329643237295E-119"/>
				<Con from="1/38" weight="-0.17180866050147894"/>
				<Con from="1/39" weight="-0.00810684513378443"/>
				<Con from="1/40" weight="-0.2577307006853201"/>
				<Con from="1/41" weight="-0.055203597780585076"/>
				<Con from="1/42" weight="0.047589309531081314"/>
				<Con from="1/43" weight="1.5854421436903747E-133"/>
				<Con from="1/44" weight="0.16312731591248483"/>
				<Con from="1/45" weight="-0.08944842037539279"/>
				<Con from="1/46" weight="-1.822153145342285E-128"/>
				<Con from="1/47" weight="-0.21121996766326112"/>
				<Con from="1/48" weight="0.011663658102298444"/>
				<Con from="1/49" weight="-0.006793374375620892"/>
				<Con from="1/50" weight="0.009180497772332022"/>
				<Con from="1/51" weight="0.19139994844474237"/>
				<Con from="1/52" weight="1.8461738689271403E-142"/>
				<Con from="1/53" weight="6.5032098157859365E-121"/>
				<Con from="1/54" weight="-0.18372360344048683"/>
				<Con from="1/55" weight="0.19795752698270733"/>
				<Con from="1/56" weight="-0.2145889604945267"/>
				<Con from="1/57" weight="0.11131105910530062"/>
				<Con from="1/58" weight="0.08190164294116958"/>
				<Con from="1/59" weight="0.060570025623438065"/>
				<Con from="1/60" weight="1.1841320730304352E-130"/>
				<Con from="1/61" weight="-4.58220293235177E-144"/>
				<Con from="1/62" weight="0.025121732688488354"/>
				<Con from="1/63" weight="0.1121839180111081"/>
				<Con from="1/64" weight="-0.03594294687611363"/>
			</Neuron>
			<Neuron id="2/14" bias="-0.09883337532425313">
				<Con from="1/1" weight="4.3235943649993497E-153"/>
				<Con from="1/2" weight="-3.263515594524168E-127"/>
				<Con from="1/3" weight="7.419763566705674E-151"/>
				<Con from="1/4" weight="4.9757965270282314E-135"/>
				<Con from="1/5" weight="9.00760123506266E-153"/>
				<Con from="1/6" weight="3.411518844200451E-117"/>
				<Con from="1/7" weight="4.520958636342003E-131"/>
				<Con from="1/8" weight="-1.8716612156909829E-137"/>
				<Con from="1/9" weight="3.085993551475239E-142"/>
				<Con from="1/10" weight="-5.707525609739144E-153"/>
				<Con from="1/11" weight="8.723308163215204E-118"/>
				<Con from="1/12" weight="5.581166178733874E-152"/>
				<Con from="1/13" weight="2.932474092430568E-152"/>
				<Con from="1/14" weight="-6.580262236750696E-123"/>
				<Con from="1/15" weight="-3.9453047512039333E-153"/>
				<Con from="1/16" weight="8.301613784754637E-150"/>
				<Con from="1/17" weight="4.314218431821866E-152"/>
				<Con from="1/18" weight="-7.022238842788453E-153"/>
				<Con from="1/19" weight="5.663244298794888E-138"/>
				<Con from="1/20" weight="7.60598477726292E-150"/>
				<Con from="1/21" weight="3.180588940564821E-144"/>
				<Con from="1/22" weight="1.5103557138050219E-145"/>
				<Con from="1/23" weight="-2.961576830183949E-118"/>
				<Con from="1/24" weight="-1.9395094873246727E-138"/>
				<Con from="1/25" weight="2.4328874300228304E-134"/>
				<Con from="1/26" weight="-8.620633094079303E-119"/>
				<Con from="1/27" weight="-1.686046625809344E-153"/>
				<Con from="1/28" weight="-1.552223947640094E-136"/>
				<Con from="1/29" weight="-2.493239335764437E-148"/>
				<Con from="1/30" weight="1.4682266016216868E-149"/>
				<Con from="1/31" weight="6.007438966426715E-154"/>
				<Con from="1/32" weight="1.8586980384789619E-152"/>
				<Con from="1/33" weight="-4.351790537949537E-151"/>
				<Con from="1/34" weight="-2.889737038569699E-153"/>
				<Con from="1/35" weight="-2.3405261147535175E-151"/>
				<Con from="1/36" weight="1.8128802627555023E-125"/>
				<Con from="1/37" weight="2.0583117398925603E-151"/>
				<Con from="1/38" weight="-1.8781628576693196E-152"/>
				<Con from="1/39" weight="-3.258033223769857E-149"/>
				<Con from="1/40" weight="8.733767554418017E-143"/>
				<Con from="1/41" weight="8.295509894660185E-153"/>
				<Con from="1/42" weight="2.120810044672553E-150"/>
				<Con from="1/43" weight="-5.438238553802173E-144"/>
				<Con from="1/44" weight="-7.072692395389544E-119"/>
				<Con from="1/45" weight="-6.0150075104521145E-139"/>
				<Con from="1/46" weight="-1.56935577470907E-150"/>
				<Con from="1/47" weight="6.190044363435321E-144"/>
				<Con from="1/48" weight="1.215445961084803E-114"/>
				<Con from="1/49" weight="-8.447108080305322E-153"/>
				<Con from="1/50" weight="-5.884194138021813E-153"/>
				<Con from="1/51" weight="-1.150029383812231E-121"/>
				<Con from="1/52" weight="-3.1937885121117027E-150"/>
				<Con from="1/53" weight="2.6443538922963743E-151"/>
				<Con from="1/54" weight="1.8103269393810557E-151"/>
				<Con from="1/55" weight="3.961465782783139E-149"/>
				<Con from="1/56" weight="-2.1032270391076868E-150"/>
				<Con from="1/57" weight="-2.1713298678824394E-149"/>
				<Con from="1/58" weight="6.877826212964819E-153"/>
				<Con from="1/59" weight="4.7905465528805186E-133"/>
				<Con from="1/60" weight="7.793000011352011E-145"/>
				<Con from="1/61" weight="1.2257775341502424E-152"/>
				<Con from="1/62" weight="4.423514858859047E-115"/>
				<Con from="1/63" weight="5.365350383152713E-130"/>
				<Con from="1/64" weight="6.023574984742782E-117"/>
			</Neuron>
			<Neuron id="2/15" bias="-0.12033255134145276">
				<Con from="1/1" weight="-1.1513992717456085E-141"/>
				<Con from="1/2" weight="-5.258859914175187E-130"/>
				<Con from="1/3" weight="5.1577654568372064E-142"/>
				<Con from="1/4" weight="1.228228171683125E-152"/>
				<Con from="1/5" weight="-4.584526481154047E-153"/>
				<Con from="1/6" weight="-3.3144553607746E-142"/>
				<Con from="1/7" weight="9.620765122369485E-130"/>
				<Con from="1/8" weight="1.4476050207787437E-151"/>
				<Con from="1/9" weight="-6.050480709277385E-153"/>
				<Con from="1/10" weight="-5.690526720694101E-153"/>
				<Con from="1/11" weight="5.002176117130304E-128"/>
				<Con from="1/12" weight="-3.6062352242245584E-127"/>
				<Con from="1/13" weight="-8.439397667980823E-142"/>
				<Con from="1/14" weight="1.4745009731062703E-128"/>
				<Con from="1/15" weight="-1.5980301721082336E-123"/>
				<Con from="1/16" weight="6.983192558002892E-117"/>
				<Con from="1/17" weight="-3.08888005104821E-154"/>
				<Con from="1/18" weight="2.673551812632424E-150"/>
				<Con from="1/19" weight="3.312566745279395E-119"/>
				<Con from="1/20" weight="-4.151264935502412E-147"/>
				<Con from="1/21" weight="1.7700099392511471E-122"/>
				<Con from="1/22" weight="-5.593152605543994E-148"/>
				<Con from="1/23" weight="5.007088977893461E-127"/>
				<Con from="1/24" weight="-6.066353449503965E-148"/>
				<Con from="1/25" weight="3.737175004112098E-133"/>
				<Con from="1/26" weight="1.2741031373688268E-142"/>
				<Con from="1/27" weight="-4.379501441048153E-126"/>
				<Con from="1/28" weight="5.601344308087293E-148"/>
				<Con from="1/29" weight="-1.5342213771646889E-136"/>
				<Con from="1/30" weight="-2.438091464921481E-134"/>
				<Con from="1/31" weight="8.03703568835619E-145"/>
				<Con from="1/32" weight="4.388734394359779E-140"/>
				<Con from="1/33" weight="8.057476808095577E-119"/>
				<Con from="1/34" weight="8.589457546308331E-118"/>
				<Con from="1/35" weight="1.1004824690045834E-152"/>
				<Con from="1/36" weight="-5.050695893570112E-141"/>
				<Con from="1/37" weight="-1.574805770874212E-120"/>
				<Con from="1/38" weight="-3.367742180287794E-154"/>
				<Con from="1/39" weight="-1.6672930981186308E-149"/>
				<Con from="1/40" weight="-1.6643655682242502E-128"/>
				<Con from="1/41" weight="-2.7161050209185844E-135"/>
				<Con from="1/42" weight="4.181410131081436E-131"/>
				<Con from="1/43" weight="1.6413026667610804E-139"/>
				<Con from="1/44" weight="-1.1900902787520103E-137"/>
				<Con from="1/45" weight="5.049745448608656E-150"/>
				<Con from="1/46" weight="3.3329344437758484E-122"/>
				<Con from="1/47" weight="2.4372593627611697E-134"/>
				<Con from="1/48" weight="-2.9274104561642337E-141"/>
				<Con from="1/49" weight="1.397703802916122E-148"/>
				<Con from="1/50" weight="-1.1748004482294744E-134"/>
				<Con from="1/51" weight="-1.8150127331641335E-121"/>
				<Con from="1/52" weight="-1.219215342537926E-136"/>
				<Con from="1/53" weight="8.61343074059483E-136"/>
				<Con from="1/54" weight="1.347797568688371E-145"/>
				<Con from="1/55" weight="2.057126027103564E-151"/>
				<Con from="1/56" weight="-6.549362091336854E-153"/>
				<Con from="1/57" weight="5.025052242032993E-143"/>
				<Con from="1/58" weight="1.4492859281057304E-125"/>
				<Con from="1/59" weight="-1.1442503839376195E-127"/>
				<Con from="1/60" weight="-4.037295544970772E-117"/>
				<Con from="1/61" weight="1.3327163316290728E-154"/>
				<Con from="1/62" weight="-6.431248166563835E-152"/>
				<Con from="1/63" weight="1.8033200621784485E-123"/>
				<Con from="1/64" weight="7.299945731246666E-151"/>
			</Neuron>
			<Neuron id="2/16" bias="-0.22150818319342916">
				<Con from="1/1" weight="0.537830279436428"/>
				<Con from="1/2" weight="0.45571375240500844"/>
				<Con from="1/3" weight="0.5958139665196825"/>
				<Con from="1/4" weight="1.4054618488997E-150"/>
				<Con from="1/5" weight="0.09238223845813642"/>
				<Con from="1/6" weight="0.3868183580943012"/>
				<Con from="1/7" weight="0.12394202339645626"/>
				<Con from="1/8" weight="0.3979354783069043"/>
				<Con from="1/9" weight="0.28998081415607174"/>
				<Con from="1/10" weight="-0.0902471517966441"/>
				<Con from="1/11" weight="-1.8262691171784003E-143"/>
				<Con from="1/12" weight="0.5442931754108523"/>
				<Con from="1/13" weight="0.3998490433721277"/>
				<Con from="1/14" weight="-3.638034037813474E-151"/>
				<Con from="1/15" weight="1.2756405319400457E-115"/>
				<Con from="1/16" weight="-2.24107706883508E-139"/>
				<Con from="1/17" weight="0.16195953051020423"/>
				<Con from="1/18" weight="0.5372876784533643"/>
				<Con from="1/19" weight="-6.6878992327286465E-143"/>
				<Con from="1/20" weight="-7.488127058056948E-131"/>
				<Con from="1/21" weight="0.38897728913681495"/>
				<Con from="1/22" weight="0.40362259567220493"/>
				<Con from="1/23" weight="0.27363575395143686"/>
				<Con from="1/24" weight="-0.8856283689566795"/>
				<Con from="1/25" weight="0.49961761175308655"/>
				<Con from="1/26" weight="0.20005022373676515"/>
				<Con from="1/27" weight="0.47493660113103553"/>
				<Con from="1/28" weight="-2.2134184401615356E-154"/>
				<Con from="1/29" weight="0.37154440691398244"/>
				<Con from="1/30" weight="0.5747445333703969"/>
				<Con from="1/31" weight="0.4550281746237799"/>
				<Con from="1/32" weight="0.13017872746406953"/>
				<Con from="1/33" weight="-1.1006137331520505"/>
				<Con from="1/34" weight="1.1313221859392814E-121"/>
				<Con from="1/35" weight="0.11490897243428497"/>
				<Con from="1/36" weight="0.6013173581243431"/>
				<Con from="1/37" weight="7.94937773480536E-153"/>
				<Con from="1/38" weight="0.3832525188253073"/>
				<Con from="1/39" weight="0.38142479907322374"/>
				<Con from="1/40" weight="0.5524539790704034"/>
				<Con from="1/41" weight="0.6045253569476151"/>
				<Con from="1/42" weight="-1.1187615411699543"/>
				<Con from="1/43" weight="-1.6912184755591024"/>
				<Con from="1/44" weight="0.34934315417626627"/>
				<Con from="1/45" weight="0.053958007426807814"/>
				<Con from="1/46" weight="6.929134239504076E-139"/>
				<Con from="1/47" weight="0.11658656334463927"/>
				<Con from="1/48" weight="2.139979374761972E-4"/>
				<Con from="1/49" weight="0.6123925908478354"/>
				<Con from="1/50" weight="-1.3270611754169048"/>
				<Con from="1/51" weight="0.34519367711063"/>
				<Con from="1/52" weight="-2.690154773748498E-153"/>
				<Con from="1/53" weight="-8.357892345890442E-153"/>
				<Con from="1/54" weight="0.48940526797982165"/>
				<Con from="1/55" weight="0.3522100349487081"/>
				<Con from="1/56" weight="0.5514840316462534"/>
				<Con from="1/57" weight="0.49433702745831487"/>
				<Con from="1/58" weight="1.82279782620834"/>
				<Con from="1/59" weight="0.33408056869730407"/>
				<Con from="1/60" weight="-5.05249276007277E-149"/>
				<Con from="1/61" weight="5.824722544076217E-153"/>
				<Con from="1/62" weight="0.5605586065043698"/>
				<Con from="1/63" weight="0.34651900829701426"/>
				<Con from="1/64" weight="0.5430270461877749"/>
			</Neuron>
			<Neuron id="2/17" bias="-0.22117620890048756">
				<Con from="1/1" weight="-8.220279091027816E-126"/>
				<Con from="1/2" weight="2.5244303029688906E-152"/>
				<Con from="1/3" weight="3.094529036881989E-118"/>
				<Con from="1/4" weight="5.316803200542172E-153"/>
				<Con from="1/5" weight="-1.0282518477700471E-120"/>
				<Con from="1/6" weight="1.3366733405858834E-146"/>
				<Con from="1/7" weight="-2.4087851354958127E-134"/>
				<Con from="1/8" weight="2.435048742437218E-152"/>
				<Con from="1/9" weight="-7.007059855772182E-145"/>
				<Con from="1/10" weight="1.6941013967086413E-139"/>
				<Con from="1/11" weight="-8.051280477030913E-121"/>
				<Con from="1/12" weight="-2.776555154447459E-152"/>
				<Con from="1/13" weight="-2.310633394833701E-134"/>
				<Con from="1/14" weight="4.6953931807979995E-153"/>
				<Con from="1/15" weight="5.629938430139571E-151"/>
				<Con from="1/16" weight="-1.4890660503536857E-139"/>
				<Con from="1/17" weight="5.138748456323278E-152"/>
				<Con from="1/18" weight="-5.172454758540701E-137"/>
				<Con from="1/19" weight="-4.041225547656905E-153"/>
				<Con from="1/20" weight="5.291309541358328E-142"/>
				<Con from="1/21" weight="-2.470033497060566E-152"/>
				<Con from="1/22" weight="9.146478695753449E-119"/>
				<Con from="1/23" weight="-1.1831945737096636E-114"/>
				<Con from="1/24" weight="-8.932988063803643E-131"/>
				<Con from="1/25" weight="1.280224652555053E-114"/>
				<Con from="1/26" weight="1.1360981242910894E-140"/>
				<Con from="1/27" weight="1.18891849173038E-137"/>
				<Con from="1/28" weight="1.487063214371824E-115"/>
				<Con from="1/29" weight="-2.164944073560326E-133"/>
				<Con from="1/30" weight="7.212051327489351E-150"/>
				<Con from="1/31" weight="5.528751674442741E-124"/>
				<Con from="1/32" weight="-5.978996564428002E-133"/>
				<Con from="1/33" weight="4.680107261893597E-116"/>
				<Con from="1/34" weight="-3.584787017788416E-148"/>
				<Con from="1/35" weight="1.1362987301783025E-152"/>
				<Con from="1/36" weight="1.0630754399704685E-120"/>
				<Con from="1/37" weight="1.6151642946978783E-134"/>
				<Con from="1/38" weight="-6.461641874271421E-116"/>
				<Con from="1/39" weight="-1.2915057716049488E-114"/>
				<Con from="1/40" weight="2.6707699518891776E-138"/>
				<Con from="1/41" weight="2.4198954898548515E-150"/>
				<Con from="1/42" weight="2.6903410123796994E-138"/>
				<Con from="1/43" weight="-5.660065761020054E-153"/>
				<Con from="1/44" weight="1.3983904374291906E-147"/>
				<Con from="1/45" weight="5.614478954587718E-134"/>
				<Con from="1/46" weight="3.88282779437978E-152"/>
				<Con from="1/47" weight="4.913361111817666E-151"/>
				<Con from="1/48" weight="4.094650725461889E-142"/>
				<Con from="1/49" weight="1.2678114153407897E-143"/>
				<Con from="1/50" weight="1.6403581020243007E-149"/>
				<Con from="1/51" weight="-4.880882170390347E-143"/>
				<Con from="1/52" weight="3.3938841993572747E-153"/>
				<Con from="1/53" weight="-9.616911038432303E-120"/>
				<Con from="1/54" weight="2.3225324112479745E-153"/>
				<Con from="1/55" weight="1.4008336300281525E-127"/>
				<Con from="1/56" weight="2.721359520177907E-150"/>
				<Con from="1/57" weight="6.092141169242619E-150"/>
				<Con from="1/58" weight="4.175745810002683E-116"/>
				<Con from="1/59" weight="-1.0901997811071432E-151"/>
				<Con from="1/60" weight="2.3605083972133408E-151"/>
				<Con from="1/61" weight="-2.4196361498904936E-124"/>
				<Con from="1/62" weight="-2.533108006268971E-152"/>
				<Con from="1/63" weight="3.522471916900954E-148"/>
				<Con from="1/64" weight="-2.144780093748069E-152"/>
			</Neuron>
			<Neuron id="2/18" bias="-0.07877601058264333">
				<Con from="1/1" weight="1.4185223034977128E-125"/>
				<Con from="1/2" weight="-2.5767130261392034E-125"/>
				<Con from="1/3" weight="-8.706425618782678E-152"/>
				<Con from="1/4" weight="1.1757761638851219E-122"/>
				<Con from="1/5" weight="-3.083862865446721E-129"/>
				<Con from="1/6" weight="1.2060312353334553E-137"/>
				<Con from="1/7" weight="3.6127353130626265E-150"/>
				<Con from="1/8" weight="6.457232915276719E-152"/>
				<Con from="1/9" weight="2.6236542422532637E-151"/>
				<Con from="1/10" weight="3.181199926085132E-135"/>
				<Con from="1/11" weight="-2.0703062673443447E-134"/>
				<Con from="1/12" weight="2.0856539339804887E-149"/>
				<Con from="1/13" weight="-2.5098019298998243E-124"/>
				<Con from="1/14" weight="-1.0608636760485786E-152"/>
				<Con from="1/15" weight="-5.719369358317163E-153"/>
				<Con from="1/16" weight="-5.962844605702419E-149"/>
				<Con from="1/17" weight="-1.2705484558404254E-153"/>
				<Con from="1/18" weight="2.5788290243820796E-115"/>
				<Con from="1/19" weight="-9.945793299446562E-120"/>
				<Con from="1/20" weight="6.95800301587392E-151"/>
				<Con from="1/21" weight="1.9998818103427644E-137"/>
				<Con from="1/22" weight="-7.674032820429722E-116"/>
				<Con from="1/23" weight="3.694938881466792E-134"/>
				<Con from="1/24" weight="-1.0066464550666188E-150"/>
				<Con from="1/25" weight="1.1738824860895109E-145"/>
				<Con from="1/26" weight="1.0111157461064953E-116"/>
				<Con from="1/27" weight="7.568716759753958E-119"/>
				<Con from="1/28" weight="-2.0681342319150398E-122"/>
				<Con from="1/29" weight="5.61055321869469E-127"/>
				<Con from="1/30" weight="-3.5795116153152014E-151"/>
				<Con from="1/31" weight="9.76178687098188E-139"/>
				<Con from="1/32" weight="-3.6194507915709656E-151"/>
				<Con from="1/33" weight="8.855887450763199E-118"/>
				<Con from="1/34" weight="1.4577704008552986E-148"/>
				<Con from="1/35" weight="-1.458327876519214E-152"/>
				<Con from="1/36" weight="6.294448496537763E-123"/>
				<Con from="1/37" weight="5.824899785707537E-127"/>
				<Con from="1/38" weight="2.910359675199002E-129"/>
				<Con from="1/39" weight="4.270100176660979E-151"/>
				<Con from="1/40" weight="-1.6091960584273633E-146"/>
				<Con from="1/41" weight="-9.977206767926678E-117"/>
				<Con from="1/42" weight="5.998147828470364E-153"/>
				<Con from="1/43" weight="3.476744129510018E-151"/>
				<Con from="1/44" weight="3.872751405376671E-153"/>
				<Con from="1/45" weight="-3.021671670431278E-125"/>
				<Con from="1/46" weight="-6.465367082069146E-153"/>
				<Con from="1/47" weight="4.7617017967394025E-132"/>
				<Con from="1/48" weight="1.5218900856958458E-136"/>
				<Con from="1/49" weight="-1.0615841941862456E-133"/>
				<Con from="1/50" weight="8.774458244808102E-117"/>
				<Con from="1/51" weight="3.153506380598848E-141"/>
				<Con from="1/52" weight="-5.027830545898507E-117"/>
				<Con from="1/53" weight="-1.0427936009766367E-137"/>
				<Con from="1/54" weight="2.145599197477034E-151"/>
				<Con from="1/55" weight="5.462709667620742E-153"/>
				<Con from="1/56" weight="-5.56731151410699E-152"/>
				<Con from="1/57" weight="6.981862735394393E-153"/>
				<Con from="1/58" weight="1.3959553357242218E-152"/>
				<Con from="1/59" weight="-1.8268373756570406E-153"/>
				<Con from="1/60" weight="-7.946380279386568E-136"/>
				<Con from="1/61" weight="1.4229554793176269E-145"/>
				<Con from="1/62" weight="9.852005846704767E-130"/>
				<Con from="1/63" weight="-7.435072674667017E-155"/>
				<Con from="1/64" weight="-1.2081958015152558E-118"/>
			</Neuron>
			<Neuron id="2/19" bias="-0.11487615393460837">
				<Con from="1/1" weight="8.363663119756181E-151"/>
				<Con from="1/2" weight="-1.9022332710133207E-123"/>
				<Con from="1/3" weight="-2.186983238920639E-145"/>
				<Con from="1/4" weight="-9.659047887634436E-117"/>
				<Con from="1/5" weight="-3.337620633137427E-135"/>
				<Con from="1/6" weight="2.945887942381907E-129"/>
				<Con from="1/7" weight="7.55285136367751E-126"/>
				<Con from="1/8" weight="4.233128780158722E-152"/>
				<Con from="1/9" weight="-1.1403751701871901E-150"/>
				<Con from="1/10" weight="-1.20053124591684E-148"/>
				<Con from="1/11" weight="-8.399976592284732E-122"/>
				<Con from="1/12" weight="6.120418856701776E-130"/>
				<Con from="1/13" weight="4.6559435300986674E-153"/>
				<Con from="1/14" weight="-3.975359090574584E-120"/>
				<Con from="1/15" weight="-1.1029605914784196E-121"/>
				<Con from="1/16" weight="-3.517862575930835E-116"/>
				<Con from="1/17" weight="1.1373631289309703E-152"/>
				<Con from="1/18" weight="2.6257383490741815E-129"/>
				<Con from="1/19" weight="-1.1268007743330689E-150"/>
				<Con from="1/20" weight="-9.087929438382412E-139"/>
				<Con from="1/21" weight="3.875033396439936E-148"/>
				<Con from="1/22" weight="-5.679348706985956E-116"/>
				<Con from="1/23" weight="1.0529471904100335E-152"/>
				<Con from="1/24" weight="3.787735729334508E-151"/>
				<Con from="1/25" weight="3.8070317649188137E-152"/>
				<Con from="1/26" weight="-1.0517105984001412E-119"/>
				<Con from="1/27" weight="2.530675209352784E-150"/>
				<Con from="1/28" weight="-1.0319123299527634E-152"/>
				<Con from="1/29" weight="-1.469993270868973E-151"/>
				<Con from="1/30" weight="-1.11663184760506E-152"/>
				<Con from="1/31" weight="-1.2464202680043796E-152"/>
				<Con from="1/32" weight="1.3446465773518018E-149"/>
				<Con from="1/33" weight="1.140094753520772E-114"/>
				<Con from="1/34" weight="2.663998556733279E-138"/>
				<Con from="1/35" weight="2.577874747435391E-140"/>
				<Con from="1/36" weight="4.252909106128517E-151"/>
				<Con from="1/37" weight="-1.3184491664575508E-140"/>
				<Con from="1/38" weight="5.307354831223036E-147"/>
				<Con from="1/39" weight="1.7347152042323792E-153"/>
				<Con from="1/40" weight="-6.5106131901479705E-118"/>
				<Con from="1/41" weight="3.791487937227801E-151"/>
				<Con from="1/42" weight="6.970763588180016E-121"/>
				<Con from="1/43" weight="-4.61650817272395E-116"/>
				<Con from="1/44" weight="-2.714887752637393E-142"/>
				<Con from="1/45" weight="1.0802992721697336E-149"/>
				<Con from="1/46" weight="-6.321220760250626E-153"/>
				<Con from="1/47" weight="-1.7620376885154828E-143"/>
				<Con from="1/48" weight="-8.879421986094392E-119"/>
				<Con from="1/49" weight="-3.275313664363978E-151"/>
				<Con from="1/50" weight="9.752178530168583E-117"/>
				<Con from="1/51" weight="-1.7285767828847127E-124"/>
				<Con from="1/52" weight="1.8504436968840707E-152"/>
				<Con from="1/53" weight="2.220851238755781E-136"/>
				<Con from="1/54" weight="-1.8116606482805334E-136"/>
				<Con from="1/55" weight="3.050248598716557E-132"/>
				<Con from="1/56" weight="1.1466954359188589E-150"/>
				<Con from="1/57" weight="7.113105769640457E-127"/>
				<Con from="1/58" weight="-1.1283914792647076E-147"/>
				<Con from="1/59" weight="6.379147096867468E-148"/>
				<Con from="1/60" weight="3.5977486573122763E-155"/>
				<Con from="1/61" weight="1.4454053907655716E-152"/>
				<Con from="1/62" weight="9.740917049205387E-145"/>
				<Con from="1/63" weight="1.1743854275502646E-151"/>
				<Con from="1/64" weight="2.39400385828235E-118"/>
			</Neuron>
			<Neuron id="2/20" bias="0.3478164688812469">
				<Con from="1/1" weight="0.2586047116822151"/>
				<Con from="1/2" weight="0.15849752353303195"/>
				<Con from="1/3" weight="0.0817863605073444"/>
				<Con from="1/4" weight="7.20502413471158E-116"/>
				<Con from="1/5" weight="0.4686508637594951"/>
				<Con from="1/6" weight="-0.1976858570501038"/>
				<Con from="1/7" weight="-0.04836160267318947"/>
				<Con from="1/8" weight="0.18078908353167397"/>
				<Con from="1/9" weight="-0.11118970047612234"/>
				<Con from="1/10" weight="-0.05077666128782601"/>
				<Con from="1/11" weight="-1.8595718549174524E-142"/>
				<Con from="1/12" weight="0.1654451714678596"/>
				<Con from="1/13" weight="-0.3449299948125063"/>
				<Con from="1/14" weight="2.2774732421193915E-149"/>
				<Con from="1/15" weight="-1.4839353822323348E-142"/>
				<Con from="1/16" weight="-1.6993917321993466E-126"/>
				<Con from="1/17" weight="0.14947887929751053"/>
				<Con from="1/18" weight="0.39239342213412115"/>
				<Con from="1/19" weight="-8.66355625769312E-153"/>
				<Con from="1/20" weight="-5.022318003940228E-116"/>
				<Con from="1/21" weight="-0.046507592692108926"/>
				<Con from="1/22" weight="-0.05964685439454524"/>
				<Con from="1/23" weight="0.02982531131454427"/>
				<Con from="1/24" weight="0.05178603209564311"/>
				<Con from="1/25" weight="0.05722254252235537"/>
				<Con from="1/26" weight="-0.05957806010340693"/>
				<Con from="1/27" weight="-0.4882681151728708"/>
				<Con from="1/28" weight="3.358330348151516E-151"/>
				<Con from="1/29" weight="-0.20845506474544995"/>
				<Con from="1/30" weight="0.18593402160323788"/>
				<Con from="1/31" weight="0.11931235213352621"/>
				<Con from="1/32" weight="0.3013444847486989"/>
				<Con from="1/33" weight="0.5964756647456889"/>
				<Con from="1/34" weight="8.116418529969575E-150"/>
				<Con from="1/35" weight="-0.08072121830276854"/>
				<Con from="1/36" weight="-0.07681439343082677"/>
				<Con from="1/37" weight="1.1130130400057304E-137"/>
				<Con from="1/38" weight="-0.018639456406919205"/>
				<Con from="1/39" weight="0.240778041057696"/>
				<Con from="1/40" weight="-5.90603799139185E-4"/>
				<Con from="1/41" weight="-0.03124466319111173"/>
				<Con from="1/42" weight="0.6281375752949804"/>
				<Con from="1/43" weight="1.6007969911153226"/>
				<Con from="1/44" weight="0.052218665860449966"/>
				<Con from="1/45" weight="0.37779308260864264"/>
				<Con from="1/46" weight="-2.660866712028462E-152"/>
				<Con from="1/47" weight="0.17104122158338073"/>
				<Con from="1/48" weight="0.16906795158464097"/>
				<Con from="1/49" weight="-0.48639747206127393"/>
				<Con from="1/50" weight="1.495436551857439"/>
				<Con from="1/51" weight="-0.3923456801646704"/>
				<Con from="1/52" weight="-2.414652321522705E-150"/>
				<Con from="1/53" weight="2.0721122947991885E-142"/>
				<Con from="1/54" weight="0.039402006053406664"/>
				<Con from="1/55" weight="-0.5745369279717737"/>
				<Con from="1/56" weight="-0.02601756904451444"/>
				<Con from="1/57" weight="0.06550157340090193"/>
				<Con from="1/58" weight="-1.8982183304919946"/>
				<Con from="1/59" weight="0.1514120884291612"/>
				<Con from="1/60" weight="6.755557835248542E-145"/>
				<Con from="1/61" weight="2.4722364492901723E-147"/>
				<Con from="1/62" weight="-0.016846825090961883"/>
				<Con from="1/63" weight="0.15287382427748894"/>
				<Con from="1/64" weight="0.006181929502144351"/>
			</Neuron>
			<Neuron id="2/21" bias="0.02113788270905497">
				<Con from="1/1" weight="-0.0072696236530428995"/>
				<Con from="1/2" weight="-0.11444398705517517"/>
				<Con from="1/3" weight="-0.05528777405491416"/>
				<Con from="1/4" weight="6.395431111793463E-147"/>
				<Con from="1/5" weight="0.17303606168806793"/>
				<Con from="1/6" weight="-0.04723406970871163"/>
				<Con from="1/7" weight="0.007595150889786855"/>
				<Con from="1/8" weight="-0.06229277263641452"/>
				<Con from="1/9" weight="-1.4943092428321453E-59"/>
				<Con from="1/10" weight="-6.503994788785819E-151"/>
				<Con from="1/11" weight="1.802411204497348E-153"/>
				<Con from="1/12" weight="0.03091944402417367"/>
				<Con from="1/13" weight="4.589395573306008E-152"/>
				<Con from="1/14" weight="4.285428006172979E-136"/>
				<Con from="1/15" weight="-9.404145972457591E-138"/>
				<Con from="1/16" weight="-2.1700075646049794E-136"/>
				<Con from="1/17" weight="-0.07339888605136555"/>
				<Con from="1/18" weight="0.08666721442347881"/>
				<Con from="1/19" weight="1.2199855139712689E-149"/>
				<Con from="1/20" weight="1.6990627412779E-120"/>
				<Con from="1/21" weight="3.2148291483349943E-15"/>
				<Con from="1/22" weight="1.8632643080556185E-125"/>
				<Con from="1/23" weight="9.270127720599278E-147"/>
				<Con from="1/24" weight="-1.1637876150324263E-133"/>
				<Con from="1/25" weight="-3.1640703249834085E-102"/>
				<Con from="1/26" weight="-0.0036595585716391096"/>
				<Con from="1/27" weight="0.05908156334487833"/>
				<Con from="1/28" weight="9.854400514915234E-153"/>
				<Con from="1/29" weight="-2.773195869648198E-118"/>
				<Con from="1/30" weight="-0.04187105997334597"/>
				<Con from="1/31" weight="3.3837021039619206E-55"/>
				<Con from="1/32" weight="-0.027995712849663235"/>
				<Con from="1/33" weight="0.022785735546076626"/>
				<Con from="1/34" weight="6.319701088738571E-153"/>
				<Con from="1/35" weight="1.4893570539288273E-139"/>
				<Con from="1/36" weight="-0.004288929490741057"/>
				<Con from="1/37" weight="-3.429391165441319E-153"/>
				<Con from="1/38" weight="-0.008803900921953725"/>
				<Con from="1/39" weight="-0.01769021111717247"/>
				<Con from="1/40" weight="-0.01601609784247475"/>
				<Con from="1/41" weight="-1.031377044281028E-128"/>
				<Con from="1/42" weight="-0.07543657680068541"/>
				<Con from="1/43" weight="4.881757712386477E-141"/>
				<Con from="1/44" weight="-0.003835442072732512"/>
				<Con from="1/45" weight="-0.0880973387365586"/>
				<Con from="1/46" weight="3.2526473140857655E-121"/>
				<Con from="1/47" weight="0.027220714504890782"/>
				<Con from="1/48" weight="-0.06477139150443302"/>
				<Con from="1/49" weight="8.732748635446361E-121"/>
				<Con from="1/50" weight="-6.775703767445162E-144"/>
				<Con from="1/51" weight="-3.775175887729435E-144"/>
				<Con from="1/52" weight="-7.553790139915217E-127"/>
				<Con from="1/53" weight="2.021184174351475E-132"/>
				<Con from="1/54" weight="0.08511659058327686"/>
				<Con from="1/55" weight="8.76298405811783E-153"/>
				<Con from="1/56" weight="1.2273092229080973E-151"/>
				<Con from="1/57" weight="-0.017758441204318336"/>
				<Con from="1/58" weight="2.171009341416752E-146"/>
				<Con from="1/59" weight="0.08160558498011161"/>
				<Con from="1/60" weight="-5.244873756935436E-137"/>
				<Con from="1/61" weight="-1.1764526177974734E-133"/>
				<Con from="1/62" weight="0.08518857790414908"/>
				<Con from="1/63" weight="0.02585559358783935"/>
				<Con from="1/64" weight="-0.1209182570770031"/>
			</Neuron>
			<Neuron id="2/22" bias="0.00955045008031882">
				<Con from="1/1" weight="0.5973217050777991"/>
				<Con from="1/2" weight="0.48350796015331604"/>
				<Con from="1/3" weight="0.7731250884912925"/>
				<Con from="1/4" weight="-4.522784112942761E-153"/>
				<Con from="1/5" weight="0.3183746658680391"/>
				<Con from="1/6" weight="0.3742426866996893"/>
				<Con from="1/7" weight="-0.11044620170064662"/>
				<Con from="1/8" weight="0.2625721968457816"/>
				<Con from="1/9" weight="0.7065813435612969"/>
				<Con from="1/10" weight="-0.10994009996170763"/>
				<Con from="1/11" weight="1.0430693443501599E-131"/>
				<Con from="1/12" weight="0.3328896172468571"/>
				<Con from="1/13" weight="0.6828285790802282"/>
				<Con from="1/14" weight="1.0273640916106519E-114"/>
				<Con from="1/15" weight="1.834622780236201E-125"/>
				<Con from="1/16" weight="4.2946447306834387E-134"/>
				<Con from="1/17" weight="0.5447676290519307"/>
				<Con from="1/18" weight="0.4308643504218079"/>
				<Con from="1/19" weight="1.3724382745092718E-139"/>
				<Con from="1/20" weight="-6.69352848555168E-119"/>
