<?xml version="1.0" encoding="UTF-8" standalone="yes"?>
<PMML xmlns="http://www.dmg.org/PMML-4_4" xmlns:data="http://jpmml.org/jpmml-model/InlineTable" version="4.4">
	<Header>
		<Application name="SkLearn2PMML package" version="0.110.0"/>
		<Timestamp>2024-10-18T00:58:37Z</Timestamp>
	</Header>
	<MiningBuildTask>
		<Extension name="repr">PMMLPipeline(steps=[('scaler', MinMaxScaler()),
       ('regressor', MLPRegressor(hidden_layer_sizes=(64, 32), max_iter=500, random_state=42))])</Extension>
	</MiningBuildTask>
	<DataDictionary>
		<DataField name="Adj_Close" optype="continuous" dataType="double"/>
		<DataField name="Open" optype="continuous" dataType="double"/>
		<DataField name="High" optype="continuous" dataType="double"/>
		<DataField name="Low" optype="continuous" dataType="double"/>
		<DataField name="Close" optype="continuous" dataType="double"/>
		<DataField name="Volume" optype="continuous" dataType="double"/>
	</DataDictionary>
	<NeuralNetwork functionName="regression" algorithmName="sklearn.neural_network._multilayer_perceptron.MLPRegressor" activationFunction="rectifier">
		<MiningSchema>
			<MiningField name="Adj_Close" usageType="target"/>
			<MiningField name="Open"/>
			<MiningField name="High"/>
			<MiningField name="Low"/>
			<MiningField name="Close"/>
			<MiningField name="Volume"/>
		</MiningSchema>
		<LocalTransformations>
			<DerivedField name="minMaxScaler(Open)" optype="continuous" dataType="double">
				<Apply function="+">
					<Apply function="*">
						<FieldRef field="Open"/>
						<Constant dataType="double">0.0022698143868915706</Constant>
					</Apply>
					<Constant dataType="double">-0.006344873323012653</Constant>
				</Apply>
			</DerivedField>
			<DerivedField name="minMaxScaler(High)" optype="continuous" dataType="double">
				<Apply function="+">
					<Apply function="*">
						<FieldRef field="High"/>
						<Constant dataType="double">0.002217665293240537</Constant>
					</Apply>
					<Constant dataType="double">-0.006199099556207492</Constant>
				</Apply>
			</DerivedField>
			<DerivedField name="minMaxScaler(Low)" optype="continuous" dataType="double">
				<Apply function="+">
					<Apply function="*">
						<FieldRef field="Low"/>
						<Constant dataType="double">0.002259403530566565</Constant>
					</Apply>
					<Constant dataType="double">-0.006315771575773882</Constant>
				</Apply>
			</DerivedField>
			<DerivedField name="minMaxScaler(Close)" optype="continuous" dataType="double">
				<Apply function="+">
					<Apply function="*">
						<FieldRef field="Close"/>
						<Constant dataType="double">0.0022223226368911753</Constant>
					</Apply>
					<Constant dataType="double">-0.00621211835442099</Constant>
				</Apply>
			</DerivedField>
			<DerivedField name="minMaxScaler(Volume)" optype="continuous" dataType="double">
				<Apply function="*">
					<FieldRef field="Volume"/>
					<Constant dataType="double">8.935438951651412E-8</Constant>
				</Apply>
			</DerivedField>
		</LocalTransformations>
		<NeuralInputs>
			<NeuralInput id="input/1">
				<DerivedField optype="continuous" dataType="double">
					<FieldRef field="minMaxScaler(Open)"/>
				</DerivedField>
			</NeuralInput>
			<NeuralInput id="input/2">
				<DerivedField optype="continuous" dataType="double">
					<FieldRef field="minMaxScaler(High)"/>
				</DerivedField>
			</NeuralInput>
			<NeuralInput id="input/3">
				<DerivedField optype="continuous" dataType="double">
					<FieldRef field="minMaxScaler(Low)"/>
				</DerivedField>
			</NeuralInput>
			<NeuralInput id="input/4">
				<DerivedField optype="continuous" dataType="double">
					<FieldRef field="minMaxScaler(Close)"/>
				</DerivedField>
			</NeuralInput>
			<NeuralInput id="input/5">
				<DerivedField optype="continuous" dataType="double">
					<FieldRef field="minMaxScaler(Volume)"/>
				</DerivedField>
			</NeuralInput>
		</NeuralInputs>
		<NeuralLayer>
			<Neuron id="1/1" bias="-0.042107040610332824">
				<Con from="input/1" weight="0.24610980748363276"/>
				<Con from="input/2" weight="0.3747866127489177"/>
				<Con from="input/3" weight="0.12017462739170755"/>
				<Con from="input/4" weight="0.9026889445135863"/>
				<Con from="input/5" weight="1.7178251025121398"/>
			</Neuron>
			<Neuron id="1/2" bias="0.12717945495442873">
				<Con from="input/1" weight="0.6153535735896871"/>
				<Con from="input/2" weight="0.5562969508724113"/>
				<Con from="input/3" weight="0.4493066470053964"/>
				<Con from="input/4" weight="0.7741680685290586"/>
				<Con from="input/5" weight="1.5478918871930416"/>
			</Neuron>
			<Neuron id="1/3" bias="-0.1761641861714969">
				<Con from="input/1" weight="0.5286139152057104"/>
				<Con from="input/2" weight="0.35995551247646723"/>
				<Con from="input/3" weight="0.44506316747860986"/>
				<Con from="input/4" weight="0.6508322576280671"/>
				<Con from="input/5" weight="0.38695639186397934"/>
			</Neuron>
			<Neuron id="1/4" bias="-0.1297879068707015">
				<Con from="input/1" weight="3.533215433E-315"/>
				<Con from="input/2" weight="-3.766745234E-315"/>
				<Con from="input/3" weight="-2.52752742E-315"/>
				<Con from="input/4" weight="-4.51765025E-316"/>
				<Con from="input/5" weight="1.64024324E-315"/>
			</Neuron>
			<Neuron id="1/5" bias="0.3334050980484347">
				<Con from="input/1" weight="0.11402060958807507"/>
				<Con from="input/2" weight="0.23811690871386706"/>
				<Con from="input/3" weight="0.1871499771190634"/>
				<Con from="input/4" weight="0.7853895009848276"/>
				<Con from="input/5" weight="1.4119203862756866"/>
			</Neuron>
			<Neuron id="1/6" bias="0.12844959082214277">
				<Con from="input/1" weight="0.12370489404344572"/>
				<Con from="input/2" weight="0.7970694887372392"/>
				<Con from="input/3" weight="0.3199865716610416"/>
				<Con from="input/4" weight="0.9046041138050797"/>
				<Con from="input/5" weight="1.7748068246580184"/>
			</Neuron>
			<Neuron id="1/7" bias="-0.04569848688275142">
				<Con from="input/1" weight="-0.3369440456888907"/>
				<Con from="input/2" weight="0.07297716938662678"/>
				<Con from="input/3" weight="0.17090904789298372"/>
				<Con from="input/4" weight="0.13884913667614937"/>
				<Con from="input/5" weight="-0.1991953890199795"/>
			</Neuron>
			<Neuron id="1/8" bias="-0.06886907292048661">
				<Con from="input/1" weight="0.5293990960810874"/>
				<Con from="input/2" weight="0.3222587847897184"/>
				<Con from="input/3" weight="0.3014872229324576"/>
				<Con from="input/4" weight="0.8297428696280293"/>
				<Con from="input/5" weight="1.447357005662886"/>
			</Neuron>
			<Neuron id="1/9" bias="-0.06305922240591251">
				<Con from="input/1" weight="9.7834282875141E-11"/>
				<Con from="input/2" weight="-7.048929170826912E-10"/>
				<Con from="input/3" weight="-1.5491913694955257E-11"/>
				<Con from="input/4" weight="9.390936684856813E-11"/>
				<Con from="input/5" weight="2.556808959630127E-7"/>
			</Neuron>
			<Neuron id="1/10" bias="-0.16903885607772304">
				<Con from="input/1" weight="0.0632932466123498"/>
				<Con from="input/2" weight="0.10105189914112721"/>
				<Con from="input/3" weight="0.06085413336363767"/>
				<Con from="input/4" weight="-0.158468937474268"/>
				<Con from="input/5" weight="0.025062818084139443"/>
			</Neuron>
			<Neuron id="1/11" bias="-0.08494267999763189">
				<Con from="input/1" weight="-8.88950034E-316"/>
				<Con from="input/2" weight="-5.57051E-317"/>
				<Con from="input/3" weight="2.00501046E-315"/>
				<Con from="input/4" weight="2.99390387E-316"/>
				<Con from="input/5" weight="-1.7201979E-315"/>
			</Neuron>
			<Neuron id="1/12" bias="0.0971861216486489">
				<Con from="input/1" weight="0.5977855667702008"/>
				<Con from="input/2" weight="0.6377068148195548"/>
				<Con from="input/3" weight="0.6933896110665869"/>
				<Con from="input/4" weight="0.9035305987350931"/>
				<Con from="input/5" weight="1.5009839993413352"/>
			</Neuron>
			<Neuron id="1/13" bias="-0.2803471271550028">
				<Con from="input/1" weight="0.6590118965093548"/>
				<Con from="input/2" weight="0.797872782319603"/>
				<Con from="input/3" weight="0.8319752034534839"/>
				<Con from="input/4" weight="0.8672581967880578"/>
				<Con from="input/5" weight="0.44081357490827844"/>
			</Neuron>
			<Neuron id="1/14" bias="-0.22642800362017873">
				<Con from="input/1" weight="-3.9508823E-316"/>
				<Con from="input/2" weight="1.896993194E-315"/>
				<Con from="input/3" weight="-6.5202714E-316"/>
				<Con from="input/4" weight="8.98273344E-316"/>
				<Con from="input/5" weight="4.5821144E-316"/>
			</Neuron>
			<Neuron id="1/15" bias="-0.2677530341978715">
				<Con from="input/1" weight="-2.451197765E-315"/>
				<Con from="input/2" weight="8.3691862E-316"/>
				<Con from="input/3" weight="1.6894356E-316"/>
				<Con from="input/4" weight="1.760417E-317"/>
				<Con from="input/5" weight="-7.44826204E-316"/>
			</Neuron>
			<Neuron id="1/16" bias="-0.270863375166774">
				<Con from="input/1" weight="-1.12946039E-315"/>
				<Con from="input/2" weight="-3.16192205E-315"/>
				<Con from="input/3" weight="1.657686753E-315"/>
				<Con from="input/4" weight="3.8715089E-316"/>
				<Con from="input/5" weight="-1.24178094E-316"/>
			</Neuron>
			<Neuron id="1/17" bias="0.2232539725403941">
				<Con from="input/1" weight="0.23188462047857644"/>
				<Con from="input/2" weight="0.7405467434908802"/>
				<Con from="input/3" weight="0.3135701872090369"/>
				<Con from="input/4" weight="0.3980854904623854"/>
				<Con from="input/5" weight="1.649434549869799"/>
			</Neuron>
			<Neuron id="1/18" bias="0.10307761727043135">
				<Con from="input/1" weight="0.3486618898168817"/>
				<Con from="input/2" weight="0.5881061993871243"/>
				<Con from="input/3" weight="0.15593416111536898"/>
				<Con from="input/4" weight="0.48160884861931363"/>
				<Con from="input/5" weight="1.6417999501284803"/>
			</Neuron>
			<Neuron id="1/19" bias="-0.015231444637421931">
				<Con from="input/1" weight="7.7101844E-316"/>
				<Con from="input/2" weight="-2.547836665E-315"/>
				<Con from="input/3" weight="-4.67495764E-316"/>
				<Con from="input/4" weight="1.56831336E-315"/>
				<Con from="input/5" weight="1.544603E-315"/>
			</Neuron>
			<Neuron id="1/20" bias="-0.23718447220916977">
				<Con from="input/1" weight="-3.71505177E-316"/>
				<Con from="input/2" weight="-9.1651524E-317"/>
				<Con from="input/3" weight="1.62705145E-316"/>
				<Con from="input/4" weight="1.58295445E-315"/>
				<Con from="input/5" weight="1.17336746E-315"/>
			</Neuron>
			<Neuron id="1/21" bias="-0.07093608656806324">
				<Con from="input/1" weight="0.3104484339835571"/>
				<Con from="input/2" weight="-0.028765192913345377"/>
				<Con from="input/3" weight="-0.10397427336585809"/>
				<Con from="input/4" weight="-0.18101468240309498"/>
				<Con from="input/5" weight="3.1843638188388077"/>
			</Neuron>
			<Neuron id="1/22" bias="-0.015645496037755557">
				<Con from="input/1" weight="8.80486003E-316"/>
				<Con from="input/2" weight="1.40697855E-315"/>
				<Con from="input/3" weight="-6.815346E-317"/>
				<Con from="input/4" weight="-1.606586304E-315"/>
				<Con from="input/5" weight="1.7218708E-315"/>
			</Neuron>
			<Neuron id="1/23" bias="-0.23325708753832927">
				<Con from="input/1" weight="-0.14563118807315192"/>
				<Con from="input/2" weight="0.08373588315541168"/>
				<Con from="input/3" weight="0.17722188405351486"/>
				<Con from="input/4" weight="0.07454395672437249"/>
				<Con from="input/5" weight="0.012738739009403418"/>
			</Neuron>
			<Neuron id="1/24" bias="-0.03901216893109416">
				<Con from="input/1" weight="-9.68759936E-316"/>
				<Con from="input/2" weight="-1.899975646E-315"/>
				<Con from="input/3" weight="3.85558023E-315"/>
				<Con from="input/4" weight="3.666373086E-315"/>
				<Con from="input/5" weight="-1.635563086E-315"/>
			</Neuron>
			<Neuron id="1/25" bias="-0.6176206495000145">
				<Con from="input/1" weight="0.4373012586496462"/>
				<Con from="input/2" weight="0.8200457755263206"/>
				<Con from="input/3" weight="0.39478216684828843"/>
				<Con from="input/4" weight="0.7293165771522243"/>
				<Con from="input/5" weight="0.46610230517200296"/>
			</Neuron>
			<Neuron id="1/26" bias="-0.06616287280514051">
				<Con from="input/1" weight="0.5053424039589784"/>
				<Con from="input/2" weight="0.5074033605363216"/>
				<Con from="input/3" weight="0.42106122495533943"/>
				<Con from="input/4" weight="0.8315194363598717"/>
				<Con from="input/5" weight="1.3757182252933748"/>
			</Neuron>
			<Neuron id="1/27" bias="-0.22883888458465076">
				<Con from="input/1" weight="0.22004670805681972"/>
				<Con from="input/2" weight="0.363556222112786"/>
				<Con from="input/3" weight="0.7926396013995805"/>
				<Con from="input/4" weight="0.8528708072632338"/>
				<Con from="input/5" weight="-0.34944719856575257"/>
			</Neuron>
			<Neuron id="1/28" bias="-0.268165065019991">
				<Con from="input/1" weight="2.05233537E-315"/>
				<Con from="input/2" weight="2.518948553E-315"/>
				<Con from="input/3" weight="2.630019643E-315"/>
				<Con from="input/4" weight="-3.17883073E-315"/>
				<Con from="input/5" weight="7.6153638E-316"/>
			</Neuron>
			<Neuron id="1/29" bias="-0.6560253667140057">
				<Con from="input/1" weight="0.43473294367239207"/>
				<Con from="input/2" weight="0.682481666814252"/>
				<Con from="input/3" weight="0.6038522380631155"/>
				<Con from="input/4" weight="0.8175835231534476"/>
				<Con from="input/5" weight="0.37459580709681056"/>
			</Neuron>
			<Neuron id="1/30" bias="-0.03326111331706946">
				<Con from="input/1" weight="0.04554872381822959"/>
				<Con from="input/2" weight="0.5325042392259064"/>
				<Con from="input/3" weight="0.5607418627797017"/>
				<Con from="input/4" weight="0.7017265341630616"/>
				<Con from="input/5" weight="1.1281833104468177"/>
			</Neuron>
			<Neuron id="1/31" bias="-0.061950506128268495">
				<Con from="input/1" weight="0.41191553173965917"/>
				<Con from="input/2" weight="0.6917614345555079"/>
				<Con from="input/3" weight="0.2838759144773083"/>
				<Con from="input/4" weight="0.4539286291758663"/>
				<Con from="input/5" weight="1.4560148739697103"/>
			</Neuron>
			<Neuron id="1/32" bias="0.09676390590148691">
				<Con from="input/1" weight="0.0677695997976008"/>
				<Con from="input/2" weight="0.4420259135663971"/>
				<Con from="input/3" weight="0.4949821066878528"/>
				<Con from="input/4" weight="0.5382078084597224"/>
				<Con from="input/5" weight="1.3260863869376491"/>
			</Neuron>
			<Neuron id="1/33" bias="0.8064563716090025">
				<Con from="input/1" weight="-0.04518578520512931"/>
				<Con from="input/2" weight="-0.041709955933059845"/>
				<Con from="input/3" weight="0.02233773770272723"/>
				<Con from="input/4" weight="-0.4018035446402506"/>
				<Con from="input/5" weight="-0.5033115090070205"/>
			</Neuron>
			<Neuron id="1/34" bias="-0.19879042969434052">
				<Con from="input/1" weight="1.632344965E-315"/>
				<Con from="input/2" weight="-3.319051063E-315"/>
				<Con from="input/3" weight="1.08650489E-315"/>
				<Con from="input/4" weight="1.12332267E-315"/>
				<Con from="input/5" weight="-3.164977146E-315"/>
			</Neuron>
			<Neuron id="1/35" bias="-0.7978857965852026">
				<Con from="input/1" weight="0.7680720466811068"/>
				<Con from="input/2" weight="0.3837632396538875"/>
				<Con from="input/3" weight="0.7187640463723144"/>
				<Con from="input/4" weight="1.1658031443799761"/>
				<Con from="input/5" weight="-0.251919488062738"/>
			</Neuron>
			<Neuron id="1/36" bias="0.052191285836919975">
				<Con from="input/1" weight="0.5429766494108841"/>
				<Con from="input/2" weight="0.31312574653676245"/>
				<Con from="input/3" weight="0.4749155009075096"/>
				<Con from="input/4" weight="0.6455208862569283"/>
				<Con from="input/5" weight="1.1741726406600173"/>
			</Neuron>
			<Neuron id="1/37" bias="-0.27924839436384763">
				<Con from="input/1" weight="1.0971974E-316"/>
				<Con from="input/2" weight="-2.53951993E-315"/>
				<Con from="input/3" weight="2.723300314E-315"/>
				<Con from="input/4" weight="1.079536756E-315"/>
				<Con from="input/5" weight="2.296249816E-315"/>
			</Neuron>
			<Neuron id="1/38" bias="0.041439672258506983">
				<Con from="input/1" weight="0.10943964056608406"/>
				<Con from="input/2" weight="0.6111978733408878"/>
				<Con from="input/3" weight="0.6363692075935636"/>
				<Con from="input/4" weight="0.7717174048577973"/>
				<Con from="input/5" weight="1.38168182394984"/>
			</Neuron>
			<Neuron id="1/39" bias="0.18126915679287842">
				<Con from="input/1" weight="0.3979492869301986"/>
				<Con from="input/2" weight="0.3602891368265719"/>
				<Con from="input/3" weight="0.2814992211982691"/>
				<Con from="input/4" weight="0.8127679590134138"/>
				<Con from="input/5" weight="1.0867795719488427"/>
			</Neuron>
			<Neuron id="1/40" bias="0.043952567792867055">
				<Con from="input/1" weight="0.29587043459495904"/>
				<Con from="input/2" weight="0.5183967209030854"/>
				<Con from="input/3" weight="0.23702014395339313"/>
				<Con from="input/4" weight="0.6767335252438686"/>
				<Con from="input/5" weight="1.466037727636874"/>
			</Neuron>
			<Neuron id="1/41" bias="-0.06595377934822763">
				<Con from="input/1" weight="-2.664968987E-315"/>
				<Con from="input/2" weight="-1.367815716E-315"/>
				<Con from="input/3" weight="-2.71265514E-315"/>
				<Con from="input/4" weight="-1.426751537E-315"/>
				<Con from="input/5" weight="1.45375714E-316"/>
			</Neuron>
			<Neuron id="1/42" bias="0.6987959861330251">
				<Con from="input/1" weight="-0.16379009534343686"/>
				<Con from="input/2" weight="-0.5616847445012384"/>
				<Con from="input/3" weight="-0.09162461042541192"/>
				<Con from="input/4" weight="-0.4695787845288796"/>
				<Con from="input/5" weight="-1.3548193645038575"/>
			</Neuron>
			<Neuron id="1/43" bias="-0.02462110195897399">
				<Con from="input/1" weight="-2.401581396E-315"/>
				<Con from="input/2" weight="6.74834113E-316"/>
				<Con from="input/3" weight="-2.63820042E-315"/>
				<Con from="input/4" weight="1.062997667E-315"/>
				<Con from="input/5" weight="-2.48684846E-315"/>
			</Neuron>
			<Neuron id="1/44" bias="-0.09312269124325574">
				<Con from="input/1" weight="0.5585537712535534"/>
				<Con from="input/2" weight="0.6535696048823051"/>
				<Con from="input/3" weight="0.12307370612188465"/>
				<Con from="input/4" weight="0.7971290998444366"/>
				<Con from="input/5" weight="1.194932731204909"/>
			</Neuron>
			<Neuron id="1/45" bias="0.284667377780639">
				<Con from="input/1" weight="0.1935254681044425"/>
				<Con from="input/2" weight="0.3502961440824054"/>
				<Con from="input/3" weight="0.44116746312051314"/>
				<Con from="input/4" weight="0.5487482110819043"/>
				<Con from="input/5" weight="1.0700592876883863"/>
			</Neuron>
			<Neuron id="1/46" bias="-0.06717299953414674">
				<Con from="input/1" weight="-1.03382016E-316"/>
				<Con from="input/2" weight="2.26441812E-315"/>
				<Con from="input/3" weight="-1.54534837E-315"/>
				<Con from="input/4" weight="-8.98163736E-316"/>
				<Con from="input/5" weight="-1.976972946E-315"/>
			</Neuron>
			<Neuron id="1/47" bias="0.26597342174890826">
				<Con from="input/1" weight="0.23150085195247797"/>
				<Con from="input/2" weight="0.3969563717597632"/>
				<Con from="input/3" weight="0.523259763472237"/>
				<Con from="input/4" weight="0.7722842872624982"/>
				<Con from="input/5" weight="1.4224625527271533"/>
			</Neuron>
			<Neuron id="1/48" bias="0.2798168945199665">
				<Con from="input/1" weight="0.36374135413898334"/>
				<Con from="input/2" weight="0.32826489925174074"/>
				<Con from="input/3" weight="0.2525052822490539"/>
				<Con from="input/4" weight="0.49985096381037303"/>
				<Con from="input/5" weight="1.4999301988615763"/>
			</Neuron>
			<Neuron id="1/49" bias="-0.2841868050514524">
				<Con from="input/1" weight="0.5079767304358265"/>
				<Con from="input/2" weight="0.9120247130592899"/>
				<Con from="input/3" weight="0.6881283543233415"/>
				<Con from="input/4" weight="1.0844747472401484"/>
				<Con from="input/5" weight="0.7351680572888452"/>
			</Neuron>
			<Neuron id="1/50" bias="-0.27567473618625926">
				<Con from="input/1" weight="0.24637705449208755"/>
				<Con from="input/2" weight="0.353052726239061"/>
				<Con from="input/3" weight="0.07466825347063434"/>
				<Con from="input/4" weight="0.03885010178500278"/>
				<Con from="input/5" weight="2.7346691887544803"/>
			</Neuron>
			<Neuron id="1/51" bias="-0.29431408678642357">
				<Con from="input/1" weight="0.7366151828829569"/>
				<Con from="input/2" weight="0.7144777165062604"/>
				<Con from="input/3" weight="0.8127893547113874"/>
				<Con from="input/4" weight="1.046657496674601"/>
				<Con from="input/5" weight="0.5683928370766207"/>
			</Neuron>
			<Neuron id="1/52" bias="-0.28413726583468235">
				<Con from="input/1" weight="1.265998406E-315"/>
				<Con from="input/2" weight="2.47404911E-315"/>
				<Con from="input/3" weight="-2.48555163E-316"/>
				<Con from="input/4" weight="-3.81050026E-315"/>
				<Con from="input/5" weight="2.27058763E-315"/>
			</Neuron>
			<Neuron id="1/53" bias="-0.23918449279413723">
				<Con from="input/1" weight="3.08092277E-316"/>
				<Con from="input/2" weight="-2.1303828E-315"/>
				<Con from="input/3" weight="2.974323666E-315"/>
				<Con from="input/4" weight="1.35780786E-316"/>
				<Con from="input/5" weight="-1.296968323E-315"/>
			</Neuron>
			<Neuron id="1/54" bias="0.09363666246838002">
				<Con from="input/1" weight="0.5549540833958159"/>
				<Con from="input/2" weight="0.3185075018561648"/>
				<Con from="input/3" weight="0.18639261661394263"/>
				<Con from="input/4" weight="0.9191386666467023"/>
				<Con from="input/5" weight="1.2849510928736363"/>
			</Neuron>
			<Neuron id="1/55" bias="-0.3034210692479312">
				<Con from="input/1" weight="0.5105437380695016"/>
				<Con from="input/2" weight="0.8652944943551573"/>
				<Con from="input/3" weight="0.80542861905437"/>
				<Con from="input/4" weight="0.7589094690828453"/>
				<Con from="input/5" weight="-0.3381451323609778"/>
			</Neuron>
			<Neuron id="1/56" bias="-0.155351828127431">
				<Con from="input/1" weight="0.5996087741426976"/>
				<Con from="input/2" weight="0.5592691967821206"/>
				<Con from="input/3" weight="0.6639208487500579"/>
				<Con from="input/4" weight="0.9737648178392795"/>
				<Con from="input/5" weight="1.249621572094068"/>
			</Neuron>
			<Neuron id="1/57" bias="0.2153343815696828">
				<Con from="input/1" weight="0.05804027741947301"/>
				<Con from="input/2" weight="0.6596086021869575"/>
				<Con from="input/3" weight="0.24963139123528674"/>
				<Con from="input/4" weight="0.9132558512062549"/>
				<Con from="input/5" weight="1.1132834250971293"/>
			</Neuron>
			<Neuron id="1/58" bias="-0.40634806826754577">
				<Con from="input/1" weight="0.3101145917544793"/>
				<Con from="input/2" weight="0.5127946768272703"/>
				<Con from="input/3" weight="0.30840193255965764"/>
				<Con from="input/4" weight="0.10668826259370431"/>
				<Con from="input/5" weight="2.2726731810000524"/>
			</Neuron>
			<Neuron id="1/59" bias="0.18343885488503325">
				<Con from="input/1" weight="0.07180936699489938"/>
				<Con from="input/2" weight="0.4128591276749721"/>
				<Con from="input/3" weight="0.6201806361327247"/>
				<Con from="input/4" weight="0.5628238680511687"/>
				<Con from="input/5" weight="1.6248698602802327"/>
			</Neuron>
			<Neuron id="1/60" bias="-0.12865503493304212">
				<Con from="input/1" weight="1.14226869E-315"/>
				<Con from="input/2" weight="-1.559261094E-315"/>
				<Con from="input/3" weight="-1.925640973E-315"/>
				<Con from="input/4" weight="-3.64804864E-315"/>
				<Con from="input/5" weight="-5.62204507E-316"/>
			</Neuron>
			<Neuron id="1/61" bias="-0.2251940989768214">
				<Con from="input/1" weight="-6.6659449E-316"/>
				<Con from="input/2" weight="-9.3834819E-316"/>
				<Con from="input/3" weight="-2.423248704E-315"/>
				<Con from="input/4" weight="-3.576026587E-315"/>
				<Con from="input/5" weight="3.511710405E-315"/>
			</Neuron>
			<Neuron id="1/62" bias="0.11131453124431091">
				<Con from="input/1" weight="0.23427647598640688"/>
				<Con from="input/2" weight="0.5092001731317309"/>
				<Con from="input/3" weight="0.30952041789424806"/>
				<Con from="input/4" weight="0.6083651826664626"/>
				<Con from="input/5" weight="1.2701560353353862"/>
			</Neuron>
			<Neuron id="1/63" bias="0.07363746064524519">
				<Con from="input/1" weight="0.5605072116866641"/>
				<Con from="input/2" weight="0.736694298045184"/>
				<Con from="input/3" weight="0.22130978189641592"/>
				<Con from="input/4" weight="0.5203362083697598"/>
				<Con from="input/5" weight="1.2276924788039432"/>
			</Neuron>
			<Neuron id="1/64" bias="0.17353474979521796">
				<Con from="input/1" weight="0.24171092274277947"/>
				<Con from="input/2" weight="0.720656111344343"/>
				<Con from="input/3" weight="0.6545846241850864"/>
				<Con from="input/4" weight="0.7067944107852234"/>
				<Con from="input/5" weight="1.2500582561645512"/>
			</Neuron>
		</NeuralLayer>
		<NeuralLayer>
			<Neuron id="2/1" bias="0.41413253471052813">
				<Con from="1/1" weight="0.7369268918669825"/>
				<Con from="1/2" weight="0.3541618324774014"/>
				<Con from="1/3" weight="0.5900438500350292"/>
				<Con from="1/4" weight="-5.4857306E-316"/>
				<Con from="1/5" weight="0.66750822201622"/>
				<Con from="1/6" weight="0.5677659523652843"/>
				<Con from="1/7" weight="-0.08991779120688635"/>
				<Con from="1/8" weight="0.540268449974958"/>
				<Con from="1/9" weight="-2.8580552639235396E-16"/>
				<Con from="1/10" weight="-1.0434007183013302E-8"/>
				<Con from="1/11" weight="-1.72613889E-315"/>
				<Con from="1/12" weight="0.3926730082534113"/>
				<Con from="1/13" weight="0.5499092362713424"/>
				<Con from="1/14" weight="-3.234483803E-315"/>
				<Con from="1/15" weight="1.73281869E-315"/>
				<Con from="1/16" weight="-1.82700161E-315"/>
				<Con from="1/17" weight="0.35487980073286046"/>
				<Con from="1/18" weight="0.597201922064116"/>
				<Con from="1/19" weight="2.73070658E-315"/>
				<Con from="1/20" weight="-1.335148214E-315"/>
				<Con from="1/21" weight="-3.4705860765284147"/>
				<Con from="1/22" weight="-1.889924365E-315"/>
				<Con from="1/23" weight="3.736409145017067E-11"/>
				<Con from="1/24" weight="1.777890286E-315"/>
				<Con from="1/25" weight="0.8321794425263335"/>
				<Con from="1/26" weight="0.30267389135580813"/>
				<Con from="1/27" weight="0.5151028091779815"/>
				<Con from="1/28" weight="-1.236596613E-315"/>
				<Con from="1/29" weight="0.8754201059397073"/>
				<Con from="1/30" weight="0.5589885852381213"/>
				<Con from="1/31" weight="0.6509539808344726"/>
				<Con from="1/32" weight="0.47255009770192863"/>
				<Con from="1/33" weight="-0.5285557654505736"/>
				<Con from="1/34" weight="1.5724494E-317"/>
				<Con from="1/35" weight="1.0945322805722406"/>
				<Con from="1/36" weight="0.41028136951143324"/>
				<Con from="1/37" weight="-2.2447985E-316"/>
				<Con from="1/38" weight="0.5709544217849829"/>
				<Con from="1/39" weight="0.29680539749822143"/>
				<Con from="1/40" weight="0.6213545656515617"/>
				<Con from="1/41" weight="-3.01869336E-315"/>
				<Con from="1/42" weight="-0.7631862474902621"/>
				<Con from="1/43" weight="-7.1766438E-316"/>
				<Con from="1/44" weight="0.5067692700815195"/>
				<Con from="1/45" weight="0.42629781968656955"/>
				<Con from="1/46" weight="-3.7779656E-315"/>
				<Con from="1/47" weight="0.5658630068154058"/>
				<Con from="1/48" weight="0.5526852619872497"/>
				<Con from="1/49" weight="0.7377402906459157"/>
				<Con from="1/50" weight="-1.5517231656937882"/>
				<Con from="1/51" weight="0.4338819685264012"/>
				<Con from="1/52" weight="-1.99954334E-315"/>
				<Con from="1/53" weight="2.7874974E-315"/>
				<Con from="1/54" weight="0.24110401766901307"/>
				<Con from="1/55" weight="0.4985626443395012"/>
				<Con from="1/56" weight="0.4957329793762679"/>
				<Con from="1/57" weight="0.3581549038259055"/>
				<Con from="1/58" weight="-1.52612643855254"/>
				<Con from="1/59" weight="0.6318748037143319"/>
				<Con from="1/60" weight="-6.09779857E-316"/>
				<Con from="1/61" weight="1.2001257E-316"/>
				<Con from="1/62" weight="0.49164820419096855"/>
				<Con from="1/63" weight="0.3918065014999407"/>
				<Con from="1/64" weight="0.36478334467785667"/>
			</Neuron>
			<Neuron id="2/2" bias="-0.12166827794345188">
				<Con from="1/1" weight="0.026350710915759253"/>
				<Con from="1/2" weight="-0.07208568700125949"/>
				<Con from="1/3" weight="-0.020149409189824635"/>
				<Con from="1/4" weight="2.85851986E-315"/>
				<Con from="1/5" weight="0.038358722201426554"/>
				<Con from="1/6" weight="-0.05859713506465766"/>
				<Con from="1/7" weight="0.0671603852200021"/>
				<Con from="1/8" weight="0.028445052304985133"/>
				<Con from="1/9" weight="-5.9298158E-316"/>
				<Con from="1/10" weight="6.799887119189159E-11"/>
				<Con from="1/11" weight="-3.56884921E-315"/>
				<Con from="1/12" weight="0.10143540824734462"/>
				<Con from="1/13" weight="0.07788750350410792"/>
				<Con from="1/14" weight="1.03127395E-315"/>
				<Con from="1/15" weight="-1.122450117E-315"/>
				<Con from="1/16" weight="5.27300814E-316"/>
				<Con from="1/17" weight="0.051879125468826004"/>
				<Con from="1/18" weight="-0.0396568261715978"/>
				<Con from="1/19" weight="9.1569248E-316"/>
				<Con from="1/20" weight="-7.0530467E-316"/>
				<Con from="1/21" weight="2.222099E-316"/>
				<Con from="1/22" weight="-1.098777644E-315"/>
				<Con from="1/23" weight="-0.007756095342624533"/>
				<Con from="1/24" weight="1.411540545E-315"/>
				<Con from="1/25" weight="-2.618854361057554E-4"/>
				<Con from="1/26" weight="0.10678270217279932"/>
				<Con from="1/27" weight="0.0172907153472673"/>
				<Con from="1/28" weight="2.282651583E-315"/>
				<Con from="1/29" weight="0.031691864631002056"/>
				<Con from="1/30" weight="0.04904809483791184"/>
				<Con from="1/31" weight="-0.020994035786355912"/>
				<Con from="1/32" weight="-0.006541228696785684"/>
				<Con from="1/33" weight="5.0266724E-316"/>
				<Con from="1/34" weight="1.25595276E-315"/>
				<Con from="1/35" weight="-1.2338286205999689E-5"/>
				<Con from="1/36" weight="-0.04025367260821736"/>
				<Con from="1/37" weight="-4.92134936E-316"/>
				<Con from="1/38" weight="-0.029831950887088544"/>
				<Con from="1/39" weight="-0.0583507656769026"/>
				<Con from="1/40" weight="0.02924321438272462"/>
				<Con from="1/41" weight="-3.17507063E-315"/>
				<Con from="1/42" weight="7.1232578E-316"/>
				<Con from="1/43" weight="9.4588589E-316"/>
				<Con from="1/44" weight="0.07210194441897888"/>
				<Con from="1/45" weight="0.009450575091050089"/>
				<Con from="1/46" weight="2.74310536E-315"/>
				<Con from="1/47" weight="-0.02790786944914762"/>
				<Con from="1/48" weight="0.060479115811668274"/>
				<Con from="1/49" weight="-0.1718764683827384"/>
				<Con from="1/50" weight="-1.972513124E-315"/>
				<Con from="1/51" weight="-0.15467825766179458"/>
				<Con from="1/52" weight="-5.50203237E-316"/>
				<Con from="1/53" weight="2.0701116E-315"/>
				<Con from="1/54" weight="-0.12850543417210827"/>
				<Con from="1/55" weight="0.0854187607702715"/>
				<Con from="1/56" weight="0.08981238526313833"/>
				<Con from="1/57" weight="0.022304335501056288"/>
				<Con from="1/58" weight="2.775091434809641E-6"/>
				<Con from="1/59" weight="-0.08926274570682688"/>
				<Con from="1/60" weight="1.57731078E-315"/>
				<Con from="1/61" weight="-8.2939995E-316"/>
				<Con from="1/62" weight="-0.026356117163797273"/>
				<Con from="1/63" weight="0.03763967916375325"/>
				<Con from="1/64" weight="-0.15497851865851586"/>
			</Neuron>
			<Neuron id="2/3" bias="0.17740261274404254">
				<Con from="1/1" weight="-1.0681534478505902E-27"/>
				<Con from="1/2" weight="0.035482203294626355"/>
				<Con from="1/3" weight="0.010696495553925298"/>
				<Con from="1/4" weight="-3.0033007E-316"/>
				<Con from="1/5" weight="-0.22237293482491483"/>
				<Con from="1/6" weight="-0.20561296199903092"/>
				<Con from="1/7" weight="-0.029234581279099572"/>
				<Con from="1/8" weight="-0.15638940695930167"/>
				<Con from="1/9" weight="-2.5888267E-315"/>
				<Con from="1/10" weight="-2.1834088603199274E-17"/>
				<Con from="1/11" weight="-9.4204187E-316"/>
				<Con from="1/12" weight="-0.06376318277750513"/>
				<Con from="1/13" weight="-0.1547156962565351"/>
				<Con from="1/14" weight="-2.670026386E-315"/>
				<Con from="1/15" weight="-1.009850526E-315"/>
				<Con from="1/16" weight="1.605948366E-315"/>
				<Con from="1/17" weight="-0.23248581659132225"/>
				<Con from="1/18" weight="-0.07866534115186363"/>
				<Con from="1/19" weight="-3.69337384E-315"/>
				<Con from="1/20" weight="8.6891997E-317"/>
				<Con from="1/21" weight="-1.173432346E-315"/>
				<Con from="1/22" weight="5.3788728E-316"/>
				<Con from="1/23" weight="0.020605782685952905"/>
				<Con from="1/24" weight="-1.00904429E-315"/>
				<Con from="1/25" weight="2.01082263E-315"/>
				<Con from="1/26" weight="0.04722634632963626"/>
				<Con from="1/27" weight="0.020261221448379933"/>
				<Con from="1/28" weight="6.0258377E-316"/>
				<Con from="1/29" weight="-0.001450923661521001"/>
				<Con from="1/30" weight="-0.01164759874841563"/>
				<Con from="1/31" weight="-3.991527554E-315"/>
				<Con from="1/32" weight="-0.08510976726245605"/>
				<Con from="1/33" weight="-0.03600666278284368"/>
				<Con from="1/34" weight="3.249988586E-315"/>
				<Con from="1/35" weight="-4.1796794740310583E-7"/>
				<Con from="1/36" weight="-0.01191189519055902"/>
				<Con from="1/37" weight="7.150983E-318"/>
				<Con from="1/38" weight="-0.00196666715638276"/>
				<Con from="1/39" weight="-0.15772460313393247"/>
				<Con from="1/40" weight="-0.007649774590769983"/>
				<Con from="1/41" weight="-1.642589307E-315"/>
				<Con from="1/42" weight="0.08724521221527187"/>
				<Con from="1/43" weight="-8.3036077E-316"/>
				<Con from="1/44" weight="-0.15116049414986174"/>
				<Con from="1/45" weight="-0.2232191365663083"/>
				<Con from="1/46" weight="-1.4605302E-315"/>
				<Con from="1/47" weight="0.0994283078169886"/>
				<Con from="1/48" weight="-0.1863843081296954"/>
				<Con from="1/49" weight="0.016560603436907236"/>
				<Con from="1/50" weight="-2.38847621E-315"/>
				<Con from="1/51" weight="0.06102180278259115"/>
				<Con from="1/52" weight="1.279406997E-315"/>
				<Con from="1/53" weight="-2.894189084E-315"/>
				<Con from="1/54" weight="-0.05326077899822388"/>
				<Con from="1/55" weight="0.012590174422120477"/>
				<Con from="1/56" weight="-0.04821994941902457"/>
				<Con from="1/57" weight="0.036338276628478154"/>
				<Con from="1/58" weight="4.995993408656675E-9"/>
				<Con from="1/59" weight="-0.01630852170285495"/>
				<Con from="1/60" weight="3.218235496E-315"/>
				<Con from="1/61" weight="2.96580621E-315"/>
				<Con from="1/62" weight="-0.0653458469553946"/>
				<Con from="1/63" weight="0.008685982403506754"/>
				<Con from="1/64" weight="-0.08051910553443938"/>
			</Neuron>
			<Neuron id="2/4" bias="-0.05525905254878982">
				<Con from="1/1" weight="-1.803306396E-315"/>
				<Con from="1/2" weight="3.926819465E-315"/>
				<Con from="1/3" weight="1.288509835E-315"/>
				<Con from="1/4" weight="-1.23279324E-315"/>
				<Con from="1/5" weight="4.57601694E-316"/>
				<Con from="1/6" weight="2.196986416E-315"/>
				<Con from="1/7" weight="1.665033855E-315"/>
				<Con from="1/8" weight="-1.209544197E-315"/>
				<Con from="1/9" weight="-3.313412633E-315"/>
				<Con from="1/10" weight="-2.06359874E-315"/>
				<Con from="1/11" weight="-3.42542827E-315"/>
				<Con from="1/12" weight="1.78184582E-315"/>
				<Con from="1/13" weight="-8.28928346E-316"/>
				<Con from="1/14" weight="-2.255037706E-315"/>
				<Con from="1/15" weight="1.0173397E-316"/>
				<Con from="1/16" weight="1.72359E-316"/>
				<Con from="1/17" weight="3.03643119E-315"/>
				<Con from="1/18" weight="1.78134103E-315"/>
				<Con from="1/19" weight="2.03078635E-315"/>
				<Con from="1/20" weight="3.03999209E-315"/>
				<Con from="1/21" weight="-1.46884079E-315"/>
				<Con from="1/22" weight="-1.480279834E-315"/>
				<Con from="1/23" weight="1.181032573E-315"/>
				<Con from="1/24" weight="-3.48468384E-315"/>
				<Con from="1/25" weight="3.99494456E-315"/>
				<Con from="1/26" weight="-3.11094274E-316"/>
				<Con from="1/27" weight="-1.337239475E-315"/>
				<Con from="1/28" weight="-1.8247797E-316"/>
				<Con from="1/29" weight="2.551891995E-315"/>
				<Con from="1/30" weight="-2.716229597E-315"/>
				<Con from="1/31" weight="5.16699006E-316"/>
				<Con from="1/32" weight="-3.23145328E-315"/>
				<Con from="1/33" weight="-1.904459326E-315"/>
				<Con from="1/34" weight="-3.866987853E-315"/>
				<Con from="1/35" weight="-7.4168825E-316"/>
				<Con from="1/36" weight="-8.4071671E-316"/>
				<Con from="1/37" weight="-8.3188511E-316"/>
				<Con from="1/38" weight="-2.976443726E-315"/>
				<Con from="1/39" weight="2.70671275E-315"/>
				<Con from="1/40" weight="2.8109919E-315"/>
				<Con from="1/41" weight="1.6438623E-316"/>
				<Con from="1/42" weight="-2.43860764E-315"/>
				<Con from="1/43" weight="-2.86699248E-315"/>
				<Con from="1/44" weight="-1.2591184E-317"/>
				<Con from="1/45" weight="3.614755607E-315"/>
				<Con from="1/46" weight="2.0779852E-316"/>
				<Con from="1/47" weight="8.00885353E-316"/>
				<Con from="1/48" weight="-1.28706435E-315"/>
				<Con from="1/49" weight="2.88647736E-315"/>
				<Con from="1/50" weight="2.2252405E-316"/>
				<Con from="1/51" weight="1.79153806E-316"/>
				<Con from="1/52" weight="-2.324203744E-315"/>
				<Con from="1/53" weight="-3.327584515E-315"/>
				<Con from="1/54" weight="-3.782593635E-315"/>
				<Con from="1/55" weight="1.36714791E-315"/>
				<Con from="1/56" weight="1.712847295E-315"/>
				<Con from="1/57" weight="8.00244026E-316"/>
				<Con from="1/58" weight="-3.1915591E-315"/>
				<Con from="1/59" weight="-2.18535847E-315"/>
				<Con from="1/60" weight="2.679598236E-315"/>
				<Con from="1/61" weight="3.655208674E-315"/>
				<Con from="1/62" weight="1.4366634E-316"/>
				<Con from="1/63" weight="-1.6488643E-315"/>
				<Con from="1/64" weight="1.05679418E-315"/>
			</Neuron>
			<Neuron id="2/5" bias="-0.2929522661740205">
				<Con from="1/1" weight="0.6874999674199166"/>
				<Con from="1/2" weight="0.5825511392943191"/>
				<Con from="1/3" weight="0.6082396162984549"/>
				<Con from="1/4" weight="1.94926246E-315"/>
				<Con from="1/5" weight="0.21039337917788842"/>
				<Con from="1/6" weight="0.4967033591211154"/>
				<Con from="1/7" weight="-1.4666054137628263E-16"/>
				<Con from="1/8" weight="0.5770839552913872"/>
				<Con from="1/9" weight="2.081681924085905E-125"/>
				<Con from="1/10" weight="-7.997962148813211E-30"/>
				<Con from="1/11" weight="-1.8411866E-316"/>
				<Con from="1/12" weight="0.42717210449539855"/>
				<Con from="1/13" weight="0.45372683277292114"/>
				<Con from="1/14" weight="1.878760596E-315"/>
				<Con from="1/15" weight="-3.99111267E-315"/>
				<Con from="1/16" weight="-1.0668387E-315"/>
				<Con from="1/17" weight="0.21519936202264486"/>
				<Con from="1/18" weight="0.6964141167679669"/>
				<Con from="1/19" weight="3.140176434E-315"/>
				<Con from="1/20" weight="-2.81931215E-315"/>
				<Con from="1/21" weight="-3.5560169770802537"/>
				<Con from="1/22" weight="9.9005408E-316"/>
				<Con from="1/23" weight="2.424680970170324E-202"/>
				<Con from="1/24" weight="1.637103484E-315"/>
				<Con from="1/25" weight="0.6552726736907877"/>
				<Con from="1/26" weight="0.38859393829295374"/>
				<Con from="1/27" weight="0.9650989817158161"/>
				<Con from="1/28" weight="-3.794584633E-315"/>
				<Con from="1/29" weight="0.7332076784467472"/>
				<Con from="1/30" weight="0.5178348576007455"/>
				<Con from="1/31" weight="0.7024949022185527"/>
				<Con from="1/32" weight="0.2865046760356554"/>
				<Con from="1/33" weight="-0.9713988532231831"/>
				<Con from="1/34" weight="4.76417107E-316"/>
				<Con from="1/35" weight="1.0516528694029246"/>
				<Con from="1/36" weight="0.48248636207949774"/>
				<Con from="1/37" weight="-2.982454934E-315"/>
				<Con from="1/38" weight="0.6076914838443358"/>
				<Con from="1/39" weight="0.1747532048541368"/>
				<Con from="1/40" weight="0.4378326240434696"/>
				<Con from="1/41" weight="-2.708422056E-315"/>
				<Con from="1/42" weight="-0.7512058652034352"/>
				<Con from="1/43" weight="1.58859879E-315"/>
				<Con from="1/44" weight="0.33181803996813025"/>
				<Con from="1/45" weight="0.37598124270708017"/>
				<Con from="1/46" weight="-6.49014044E-316"/>
				<Con from="1/47" weight="0.4875935733518159"/>
				<Con from="1/48" weight="0.4381746136406617"/>
				<Con from="1/49" weight="0.7717529826510291"/>
				<Con from="1/50" weight="-1.5747383246832711"/>
				<Con from="1/51" weight="0.594446865540791"/>
				<Con from="1/52" weight="7.80700306E-316"/>
				<Con from="1/53" weight="-2.445254363E-315"/>
				<Con from="1/54" weight="0.4689728587060648"/>
				<Con from="1/55" weight="0.6129552379052836"/>
				<Con from="1/56" weight="0.5001847468485722"/>
				<Con from="1/57" weight="0.3133622504163154"/>
				<Con from="1/58" weight="-1.7067938257428634"/>
				<Con from="1/59" weight="0.5778882318662595"/>
				<Con from="1/60" weight="-1.64337963E-316"/>
				<Con from="1/61" weight="-1.940037196E-315"/>
				<Con from="1/62" weight="0.5593670343569305"/>
				<Con from="1/63" weight="0.5265840033912891"/>
				<Con from="1/64" weight="0.4976583149950814"/>
			</Neuron>
			<Neuron id="2/6" bias="-0.07489554737692328">
				<Con from="1/1" weight="0.7586344883009579"/>
				<Con from="1/2" weight="0.6164734079034424"/>
				<Con from="1/3" weight="0.9299049386420587"/>
				<Con from="1/4" weight="-1.13993985E-315"/>
				<Con from="1/5" weight="0.5427135531455246"/>
				<Con from="1/6" weight="0.657037693192517"/>
				<Con from="1/7" weight="0.2402862059230295"/>
				<Con from="1/8" weight="0.3603170897906791"/>
				<Con from="1/9" weight="3.644258591349215E-25"/>
				<Con from="1/10" weight="-6.169118042712544E-12"/>
				<Con from="1/11" weight="-3.37300257E-316"/>
				<Con from="1/12" weight="0.36959181920606077"/>
				<Con from="1/13" weight="0.6057088867866582"/>
				<Con from="1/14" weight="-3.77941162E-315"/>
				<Con from="1/15" weight="-9.67694054E-316"/>
				<Con from="1/16" weight="2.717662185E-315"/>
				<Con from="1/17" weight="0.1989686393119641"/>
				<Con from="1/18" weight="0.5306894889023601"/>
				<Con from="1/19" weight="3.13108178E-315"/>
				<Con from="1/20" weight="8.63046014E-316"/>
				<Con from="1/21" weight="-3.526598704291077"/>
				<Con from="1/22" weight="-3.585730357E-315"/>
				<Con from="1/23" weight="4.983457324667125E-4"/>
				<Con from="1/24" weight="-1.72394927E-315"/>
				<Con from="1/25" weight="0.932328691155024"/>
				<Con from="1/26" weight="0.6347344001262699"/>
				<Con from="1/27" weight="0.6248241830269526"/>
				<Con from="1/28" weight="-2.21798561E-315"/>
				<Con from="1/29" weight="0.8366809233950516"/>
				<Con from="1/30" weight="0.6852927796903934"/>
				<Con from="1/31" weight="0.3093551872797808"/>
				<Con from="1/32" weight="0.4688268146212856"/>
				<Con from="1/33" weight="-1.1045952014335183"/>
				<Con from="1/34" weight="-2.2573362E-315"/>
				<Con from="1/35" weight="1.040793965532393"/>
				<Con from="1/36" weight="0.622203935612916"/>
				<Con from="1/37" weight="-1.02004467E-316"/>
				<Con from="1/38" weight="0.7179489472066594"/>
				<Con from="1/39" weight="0.4564949753746922"/>
				<Con from="1/40" weight="0.37519491174773445"/>
				<Con from="1/41" weight="-3.1254543E-316"/>
				<Con from="1/42" weight="-0.892255649006451"/>
				<Con from="1/43" weight="-2.3853654E-316"/>
				<Con from="1/44" weight="0.46807575645453037"/>
				<Con from="1/45" weight="0.1612491489583504"/>
				<Con from="1/46" weight="2.95229369E-315"/>
				<Con from="1/47" weight="0.4927308450252445"/>
				<Con from="1/48" weight="0.24134641913681212"/>
				<Con from="1/49" weight="0.4632561457751683"/>
				<Con from="1/50" weight="-1.6298824484139962"/>
				<Con from="1/51" weight="0.7583105846482472"/>
				<Con from="1/52" weight="-1.5675462E-316"/>
				<Con from="1/53" weight="2.59581961E-315"/>
				<Con from="1/54" weight="0.49152816490215084"/>
				<Con from="1/55" weight="0.7462511124311177"/>
				<Con from="1/56" weight="0.7009202248504569"/>
				<Con from="1/57" weight="0.31376190633525036"/>
				<Con from="1/58" weight="-1.198357023220565"/>
				<Con from="1/59" weight="0.48097086640686815"/>
				<Con from="1/60" weight="-8.04123775E-316"/>
				<Con from="1/61" weight="-2.083570737E-315"/>
				<Con from="1/62" weight="0.28919861587664"/>
				<Con from="1/63" weight="0.45300156871362984"/>
				<Con from="1/64" weight="0.50081767945205"/>
			</Neuron>
			<Neuron id="2/7" bias="0.26313630441403885">
				<Con from="1/1" weight="-0.03758266580560599"/>
				<Con from="1/2" weight="0.22080871195460883"/>
				<Con from="1/3" weight="-0.551571462402306"/>
				<Con from="1/4" weight="-2.39000729E-315"/>
				<Con from="1/5" weight="0.2724617256990128"/>
				<Con from="1/6" weight="0.17568634182858242"/>
				<Con from="1/7" weight="3.12699279E-315"/>
				<Con from="1/8" weight="0.018269045120933546"/>
				<Con from="1/9" weight="-3.103960785E-315"/>
				<Con from="1/10" weight="-2.166862E-316"/>
				<Con from="1/11" weight="5.51247267E-316"/>
				<Con from="1/12" weight="0.24501783678683722"/>
				<Con from="1/13" weight="-0.5231704651446674"/>
				<Con from="1/14" weight="3.7609378E-316"/>
				<Con from="1/15" weight="-2.93703623E-316"/>
				<Con from="1/16" weight="3.432343137E-315"/>
				<Con from="1/17" weight="0.23124056734761478"/>
				<Con from="1/18" weight="0.1709482808978069"/>
				<Con from="1/19" weight="1.696412063E-315"/>
				<Con from="1/20" weight="3.338253912E-315"/>
				<Con from="1/21" weight="2.8297983615325504"/>
				<Con from="1/22" weight="-2.92543332E-315"/>
				<Con from="1/23" weight="3.182382575E-315"/>
				<Con from="1/24" weight="3.73704934E-315"/>
				<Con from="1/25" weight="-3.504567817258318"/>
				<Con from="1/26" weight="0.061031976640639966"/>
				<Con from="1/27" weight="-0.6856492541978244"/>
				<Con from="1/28" weight="-2.61281314E-315"/>
				<Con from="1/29" weight="-3.5643865674743416"/>
				<Con from="1/30" weight="0.1602601383928905"/>
				<Con from="1/31" weight="0.008491726238916237"/>
				<Con from="1/32" weight="0.2931396867624742"/>
				<Con from="1/33" weight="0.15344236048508156"/>
				<Con from="1/34" weight="4.12344387E-316"/>
				<Con from="1/35" weight="-4.518277991057874"/>
				<Con from="1/36" weight="0.3073701525855584"/>
				<Con from="1/37" weight="2.39957917E-316"/>
				<Con from="1/38" weight="0.19056642050312878"/>
				<Con from="1/39" weight="0.3192359983008213"/>
				<Con from="1/40" weight="0.1870783973535498"/>
				<Con from="1/41" weight="-1.814096933E-315"/>
				<Con from="1/42" weight="0.12249252026687704"/>
				<Con from="1/43" weight="-6.9353824E-316"/>
				<Con from="1/44" weight="-0.02464947504497029"/>
				<Con from="1/45" weight="0.31389426233432655"/>
				<Con from="1/46" weight="-9.71774784E-316"/>
				<Con from="1/47" weight="0.29427872993100823"/>
				<Con from="1/48" weight="0.2612784127317747"/>
				<Con from="1/49" weight="-0.5745089581186309"/>
				<Con from="1/50" weight="0.6843277868162178"/>
				<Con from="1/51" weight="-0.5253936143617001"/>
				<Con from="1/52" weight="1.499007714E-315"/>
				<Con from="1/53" weight="-2.61370085E-315"/>
				<Con from="1/54" weight="0.24728621370838264"/>
				<Con from="1/55" weight="-0.6334688995653399"/>
				<Con from="1/56" weight="-0.04126047038115047"/>
				<Con from="1/57" weight="0.28211795619601276"/>
				<Con from="1/58" weight="0.24842975042181673"/>
				<Con from="1/59" weight="0.2333940860131728"/>
				<Con from="1/60" weight="3.17191546E-315"/>
				<Con from="1/61" weight="-3.42919283E-315"/>
				<Con from="1/62" weight="0.25996884806514586"/>
				<Con from="1/63" weight="0.2536214335858013"/>
				<Con from="1/64" weight="0.3231966652086512"/>
			</Neuron>
			<Neuron id="2/8" bias="-0.17292747841075645">
				<Con from="1/1" weight="-1.203597035E-315"/>
				<Con from="1/2" weight="3.64791413E-316"/>
				<Con from="1/3" weight="3.23616543E-315"/>
				<Con from="1/4" weight="-1.89274508E-315"/>
				<Con from="1/5" weight="2.41226012E-315"/>
				<Con from="1/6" weight="-2.93968499E-315"/>
				<Con from="1/7" weight="-1.28078115E-315"/>
				<Con from="1/8" weight="-1.131598192E-315"/>
				<Con from="1/9" weight="4.0260724E-316"/>
				<Con from="1/10" weight="-5.39801006E-316"/>
				<Con from="1/11" weight="-9.92463487E-316"/>
				<Con from="1/12" weight="7.316802E-317"/>
				<Con from="1/13" weight="2.652955984E-315"/>
				<Con from="1/14" weight="-6.84812396E-316"/>
				<Con from="1/15" weight="1.25840508E-315"/>
				<Con from="1/16" weight="-8.8883311E-316"/>
				<Con from="1/17" weight="1.25126842E-315"/>
				<Con from="1/18" weight="-1.28586687E-315"/>
				<Con from="1/19" weight="-5.6086774E-316"/>
				<Con from="1/20" weight="-7.9116565E-316"/>
				<Con from="1/21" weight="2.2192868E-316"/>
				<Con from="1/22" weight="-1.083756576E-315"/>
				<Con from="1/23" weight="-1.06040211E-315"/>
				<Con from="1/24" weight="3.256899917E-315"/>
				<Con from="1/25" weight="3.10812266E-316"/>
				<Con from="1/26" weight="8.71898164E-316"/>
				<Con from="1/27" weight="2.61818946E-315"/>
				<Con from="1/28" weight="-2.9959327E-315"/>
				<Con from="1/29" weight="-6.56876926E-316"/>
				<Con from="1/30" weight="-2.21844922E-315"/>
				<Con from="1/31" weight="-2.963750513E-315"/>
				<Con from="1/32" weight="1.541873556E-315"/>
				<Con from="1/33" weight="1.46370674E-315"/>
				<Con from="1/34" weight="2.4701151E-316"/>
				<Con from="1/35" weight="2.93361163E-315"/>
				<Con from="1/36" weight="8.2176912E-316"/>
				<Con from="1/37" weight="5.13627646E-316"/>
				<Con from="1/38" weight="1.39651978E-315"/>
				<Con from="1/39" weight="-1.37245851E-315"/>
				<Con from="1/40" weight="-2.80526966E-316"/>
				<Con from="1/41" weight="2.442546295E-315"/>
				<Con from="1/42" weight="-9.60920256E-316"/>
				<Con from="1/43" weight="1.874931893E-315"/>
				<Con from="1/44" weight="1.920567527E-315"/>
				<Con from="1/45" weight="2.309594016E-315"/>
				<Con from="1/46" weight="1.796479827E-315"/>
				<Con from="1/47" weight="9.95095626E-316"/>
				<Con from="1/48" weight="-1.62263891E-315"/>
				<Con from="1/49" weight="-6.4369204E-317"/>
				<Con from="1/50" weight="2.48136672E-315"/>
				<Con from="1/51" weight="-1.0599961E-316"/>
				<Con from="1/52" weight="-3.875351965E-315"/>
				<Con from="1/53" weight="-2.37226593E-316"/>
				<Con from="1/54" weight="1.24028955E-315"/>
				<Con from="1/55" weight="2.6308942E-315"/>
				<Con from="1/56" weight="-2.60077986E-315"/>
				<Con from="1/57" weight="-2.234691826E-315"/>
				<Con from="1/58" weight="-3.51540574E-315"/>
				<Con from="1/59" weight="3.31278724E-315"/>
				<Con from="1/60" weight="2.0669636E-317"/>
				<Con from="1/61" weight="1.688487363E-315"/>
				<Con from="1/62" weight="2.294406003E-315"/>
				<Con from="1/63" weight="-2.938740035E-315"/>
				<Con from="1/64" weight="-6.75953695E-316"/>
			</Neuron>
			<Neuron id="2/9" bias="0.03543982516677544">
				<Con from="1/1" weight="0.5215998727449298"/>
				<Con from="1/2" weight="0.1649240621010935"/>
				<Con from="1/3" weight="0.3615426980125196"/>
				<Con from="1/4" weight="3.322439894E-315"/>
				<Con from="1/5" weight="0.3787084611887972"/>
				<Con from="1/6" weight="0.4588795465757975"/>
				<Con from="1/7" weight="0.12389979329444736"/>
				<Con from="1/8" weight="0.2743405584475065"/>
				<Con from="1/9" weight="8.635252741228716E-8"/>
				<Con from="1/10" weight="4.061585570435826E-5"/>
				<Con from="1/11" weight="-2.340108123E-315"/>
				<Con from="1/12" weight="0.24340771376212908"/>
				<Con from="1/13" weight="0.4461036496377082"/>
				<Con from="1/14" weight="3.357098525E-315"/>
				<Con from="1/15" weight="2.64101964E-315"/>
				<Con from="1/16" weight="-3.65431294E-315"/>
				<Con from="1/17" weight="0.3263508158650031"/>
				<Con from="1/18" weight="0.2303253165024498"/>
				<Con from="1/19" weight="5.4576505E-316"/>
				<Con from="1/20" weight="4.26289483E-316"/>
				<Con from="1/21" weight="-3.614168421004627"/>
				<Con from="1/22" weight="3.47976753E-315"/>
				<Con from="1/23" weight="-0.049897839330636004"/>
				<Con from="1/24" weight="1.92077684E-315"/>
				<Con from="1/25" weight="0.8675428065421302"/>
				<Con from="1/26" weight="0.3760400217663194"/>
				<Con from="1/27" weight="0.6306599444687354"/>
				<Con from="1/28" weight="9.5065073E-316"/>
				<Con from="1/29" weight="0.5071888734132961"/>
				<Con from="1/30" weight="0.37108049799599807"/>
				<Con from="1/31" weight="0.46450847650772703"/>
				<Con from="1/32" weight="0.5061832653629499"/>
				<Con from="1/33" weight="-1.020534743734801"/>
				<Con from="1/34" weight="3.138946665E-315"/>
				<Con from="1/35" weight="1.022936787557256"/>
				<Con from="1/36" weight="0.6518891943725666"/>
				<Con from="1/37" weight="9.0418044E-316"/>
				<Con from="1/38" weight="0.22117542334888157"/>
				<Con from="1/39" weight="0.22733088326418074"/>
				<Con from="1/40" weight="0.5167934785557255"/>
				<Con from="1/41" weight="6.7662524E-316"/>
				<Con from="1/42" weight="-0.8256553594770175"/>
				<Con from="1/43" weight="2.83546283E-315"/>
				<Con from="1/44" weight="0.4221001290411522"/>
				<Con from="1/45" weight="0.5406168392472147"/>
				<Con from="1/46" weight="1.01941671E-315"/>
				<Con from="1/47" weight="0.5804036374846634"/>
				<Con from="1/48" weight="0.39149267058388604"/>
				<Con from="1/49" weight="0.6557822138641332"/>
				<Con from="1/50" weight="-1.7434626245781382"/>
				<Con from="1/51" weight="0.6157389859073557"/>
				<Con from="1/52" weight="-6.886225E-317"/>
				<Con from="1/53" weight="1.01099948E-315"/>
				<Con from="1/54" weight="0.5731940908111067"/>
				<Con from="1/55" weight="0.7737791180076904"/>
				<Con from="1/56" weight="0.5624269581668183"/>
				<Con from="1/57" weight="0.4513376866294447"/>
				<Con from="1/58" weight="-1.244946365611985"/>
				<Con from="1/59" weight="0.45025826805952257"/>
				<Con from="1/60" weight="-9.485226E-317"/>
				<Con from="1/61" weight="9.69442606E-316"/>
				<Con from="1/62" weight="0.6733743139393579"/>
				<Con from="1/63" weight="0.3203905125219534"/>
				<Con from="1/64" weight="0.6059050903293871"/>
			</Neuron>
			<Neuron id="2/10" bias="0.038435311454944776">
				<Con from="1/1" weight="0.740736744738834"/>
				<Con from="1/2" weight="0.434524829347214"/>
				<Con from="1/3" weight="0.6113800432710156"/>
				<Con from="1/4" weight="1.585815285E-315"/>
				<Con from="1/5" weight="0.29475163294468815"/>
				<Con from="1/6" weight="0.4884013384710832"/>
				<Con from="1/7" weight="-0.06490074821559029"/>
				<Con from="1/8" weight="0.39750717754864595"/>
				<Con from="1/9" weight="9.584506106883928E-13"/>
				<Con from="1/10" weight="-3.2774287531411726E-6"/>
				<Con from="1/11" weight="-5.90920116E-316"/>
				<Con from="1/12" weight="0.6001427310847455"/>
				<Con from="1/13" weight="0.7143832724941951"/>
				<Con from="1/14" weight="-2.181542067E-315"/>
				<Con from="1/15" weight="-3.6382299E-315"/>
				<Con from="1/16" weight="3.112106914E-315"/>
				<Con from="1/17" weight="0.5858755552255545"/>
				<Con from="1/18" weight="0.6982929270367199"/>
				<Con from="1/19" weight="1.898477224E-315"/>
				<Con from="1/20" weight="2.824929617E-315"/>
				<Con from="1/21" weight="-3.626027875899286"/>
				<Con from="1/22" weight="-3.986148157E-315"/>
				<Con from="1/23" weight="-0.049644763214291114"/>
				<Con from="1/24" weight="2.3978597E-315"/>
				<Con from="1/25" weight="0.570530924740237"/>
				<Con from="1/26" weight="0.5315637580683813"/>
				<Con from="1/27" weight="0.7583572356587623"/>
				<Con from="1/28" weight="3.83190322E-315"/>
				<Con from="1/29" weight="0.541400314430762"/>
				<Con from="1/30" weight="0.3435726080554425"/>
				<Con from="1/31" weight="0.6251054614970912"/>
				<Con from="1/32" weight="0.3629050609132501"/>
				<Con from="1/33" weight="-0.9639502779619141"/>
				<Con from="1/34" weight="-3.11420195E-315"/>
				<Con from="1/35" weight="0.6818311855219091"/>
				<Con from="1/36" weight="0.20333945367941947"/>
				<Con from="1/37" weight="-3.07146706E-315"/>
				<Con from="1/38" weight="0.5518999822686967"/>
				<Con from="1/39" weight="0.40329178248302294"/>
				<Con from="1/40" weight="0.687984121278148"/>
				<Con from="1/41" weight="-2.70820304E-315"/>
				<Con from="1/42" weight="-0.9722112735198061"/>
				<Con from="1/43" weight="2.91453417E-315"/>
				<Con from="1/44" weight="0.44737639191018846"/>
				<Con from="1/45" weight="0.4530815935356415"/>
				<Con from="1/46" weight="1.027856976E-315"/>
				<Con from="1/47" weight="0.5807612937571183"/>
				<Con from="1/48" weight="0.19969928809697748"/>
				<Con from="1/49" weight="0.3896661780922222"/>
				<Con from="1/50" weight="-1.6196021834556307"/>
				<Con from="1/51" weight="0.40073375575948444"/>
				<Con from="1/52" weight="2.35858115E-315"/>
				<Con from="1/53" weight="-4.3745437E-316"/>
				<Con from="1/54" weight="0.37550736855031197"/>
				<Con from="1/55" weight="0.6440259802045376"/>
				<Con from="1/56" weight="0.6399462514236416"/>
				<Con from="1/57" weight="0.6192110631181093"/>
				<Con from="1/58" weight="-1.522115296810543"/>
				<Con from="1/59" weight="0.23173905770299066"/>
				<Con from="1/60" weight="-5.004269E-316"/>
				<Con from="1/61" weight="2.26606425E-316"/>
				<Con from="1/62" weight="0.5571694404113195"/>
				<Con from="1/63" weight="0.5829778591391944"/>
				<Con from="1/64" weight="0.36212420643920135"/>
			</Neuron>
			<Neuron id="2/11" bias="0.30298483202670373">
				<Con from="1/1" weight="0.5633198019562146"/>
				<Con from="1/2" weight="0.45923242719100366"/>
				<Con from="1/3" weight="0.47300748577070106"/>
				<Con from="1/4" weight="-1.74610466E-315"/>
				<Con from="1/5" weight="0.7122625493027374"/>
				<Con from="1/6" weight="0.7291629049807827"/>
				<Con from="1/7" weight="-0.10599475935448743"/>
				<Con from="1/8" weight="0.7157732579788965"/>
				<Con from="1/9" weight="-6.720369757725062E-28"/>
				<Con from="1/10" weight="-8.201895963298168E-12"/>
				<Con from="1/11" weight="-1.41581097E-315"/>
				<Con from="1/12" weight="0.4202610113559541"/>
				<Con from="1/13" weight="0.7678460106765284"/>
				<Con from="1/14" weight="-3.087108734E-315"/>
				<Con from="1/15" weight="-1.678978976E-315"/>
				<Con from="1/16" weight="1.028653504E-315"/>
				<Con from="1/17" weight="0.6464475261111399"/>
				<Con from="1/18" weight="0.3650250203062365"/>
				<Con from="1/19" weight="-3.304250422E-315"/>
				<Con from="1/20" weight="8.2078717E-316"/>
				<Con from="1/21" weight="-3.5664238866098383"/>
				<Con from="1/22" weight="-3.5006137E-317"/>
				<Con from="1/23" weight="9.459213415616071E-4"/>
				<Con from="1/24" weight="2.56953525E-315"/>
				<Con from="1/25" weight="0.6904101171163535"/>
				<Con from="1/26" weight="0.3014314313627058"/>
				<Con from="1/27" weight="0.7121252116870779"/>
				<Con from="1/28" weight="-1.094020864E-315"/>
				<Con from="1/29" weight="0.774912984729028"/>
				<Con from="1/30" weight="0.7471888724180206"/>
				<Con from="1/31" weight="0.5457465479537629"/>
				<Con from="1/32" weight="0.6699831295190656"/>
				<Con from="1/33" weight="-0.6261230359408309"/>
				<Con from="1/34" weight="-5.04926266E-316"/>
				<Con from="1/35" weight="0.9320636946045655"/>
				<Con from="1/36" weight="0.3449641815708605"/>
				<Con from="1/37" weight="-2.23448672E-315"/>
				<Con from="1/38" weight="0.5912085053464929"/>
				<Con from="1/39" weight="0.6710897631072216"/>
				<Con from="1/40" weight="0.5747902824157272"/>
				<Con from="1/41" weight="3.6526693E-315"/>
				<Con from="1/42" weight="-0.49635929379639687"/>
				<Con from="1/43" weight="-1.36811663E-315"/>
				<Con from="1/44" weight="0.5334500172931352"/>
				<Con from="1/45" weight="0.3737382892116902"/>
				<Con from="1/46" weight="-1.933863846E-315"/>
				<Con from="1/47" weight="0.2402001853840123"/>
				<Con from="1/48" weight="0.3931943252443457"/>
				<Con from="1/49" weight="0.7076816431210369"/>
				<Con from="1/50" weight="-1.4479314609521443"/>
				<Con from="1/51" weight="0.7703150828549827"/>
				<Con from="1/52" weight="-4.57159283E-316"/>
				<Con from="1/53" weight="1.311508917E-315"/>
				<Con from="1/54" weight="0.6454617441774279"/>
				<Con from="1/55" weight="0.9225386528941169"/>
				<Con from="1/56" weight="0.33790789642156543"/>
				<Con from="1/57" weight="0.6856332771776268"/>
				<Con from="1/58" weight="-1.2424511995801912"/>
				<Con from="1/59" weight="0.3106612683038882"/>
				<Con from="1/60" weight="-2.42960748E-315"/>
				<Con from="1/61" weight="-3.59290489E-315"/>
				<Con from="1/62" weight="0.6274476481120473"/>
				<Con from="1/63" weight="0.47091561622439093"/>
				<Con from="1/64" weight="0.5692954644915772"/>
			</Neuron>
			<Neuron id="2/12" bias="0.3358852040797556">
				<Con from="1/1" weight="0.8017788894834562"/>
				<Con from="1/2" weight="0.5981870406758997"/>
				<Con from="1/3" weight="0.41589539690700655"/>
				<Con from="1/4" weight="1.352082887E-315"/>
				<Con from="1/5" weight="0.5890404480834786"/>
				<Con from="1/6" weight="0.4065871036101082"/>
				<Con from="1/7" weight="-0.12119026555234187"/>
				<Con from="1/8" weight="0.6144438031787125"/>
				<Con from="1/9" weight="4.26784240395664E-9"/>
				<Con from="1/10" weight="1.1346011218835966E-4"/>
				<Con from="1/11" weight="1.6030449E-316"/>
				<Con from="1/12" weight="0.40870505044379574"/>
				<Con from="1/13" weight="0.65244031212495"/>
				<Con from="1/14" weight="9.0282896E-316"/>
				<Con from="1/15" weight="1.22084196E-315"/>
				<Con from="1/16" weight="9.3272171E-316"/>
				<Con from="1/17" weight="0.3401910852405881"/>
				<Con from="1/18" weight="0.5355343015452647"/>
				<Con from="1/19" weight="1.80214178E-315"/>
				<Con from="1/20" weight="-1.4921649E-315"/>
				<Con from="1/21" weight="-3.4738289442466184"/>
				<Con from="1/22" weight="-1.825903437E-315"/>
				<Con from="1/23" weight="-0.026711290568533635"/>
				<Con from="1/24" weight="2.1788246E-317"/>
				<Con from="1/25" weight="0.828308408212867"/>
				<Con from="1/26" weight="0.6364962228880366"/>
				<Con from="1/27" weight="0.5536874821033045"/>
				<Con from="1/28" weight="1.068189155E-315"/>
				<Con from="1/29" weight="0.544053000886761"/>
				<Con from="1/30" weight="0.3564356231636486"/>
				<Con from="1/31" weight="0.6829242830513056"/>
				<Con from="1/32" weight="0.26659606869240554"/>
				<Con from="1/33" weight="-0.3245754996735951"/>
				<Con from="1/34" weight="2.877189006E-315"/>
				<Con from="1/35" weight="0.6119970649589651"/>
				<Con from="1/36" weight="0.18720511861987432"/>
				<Con from="1/37" weight="-3.268163156E-315"/>
				<Con from="1/38" weight="0.4857309866292528"/>
				<Con from="1/39" weight="0.47455110154979796"/>
				<Con from="1/40" weight="0.5647671192929468"/>
				<Con from="1/41" weight="-3.067086E-315"/>
				<Con from="1/42" weight="-0.6254037993896713"/>
				<Con from="1/43" weight="-3.324955567E-315"/>
				<Con from="1/44" weight="0.6232350918808238"/>
				<Con from="1/45" weight="0.28498839493254874"/>
				<Con from="1/46" weight="1.15089392E-315"/>
				<Con from="1/47" weight="0.2250944348167227"/>
				<Con from="1/48" weight="0.5483331220652962"/>
				<Con from="1/49" weight="0.6145585257473043"/>
				<Con from="1/50" weight="-1.6218123774855282"/>
				<Con from="1/51" weight="0.6379107512906649"/>
				<Con from="1/52" weight="-1.165511086E-315"/>
				<Con from="1/53" weight="1.96388994E-316"/>
				<Con from="1/54" weight="0.6618115373573802"/>
				<Con from="1/55" weight="0.5811145801386769"/>
				<Con from="1/56" weight="0.3249069050534123"/>
				<Con from="1/57" weight="0.5517933327876021"/>
				<Con from="1/58" weight="-1.5931538825427176"/>
				<Con from="1/59" weight="0.6511360929596153"/>
				<Con from="1/60" weight="-2.258626945E-315"/>
				<Con from="1/61" weight="-1.074883305E-315"/>
				<Con from="1/62" weight="0.4111788617446016"/>
				<Con from="1/63" weight="0.5789495502686333"/>
				<Con from="1/64" weight="0.21074167081554815"/>
			</Neuron>
			<Neuron id="2/13" bias="-0.05354898697227374">
				<Con from="1/1" weight="0.06208251962046428"/>
				<Con from="1/2" weight="-0.10414392003875964"/>
				<Con from="1/3" weight="-0.1132579495455828"/>
				<Con from="1/4" weight="-3.720350726E-315"/>
				<Con from="1/5" weight="0.1194332373870726"/>
				<Con from="1/6" weight="-0.20362618258643167"/>
				<Con from="1/7" weight="-0.19074408893689793"/>
				<Con from="1/8" weight="-0.1582139711281809"/>
				<Con from="1/9" weight="1.178623336E-315"/>
				<Con from="1/10" weight="5.3547904603591425E-6"/>
				<Con from="1/11" weight="3.439526634E-315"/>
				<Con from="1/12" weight="0.1647339840183348"/>
				<Con from="1/13" weight="0.036376151029909994"/>
				<Con from="1/14" weight="-2.92354826E-315"/>
				<Con from="1/15" weight="3.835783196E-315"/>
				<Con from="1/16" weight="-3.83932257E-316"/>
				<Con from="1/17" weight="-0.12742009971139207"/>
				<Con from="1/18" weight="-0.08482368844386974"/>
				<Con from="1/19" weight="-1.682327585E-315"/>
				<Con from="1/20" weight="-3.385431223E-315"/>
				<Con from="1/21" weight="9.68109355E-316"/>
				<Con from="1/22" weight="2.481205356E-315"/>
				<Con from="1/23" weight="-0.12815150753600502"/>
				<Con from="1/24" weight="1.325887176E-315"/>
				<Con from="1/25" weight="-0.014262267903521107"/>
				<Con from="1/26" weight="0.1822588654010311"/>
				<Con from="1/27" weight="0.16232406479455327"/>
				<Con from="1/28" weight="4.74656727E-316"/>
				<Con from="1/29" weight="0.002025042461988231"/>
				<Con from="1/30" weight="0.14363367290468954"/>
				<Con from="1/31" weight="0.07314396168656663"/>
				<Con from="1/32" weight="0.18988564298030125"/>
				<Con from="1/33" weight="-0.008329510951675681"/>
				<Con from="1/34" weight="7.90126866E-316"/>
				<Con from="1/35" weight="-0.0032892482046372527"/>
				<Con from="1/36" weight="0.0166641260332934"/>
				<Con from="1/37" weight="-1.678367753E-315"/>
				<Con from="1/38" weight="-0.15566915953860674"/>
				<Con from="1/39" weight="-0.007545848517373438"/>
				<Con from="1/40" weight="-0.1736349092085189"/>
				<Con from="1/41" weight="1.550741085E-315"/>
				<Con from="1/42" weight="0.02740201807552702"/>
				<Con from="1/43" weight="3.97192888E-315"/>
				<Con from="1/44" weight="0.13515549448529537"/>
				<Con from="1/45" weight="-0.08125841522620778"/>
				<Con from="1/46" weight="-7.16745034E-316"/>
				<Con from="1/47" weight="-0.19950505377903624"/>
				<Con from="1/48" weight="0.00171084405969557"/>
				<Con from="1/49" weight="-0.01792555955969788"/>
				<Con from="1/50" weight="1.378173017E-315"/>
				<Con from="1/51" weight="0.1659795032425923"/>
				<Con from="1/52" weight="6.2457431E-316"/>
				<Con from="1/53" weight="-1.88453435E-315"/>
				<Con from="1/54" weight="-0.1671386580587828"/>
				<Con from="1/55" weight="0.14093027423305796"/>
				<Con from="1/56" weight="-0.20760924835896466"/>
				<Con from="1/57" weight="0.10196988922429336"/>
				<Con from="1/58" weight="6.736681656218383E-4"/>
				<Con from="1/59" weight="0.04216603623464652"/>
				<Con from="1/60" weight="1.222527986E-315"/>
				<Con from="1/61" weight="-2.13552112E-315"/>
				<Con from="1/62" weight="0.002757753446575144"/>
				<Con from="1/63" weight="0.0871275874630281"/>
				<Con from="1/64" weight="-0.03608570974419914"/>
			</Neuron>
			<Neuron id="2/14" bias="-0.09883337532425313">
				<Con from="1/1" weight="-2.72082637E-315"/>
				<Con from="1/2" weight="-3.7641453E-315"/>
				<Con from="1/3" weight="6.23629184E-316"/>
				<Con from="1/4" weight="2.50682634E-315"/>
				<Con from="1/5" weight="-6.4311202E-316"/>
				<Con from="1/6" weight="6.045986E-317"/>
				<Con from="1/7" weight="1.063848423E-315"/>
				<Con from="1/8" weight="-2.77156425E-315"/>
				<Con from="1/9" weight="2.97928116E-316"/>
				<Con from="1/10" weight="2.835305984E-315"/>
				<Con from="1/11" weight="-7.75736E-318"/>
				<Con from="1/12" weight="-2.35707197E-315"/>
				<Con from="1/13" weight="3.377825646E-315"/>
				<Con from="1/14" weight="-1.103416747E-315"/>
				<Con from="1/15" weight="-2.608679683E-315"/>
				<Con from="1/16" weight="-3.79102533E-316"/>
				<Con from="1/17" weight="-7.6925497E-316"/>
				<Con from="1/18" weight="5.92010613E-316"/>
				<Con from="1/19" weight="-2.515760737E-315"/>
				<Con from="1/20" weight="-1.8732139E-316"/>
				<Con from="1/21" weight="2.46287922E-315"/>
				<Con from="1/22" weight="1.555839784E-315"/>
				<Con from="1/23" weight="2.52703214E-316"/>
				<Con from="1/24" weight="-4.37945253E-316"/>
				<Con from="1/25" weight="-1.38709844E-316"/>
				<Con from="1/26" weight="8.686956E-317"/>
				<Con from="1/27" weight="1.318417313E-315"/>
				<Con from="1/28" weight="-4.0611302E-316"/>
				<Con from="1/29" weight="-5.91375397E-316"/>
				<Con from="1/30" weight="2.41476107E-315"/>
				<Con from="1/31" weight="3.540232677E-315"/>
				<Con from="1/32" weight="5.81872396E-316"/>
				<Con from="1/33" weight="-2.817027843E-315"/>
				<Con from="1/34" weight="3.7099498E-315"/>
				<Con from="1/35" weight="-3.176996434E-315"/>
				<Con from="1/36" weight="-7.4422136E-317"/>
				<Con from="1/37" weight="3.33426449E-315"/>
				<Con from="1/38" weight="3.976012134E-315"/>
				<Con from="1/39" weight="-3.36597449E-315"/>
				<Con from="1/40" weight="3.28710551E-315"/>
				<Con from="1/41" weight="-7.8799643E-316"/>
				<Con from="1/42" weight="1.49622444E-315"/>
				<Con from="1/43" weight="-1.0503487E-315"/>
				<Con from="1/44" weight="1.83019468E-315"/>
				<Con from="1/45" weight="-1.841467014E-315"/>
				<Con from="1/46" weight="3.05713134E-315"/>
				<Con from="1/47" weight="1.723771303E-315"/>
				<Con from="1/48" weight="2.32510563E-315"/>
				<Con from="1/49" weight="6.7792561E-316"/>
				<Con from="1/50" weight="9.02485254E-316"/>
				<Con from="1/51" weight="-2.52538784E-316"/>
				<Con from="1/52" weight="3.82734999E-315"/>
				<Con from="1/53" weight="4.56817656E-316"/>
				<Con from="1/54" weight="-2.580636556E-315"/>
				<Con from="1/55" weight="-7.9017489E-316"/>
				<Con from="1/56" weight="-1.77464411E-315"/>
				<Con from="1/57" weight="-3.172323467E-315"/>
				<Con from="1/58" weight="1.029631536E-315"/>
				<Con from="1/59" weight="3.55811501E-315"/>
				<Con from="1/60" weight="-3.234841487E-315"/>
				<Con from="1/61" weight="1.67720183E-316"/>
				<Con from="1/62" weight="3.18144154E-315"/>
				<Con from="1/63" weight="-2.991533005E-315"/>
				<Con from="1/64" weight="5.44565696E-316"/>
			</Neuron>
			<Neuron id="2/15" bias="-0.12033255134145276">
				<Con from="1/1" weight="3.63670197E-315"/>
				<Con from="1/2" weight="3.10461046E-315"/>
				<Con from="1/3" weight="9.414884E-317"/>
				<Con from="1/4" weight="2.735622805E-315"/>
				<Con from="1/5" weight="-2.30526004E-315"/>
				<Con from="1/6" weight="3.488630084E-315"/>
				<Con from="1/7" weight="1.28526337E-315"/>
				<Con from="1/8" weight="1.4232842E-316"/>
				<Con from="1/9" weight="-6.80782737E-316"/>
				<Con from="1/10" weight="1.62418255E-315"/>
				<Con from="1/11" weight="-2.862460736E-315"/>
				<Con from="1/12" weight="-3.657432296E-315"/>
				<Con from="1/13" weight="-5.4685196E-316"/>
				<Con from="1/14" weight="4.7079279E-316"/>
				<Con from="1/15" weight="3.889374654E-315"/>
				<Con from="1/16" weight="3.8291035E-316"/>
				<Con from="1/17" weight="-7.85540983E-316"/>
				<Con from="1/18" weight="1.212798756E-315"/>
				<Con from="1/19" weight="-2.05590606E-316"/>
				<Con from="1/20" weight="3.91184484E-316"/>
				<Con from="1/21" weight="-6.74404295E-316"/>
				<Con from="1/22" weight="6.330316E-317"/>
				<Con from="1/23" weight="2.592914567E-315"/>
				<Con from="1/24" weight="-2.75435832E-315"/>
				<Con from="1/25" weight="3.24402847E-315"/>
				<Con from="1/26" weight="1.775834953E-315"/>
				<Con from="1/27" weight="1.02021374E-316"/>
				<Con from="1/28" weight="3.85245375E-316"/>
				<Con from="1/29" weight="-9.8758761E-316"/>
				<Con from="1/30" weight="3.668962E-316"/>
				<Con from="1/31" weight="-2.912585993E-315"/>
				<Con from="1/32" weight="1.47490408E-315"/>
				<Con from="1/33" weight="-1.34446862E-315"/>
				<Con from="1/34" weight="-9.933423E-317"/>
				<Con from="1/35" weight="-7.3294864E-316"/>
				<Con from="1/36" weight="-2.129266794E-315"/>
				<Con from="1/37" weight="3.620428617E-315"/>
				<Con from="1/38" weight="-2.31947E-315"/>
				<Con from="1/39" weight="5.4860871E-316"/>
				<Con from="1/40" weight="-8.2753336E-316"/>
				<Con from="1/41" weight="-2.35549962E-315"/>
				<Con from="1/42" weight="1.100344637E-315"/>
				<Con from="1/43" weight="-2.969184434E-315"/>
				<Con from="1/44" weight="2.349447065E-315"/>
				<Con from="1/45" weight="-2.865210794E-315"/>
				<Con from="1/46" weight="2.37276395E-316"/>
				<Con from="1/47" weight="-2.9624092E-316"/>
				<Con from="1/48" weight="4.4449885E-316"/>
				<Con from="1/49" weight="2.348017946E-315"/>
				<Con from="1/50" weight="4.88089917E-316"/>
				<Con from="1/51" weight="-1.916721547E-315"/>
				<Con from="1/52" weight="9.33578416E-316"/>
				<Con from="1/53" weight="-3.34914661E-315"/>
				<Con from="1/54" weight="1.2388074E-315"/>
				<Con from="1/55" weight="3.52299509E-315"/>
				<Con from="1/56" weight="3.34031874E-315"/>
				<Con from="1/57" weight="2.33807489E-315"/>
				<Con from="1/58" weight="2.27424669E-315"/>
				<Con from="1/59" weight="2.285541596E-315"/>
				<Con from="1/60" weight="-3.6867786E-316"/>
				<Con from="1/61" weight="3.505333367E-315"/>
				<Con from="1/62" weight="2.9837494E-315"/>
				<Con from="1/63" weight="-3.119841285E-315"/>
				<Con from="1/64" weight="-4.74471857E-316"/>
			</Neuron>
			<Neuron id="2/16" bias="-0.11958826963799307">
				<Con from="1/1" weight="0.7019126056678249"/>
				<Con from="1/2" weight="0.5359457847948689"/>
				<Con from="1/3" weight="0.7121578616446451"/>
				<Con from="1/4" weight="1.54698125E-315"/>
				<Con from="1/5" weight="0.24533912279838968"/>
				<Con from="1/6" weight="0.513777274977009"/>
				<Con from="1/7" weight="0.12602965981306014"/>
				<Con from="1/8" weight="0.5020220623951627"/>
				<Con from="1/9" weight="-1.1818718356007453E-9"/>
				<Con from="1/10" weight="-2.1325358091360143E-5"/>
				<Con from="1/11" weight="-5.2469205E-316"/>
				<Con from="1/12" weight="0.615414801531279"/>
				<Con from="1/13" weight="0.5172295805439504"/>
				<Con from="1/14" weight="1.28177516E-316"/>
				<Con from="1/15" weight="-2.33664686E-315"/>
				<Con from="1/16" weight="-2.1299107E-316"/>
				<Con from="1/17" weight="0.27396167787148995"/>
				<Con from="1/18" weight="0.6625292805146001"/>
				<Con from="1/19" weight="3.735526525E-315"/>
				<Con from="1/20" weight="-1.92407974E-315"/>
				<Con from="1/21" weight="-3.58179380648189"/>
				<Con from="1/22" weight="1.739060763E-315"/>
				<Con from="1/23" weight="0.1159887442208068"/>
				<Con from="1/24" weight="1.2260732E-315"/>
				<Con from="1/25" weight="0.7350571192154363"/>
				<Con from="1/26" weight="0.28201100372092935"/>
				<Con from="1/27" weight="0.5746116577402798"/>
				<Con from="1/28" weight="-1.13479748E-315"/>
				<Con from="1/29" weight="0.594478275834489"/>
				<Con from="1/30" weight="0.6638473736477457"/>
				<Con from="1/31" weight="0.5292409398032913"/>
				<Con from="1/32" weight="0.2472116517889942"/>
				<Con from="1/33" weight="-1.0024362961733677"/>
				<Con from="1/34" weight="3.2352785E-316"/>
				<Con from="1/35" weight="0.9657288300777706"/>
				<Con from="1/36" weight="0.653888240023272"/>
				<Con from="1/37" weight="2.359251353E-315"/>
				<Con from="1/38" weight="0.4734117960119548"/>
				<Con from="1/39" weight="0.47146226873687985"/>
				<Con from="1/40" weight="0.6621238108833907"/>
				<Con from="1/41" weight="3.106664124E-315"/>
				<Con from="1/42" weight="-1.0112750116542257"/>
				<Con from="1/43" weight="3.80748901E-315"/>
				<Con from="1/44" weight="0.40347970666532135"/>
				<Con from="1/45" weight="0.18335812537091334"/>
				<Con from="1/46" weight="1.214487324E-315"/>
				<Con from="1/47" weight="0.2193449941734965"/>
				<Con from="1/48" weight="0.12638052822288878"/>
				<Con from="1/49" weight="0.7498472503458646"/>
				<Con from="1/50" weight="-1.6367714849121082"/>
				<Con from="1/51" weight="0.4641412569745173"/>
				<Con from="1/52" weight="-1.67713844E-315"/>
				<Con from="1/53" weight="-1.429867594E-315"/>
				<Con from="1/54" weight="0.5774346930674737"/>
				<Con from="1/55" weight="0.4666696101209725"/>
				<Con from="1/56" weight="0.5925309264533661"/>
				<Con from="1/57" weight="0.6017505418806968"/>
				<Con from="1/58" weight="-1.536971144929553"/>
				<Con from="1/59" weight="0.4603084847160031"/>
				<Con from="1/60" weight="4.9898734E-316"/>
				<Con from="1/61" weight="-1.564286E-318"/>
				<Con from="1/62" weight="0.6683232179789929"/>
				<Con from="1/63" weight="0.39948624973357827"/>
				<Con from="1/64" weight="0.6154072168521574"/>
			</Neuron>
			<Neuron id="2/17" bias="-0.23733315976728997">
				<Con from="1/1" weight="-0.007622221545507278"/>
				<Con from="1/2" weight="0.007568998844527307"/>
				<Con from="1/3" weight="1.0378187947475987E-5"/>
				<Con from="1/4" weight="1.086451724E-315"/>
				<Con from="1/5" weight="-0.015531740550234452"/>
				<Con from="1/6" weight="0.016159925699749896"/>
				<Con from="1/7" weight="-3.019675619016985E-7"/>
				<Con from="1/8" weight="0.0024086554724097936"/>
				<Con from="1/9" weight="3.53420517E-316"/>
				<Con from="1/10" weight="-2.648911063E-315"/>
				<Con from="1/11" weight="2.405958966E-315"/>
				<Con from="1/12" weight="0.01179232707914391"/>
				<Con from="1/13" weight="-0.04396202662193562"/>
				<Con from="1/14" weight="-2.752080947E-315"/>
				<Con from="1/15" weight="1.003690847E-315"/>
				<Con from="1/16" weight="2.92070099E-315"/>
				<Con from="1/17" weight="0.003076530970703723"/>
				<Con from="1/18" weight="-0.004428305194210213"/>
				<Con from="1/19" weight="-1.86991872E-315"/>
				<Con from="1/20" weight="-3.22266484E-315"/>
				<Con from="1/21" weight="2.2749204E-316"/>
				<Con from="1/22" weight="-1.48909959E-315"/>
				<Con from="1/23" weight="-2.364539926E-315"/>
				<Con from="1/24" weight="-3.569006976E-315"/>
				<Con from="1/25" weight="2.744769927E-315"/>
				<Con from="1/26" weight="0.01849426276429909"/>
				<Con from="1/27" weight="-1.786549675112302E-5"/>
				<Con from="1/28" weight="2.55704381E-315"/>
				<Con from="1/29" weight="-0.0011756542091691884"/>
				<Con from="1/30" weight="0.0035708749131009624"/>
				<Con from="1/31" weight="0.0162563657456613"/>
				<Con from="1/32" weight="-0.002224534770271562"/>
				<Con from="1/33" weight="-2.276913806E-315"/>
				<Con from="1/34" weight="-5.5922502E-316"/>
				<Con from="1/35" weight="3.9618596708420284E-60"/>
				<Con from="1/36" weight="-0.030185165753032834"/>
				<Con from="1/37" weight="4.70587557E-316"/>
				<Con from="1/38" weight="0.04102461078447376"/>
				<Con from="1/39" weight="0.025565961573606827"/>
				<Con from="1/40" weight="0.00926848901538614"/>
				<Con from="1/41" weight="-3.337236473E-315"/>
				<Con from="1/42" weight="2.6288418E-316"/>
				<Con from="1/43" weight="-1.580537355E-315"/>
				<Con from="1/44" weight="0.008951868033822988"/>
				<Con from="1/45" weight="-0.012080968477699596"/>
				<Con from="1/46" weight="1.28985506E-315"/>
				<Con from="1/47" weight="-0.0040491438991911675"/>
				<Con from="1/48" weight="0.005375245049264432"/>
				<Con from="1/49" weight="-0.034412569022468434"/>
				<Con from="1/50" weight="2.463606476E-315"/>
				<Con from="1/51" weight="-0.03947666194687682"/>
				<Con from="1/52" weight="3.64633849E-315"/>
				<Con from="1/53" weight="-3.8638956E-315"/>
				<Con from="1/54" weight="0.0014100536475517341"/>
				<Con from="1/55" weight="0.028752710237617364"/>
				<Con from="1/56" weight="0.013347723033908484"/>
				<Con from="1/57" weight="0.01052566926164287"/>
				<Con from="1/58" weight="2.75221415E-315"/>
				<Con from="1/59" weight="-0.0016828057570946625"/>
				<Con from="1/60" weight="-6.9249707E-316"/>
				<Con from="1/61" weight="-2.685169765E-315"/>
				<Con from="1/62" weight="0.001196903149800552"/>
				<Con from="1/63" weight="-0.014994232309363595"/>
				<Con from="1/64" weight="-0.018206061959266336"/>
			</Neuron>
			<Neuron id="2/18" bias="-0.07877601058264333">
				<Con from="1/1" weight="-1.91627991E-315"/>
				<Con from="1/2" weight="3.82681204E-316"/>
				<Con from="1/3" weight="2.11746218E-315"/>
				<Con from="1/4" weight="1.1887691E-315"/>
				<Con from="1/5" weight="-8.1686143E-316"/>
				<Con from="1/6" weight="-2.68813089E-315"/>
				<Con from="1/7" weight="-3.002303675E-315"/>
				<Con from="1/8" weight="-3.74093064E-316"/>
				<Con from="1/9" weight="-2.06504035E-315"/>
				<Con from="1/10" weight="1.43885623E-315"/>
				<Con from="1/11" weight="-7.425938E-317"/>
				<Con from="1/12" weight="2.730331427E-315"/>
				<Con from="1/13" weight="-2.97216219E-315"/>
				<Con from="1/14" weight="-3.87535539E-315"/>
				<Con from="1/15" weight="-1.09625253E-315"/>
				<Con from="1/16" weight="2.748471753E-315"/>
				<Con from="1/17" weight="1.448758545E-315"/>
				<Con from="1/18" weight="3.319960337E-315"/>
				<Con from="1/19" weight="-3.729709E-315"/>
				<Con from="1/20" weight="1.71915388E-315"/>
				<Con from="1/21" weight="2.779491304E-315"/>
				<Con from="1/22" weight="2.182074106E-315"/>
				<Con from="1/23" weight="-2.00828561E-315"/>
				<Con from="1/24" weight="2.845389E-316"/>
				<Con from="1/25" weight="1.0665247E-315"/>
				<Con from="1/26" weight="1.730166657E-315"/>
				<Con from="1/27" weight="-2.13805846E-316"/>
				<Con from="1/28" weight="-7.312638E-317"/>
				<Con from="1/29" weight="-2.19988144E-316"/>
				<Con from="1/30" weight="-1.03206453E-315"/>
				<Con from="1/31" weight="-3.521895633E-315"/>
				<Con from="1/32" weight="-3.6103844E-316"/>
				<Con from="1/33" weight="-2.6912804E-316"/>
				<Con from="1/34" weight="2.228910927E-315"/>
				<Con from="1/35" weight="5.8474097E-316"/>
				<Con from="1/36" weight="5.94961914E-316"/>
				<Con from="1/37" weight="2.244128455E-315"/>
				<Con from="1/38" weight="1.034097025E-315"/>
				<Con from="1/39" weight="-2.92222353E-315"/>
				<Con from="1/40" weight="-2.06981174E-315"/>
				<Con from="1/41" weight="-1.603728934E-315"/>
				<Con from="1/42" weight="-4.469281E-316"/>
				<Con from="1/43" weight="1.267597E-316"/>
				<Con from="1/44" weight="2.396854803E-315"/>
				<Con from="1/45" weight="1.70304432E-315"/>
				<Con from="1/46" weight="-1.02286529E-315"/>
				<Con from="1/47" weight="3.5921627E-316"/>
				<Con from="1/48" weight="8.9873525E-317"/>
				<Con from="1/49" weight="1.545744214E-315"/>
				<Con from="1/50" weight="1.06080089E-315"/>
				<Con from="1/51" weight="-2.97267399E-315"/>
				<Con from="1/52" weight="-5.43881494E-316"/>
				<Con from="1/53" weight="2.48547725E-315"/>
				<Con from="1/54" weight="3.202094895E-315"/>
				<Con from="1/55" weight="-1.0753073E-315"/>
				<Con from="1/56" weight="1.4126635E-316"/>
				<Con from="1/57" weight="-4.497071E-316"/>
				<Con from="1/58" weight="-9.63182884E-316"/>
				<Con from="1/59" weight="-2.320768224E-315"/>
				<Con from="1/60" weight="1.355250297E-315"/>
				<Con from="1/61" weight="-9.33908684E-316"/>
				<Con from="1/62" weight="9.41813705E-316"/>
				<Con from="1/63" weight="1.092506646E-315"/>
				<Con from="1/64" weight="-1.53277314E-315"/>
			</Neuron>
			<Neuron id="2/19" bias="-0.11487615393460837">
				<Con from="1/1" weight="-2.1002437E-316"/>
				<Con from="1/2" weight="3.488488026E-315"/>
				<Con from="1/3" weight="6.0348029E-316"/>
				<Con from="1/4" weight="-8.6891896E-316"/>
				<Con from="1/5" weight="-1.40944947E-315"/>
				<Con from="1/6" weight="1.20603643E-315"/>
				<Con from="1/7" weight="-8.435395E-317"/>
				<Con from="1/8" weight="1.03120932E-315"/>
				<Con from="1/9" weight="-2.12174362E-315"/>
				<Con from="1/10" weight="-2.405612566E-315"/>
				<Con from="1/11" weight="-5.09156076E-316"/>
				<Con from="1/12" weight="9.3301542E-316"/>
				<Con from="1/13" weight="1.42819961E-315"/>
				<Con from="1/14" weight="-2.59575574E-315"/>
				<Con from="1/15" weight="-5.3715418E-316"/>
				<Con from="1/16" weight="1.492370663E-315"/>
				<Con from="1/17" weight="-1.41795235E-316"/>
				<Con from="1/18" weight="1.21183913E-315"/>
				<Con from="1/19" weight="1.49833366E-316"/>
				<Con from="1/20" weight="-5.4558963E-317"/>
				<Con from="1/21" weight="3.4621216E-316"/>
				<Con from="1/22" weight="-2.515532563E-315"/>
				<Con from="1/23" weight="-6.9647493E-316"/>
				<Con from="1/24" weight="5.8519432E-317"/>
				<Con from="1/25" weight="3.706181743E-315"/>
				<Con from="1/26" weight="8.96961323E-316"/>
				<Con from="1/27" weight="1.422199364E-315"/>
				<Con from="1/28" weight="3.11609885E-315"/>
				<Con from="1/29" weight="2.579978767E-315"/>
				<Con from="1/30" weight="2.57653295E-315"/>
				<Con from="1/31" weight="-1.51550963E-315"/>
				<Con from="1/32" weight="1.98989832E-315"/>
				<Con from="1/33" weight="2.297156936E-315"/>
				<Con from="1/34" weight="-2.634547127E-315"/>
				<Con from="1/35" weight="2.69215975E-316"/>
				<Con from="1/36" weight="2.48843065E-316"/>
				<Con from="1/37" weight="2.01457336E-315"/>
				<Con from="1/38" weight="3.357712303E-315"/>
				<Con from="1/39" weight="1.638893207E-315"/>
				<Con from="1/40" weight="-6.941929E-316"/>
				<Con from="1/41" weight="-5.1963176E-316"/>
				<Con from="1/42" weight="-1.47855408E-315"/>
				<Con from="1/43" weight="1.489222783E-315"/>
				<Con from="1/44" weight="-3.8759638E-316"/>
				<Con from="1/45" weight="-1.128986176E-315"/>
				<Con from="1/46" weight="4.6550839E-316"/>
				<Con from="1/47" weight="-1.532768884E-315"/>
				<Con from="1/48" weight="1.11564671E-315"/>
				<Con from="1/49" weight="-1.16204824E-315"/>
				<Con from="1/50" weight="1.742535087E-315"/>
				<Con from="1/51" weight="-1.823336376E-315"/>
				<Con from="1/52" weight="-2.588214106E-315"/>
				<Con from="1/53" weight="7.54841873E-316"/>
				<Con from="1/54" weight="-4.1242982E-316"/>
				<Con from="1/55" weight="-2.68045074E-316"/>
				<Con from="1/56" weight="1.011067123E-315"/>
				<Con from="1/57" weight="-1.879507964E-315"/>
				<Con from="1/58" weight="-3.64046635E-315"/>
				<Con from="1/59" weight="2.689937563E-315"/>
				<Con from="1/60" weight="-1.93967301E-315"/>
				<Con from="1/61" weight="-2.68162126E-315"/>
				<Con from="1/62" weight="3.276493755E-315"/>
				<Con from="1/63" weight="1.79165456E-316"/>
				<Con from="1/64" weight="-2.12981675E-316"/>
			</Neuron>
			<Neuron id="2/20" bias="0.40084512504431946">
				<Con from="1/1" weight="0.06053441088655764"/>
				<Con from="1/2" weight="0.15355619882179813"/>
				<Con from="1/3" weight="-0.1412913626827324"/>
				<Con from="1/4" weight="-2.23031952E-315"/>
				<Con from="1/5" weight="0.4170021400378113"/>
				<Con from="1/6" weight="-0.24023506772694928"/>
				<Con from="1/7" weight="-0.05069201210184795"/>
				<Con from="1/8" weight="0.09223056543416287"/>
				<Con from="1/9" weight="3.41354217E-315"/>
				<Con from="1/10" weight="-7.12992660338376E-7"/>
				<Con from="1/11" weight="-2.0286674E-315"/>
				<Con from="1/12" weight="0.19324972236324786"/>
				<Con from="1/13" weight="-0.540271483972251"/>
				<Con from="1/14" weight="3.177466538E-315"/>
				<Con from="1/15" weight="2.314297847E-315"/>
				<Con from="1/16" weight="-1.6913085E-316"/>
				<Con from="1/17" weight="0.08295434264465554"/>
				<Con from="1/18" weight="0.29190820496645803"/>
				<Con from="1/19" weight="4.2554296E-316"/>
				<Con from="1/20" weight="-2.994221003E-315"/>
				<Con from="1/21" weight="2.758274080990148"/>
				<Con from="1/22" weight="-1.496887624E-315"/>
				<Con from="1/23" weight="0.05474258606570118"/>
				<Con from="1/24" weight="-3.504244293E-315"/>
				<Con from="1/25" weight="-2.561006382020587"/>
				<Con from="1/26" weight="-0.09835132698665526"/>
				<Con from="1/27" weight="-0.5225951998665552"/>
				<Con from="1/28" weight="6.8566794E-316"/>
				<Con from="1/29" weight="-2.6785310840362593"/>
				<Con from="1/30" weight="0.21290266799938615"/>
				<Con from="1/31" weight="0.00905687446736865"/>
				<Con from="1/32" weight="0.28418203678969134"/>
				<Con from="1/33" weight="0.6217356409439222"/>
				<Con from="1/34" weight="-6.225364E-317"/>
				<Con from="1/35" weight="-3.4871359846166867"/>
				<Con from="1/36" weight="-0.04068746248838114"/>
				<Con from="1/37" weight="-2.69590134E-315"/>
				<Con from="1/38" weight="0.0028273279262439827"/>
				<Con from="1/39" weight="0.27175935391058853"/>
				<Con from="1/40" weight="-0.05680654704657329"/>
				<Con from="1/41" weight="1.807071157E-315"/>
				<Con from="1/42" weight="0.6280762679243874"/>
				<Con from="1/43" weight="2.492115205E-315"/>
				<Con from="1/44" weight="0.0914921795565075"/>
				<Con from="1/45" weight="0.3659078464776539"/>
				<Con from="1/46" weight="1.0504323E-316"/>
				<Con from="1/47" weight="0.16208552901953358"/>
				<Con from="1/48" weight="0.10739469103211412"/>
				<Con from="1/49" weight="-0.7251918970813835"/>
				<Con from="1/50" weight="0.7214909717730699"/>
				<Con from="1/51" weight="-0.6021996181722473"/>
				<Con from="1/52" weight="-1.92989679E-315"/>
				<Con from="1/53" weight="1.8997002E-315"/>
				<Con from="1/54" weight="0.03973536834940107"/>
				<Con from="1/55" weight="-0.7553615588059985"/>
				<Con from="1/56" weight="0.04022530900632091"/>
				<Con from="1/57" weight="0.09930092236592962"/>
				<Con from="1/58" weight="0.2500869758757907"/>
				<Con from="1/59" weight="0.09754591524819195"/>
				<Con from="1/60" weight="-1.85354058E-315"/>
				<Con from="1/61" weight="1.95531766E-316"/>
				<Con from="1/62" weight="-0.028465631546204514"/>
				<Con from="1/63" weight="0.16034586084319"/>
				<Con from="1/64" weight="0.060868075323099236"/>
			</Neuron>
			<Neuron id="2/21" bias="-0.003088945148091599">
				<Con from="1/1" weight="5.531456410920145E-226"/>
				<Con from="1/2" weight="2.959303024250175E-144"/>
				<Con from="1/3" weight="3.537716677247354E-171"/>
				<Con from="1/4" weight="3.36597918E-315"/>
				<Con from="1/5" weight="-8.13556123466571E-102"/>
				<Con from="1/6" weight="-5.154652467449547E-140"/>
				<Con from="1/7" weight="-6.664427517139768E-220"/>
				<Con from="1/8" weight="-1.077081214606617E-187"/>
				<Con from="1/9" weight="3.932609504E-315"/>
				<Con from="1/10" weight="-3.234401116E-315"/>
				<Con from="1/11" weight="-9.986042E-317"/>
				<Con from="1/12" weight="5.528460092822706E-144"/>
				<Con from="1/13" weight="6.73594047E-316"/>
				<Con from="1/14" weight="-1.31200588E-315"/>
				<Con from="1/15" weight="-3.065195727E-315"/>
				<Con from="1/16" weight="-1.411318403E-315"/>
				<Con from="1/17" weight="-2.4798070137245237E-117"/>
				<Con from="1/18" weight="-1.6804146393172982E-150"/>
				<Con from="1/19" weight="1.374082805E-315"/>
				<Con from="1/20" weight="2.82344837E-315"/>
				<Con from="1/21" weight="1.94639409E-315"/>
				<Con from="1/22" weight="-1.78571365E-315"/>
				<Con from="1/23" weight="2.2994129E-315"/>
				<Con from="1/24" weight="1.128775887E-315"/>
				<Con from="1/25" weight="8.3223613E-316"/>
				<Con from="1/26" weight="1.8992903462372376E-187"/>
				<Con from="1/27" weight="3.901514413822799E-179"/>
				<Con from="1/28" weight="3.19266801E-315"/>
				<Con from="1/29" weight="1.9322209E-316"/>
				<Con from="1/30" weight="1.2972323049018375E-182"/>
				<Con from="1/31" weight="1.31392459E-315"/>
				<Con from="1/32" weight="3.362027791262162E-132"/>
				<Con from="1/33" weight="4.2668459853751577E-69"/>
				<Con from="1/34" weight="9.3862263E-316"/>
				<Con from="1/35" weight="1.97552035E-315"/>
				<Con from="1/36" weight="1.478915012925056E-171"/>
				<Con from="1/37" weight="-1.84162202E-315"/>
				<Con from="1/38" weight="3.1410174299099734E-194"/>
				<Con from="1/39" weight="4.754722103182761E-117"/>
				<Con from="1/40" weight="-7.675864523764808E-198"/>
				<Con from="1/41" weight="-3.69486336E-316"/>
				<Con from="1/42" weight="1.3201948740235926E-74"/>
				<Con from="1/43" weight="3.24671934E-316"/>
				<Con from="1/44" weight="-6.600513226897818E-229"/>
				<Con from="1/45" weight="6.084352325928926E-107"/>
				<Con from="1/46" weight="1.99546866E-315"/>
				<Con from="1/47" weight="2.291691924021496E-108"/>
				<Con from="1/48" weight="5.333238926975944E-109"/>
				<Con from="1/49" weight="-1.266860343E-315"/>
				<Con from="1/50" weight="-1.469929317E-315"/>
				<Con from="1/51" weight="-1.141128067E-315"/>
				<Con from="1/52" weight="-1.6901662E-315"/>
				<Con from="1/53" weight="-1.30537215E-315"/>
				<Con from="1/54" weight="-4.039706162687292E-154"/>
				<Con from="1/55" weight="-1.37888756E-316"/>
				<Con from="1/56" weight="-2.41442164E-315"/>
				<Con from="1/57" weight="2.3420666872205077E-119"/>
				<Con from="1/58" weight="-4.90557814E-316"/>
				<Con from="1/59" weight="2.895232001797689E-126"/>
				<Con from="1/60" weight="-9.4481003E-316"/>
				<Con from="1/61" weight="1.269335607E-315"/>
				<Con from="1/62" weight="5.273922396882128E-149"/>
				<Con from="1/63" weight="-3.6570575579580334E-171"/>
				<Con from="1/64" weight="-7.804455385212111E-121"/>
			</Neuron>
			<Neuron id="2/22" bias="-0.04290116692905604">
				<Con from="1/1" weight="0.7471994803807706"/>
				<Con from="1/2" weight="0.5498431667820969"/>
				<Con from="1/3" weight="0.8806786689537376"/>
				<Con from="1/4" weight="-3.75494098E-315"/>
				<Con from="1/5" weight="0.3682728409525159"/>
				<Con from="1/6" weight="0.48162200872239963"/>
				<Con from="1/7" weight="-0.09439360839186979"/>
				<Con from="1/8" weight="0.3770026733461263"/>
				<Con from="1/9" weight="8.843824551750657E-7"/>
				<Con from="1/10" weight="-4.151137193973146E-4"/>
				<Con from="1/11" weight="-3.98883306E-316"/>
				<Con from="1/12" weight="0.39636711850235795"/>
				<Con from="1/13" weight="0.7985574794895984"/>
				<Con from="1/14" weight="2.312050955E-315"/>
				<Con from="1/15" weight="1.2684356E-316"/>
				<Con from="1/16" weight="-1.459216176E-315"/>
				<Con from="1/17" weight="0.598603751716614"/>
				<Con from="1/18" weight="0.5062675090741966"/>
				<Con from="1/19" weight="-2.83713458E-315"/>
				<Con from="1/20" weight="-1.560284255E-315"/>
				<Con from="1/21" weight="-3.491157189689095"/>
				<Con from="1/22" weight="2.52836854E-316"/>
				<Con from="1/23" weight="-0.09295185215940262"/>
				<Con from="1/24" weight="-1.801692906E-315"/>
				<Con from="1/25" weight="0.6157943943272994"/>
				<Con from="1/26" weight="0.5886055546076621"/>
				<Con from="1/27" weight="0.7022835846413968"/>
				<Con from="1/28" weight="2.36760838E-315"/>
				<Con from="1/29" weight="0.9445122965022595"/>
				<Con from="1/30" weight="0.7565460428759261"/>
				<Con from="1/31" weight="0.2925921663471213"/>
				<Con from="1/32" weight="0.32922737352667153"/>
				<Con from="1/33" weight="-0.701127926803098"/>
				<Con from="1/34" weight="1.12360302E-315"/>
				<Con from="1/35" weight="0.6420438147438363"/>
				<Con from="1/36" weight="0.3028732213040508"/>
				<Con from="1/37" weight="-1.88970253E-316"/>
				<Con from="1/38" weight="0.5676857415398832"/>
				<Con from="1/39" weight="0.1559521880483328"/>
				<Con from="1/40" weight="0.40989766690332713"/>
				<Con from="1/41" weight="-1.02238666E-315"/>
				<Con from="1/42" weight="-0.7291955025756142"/>
				<Con from="1/43" weight="7.4545381E-316"/>
				<Con from="1/44" weight="0.6832542644798776"/>
				<Con from="1/45" weight="0.08958886757045477"/>
				<Con from="1/46" weight="-5.76066176E-316"/>
				<Con from="1/47" weight="0.3525559888348353"/>
				<Con from="1/48" weight="0.16438986618933282"/>
				<Con from="1/49" weight="0.49384048339467257"/>
				<Con from="1/50" weight="-1.5629164315727915"/>
				<Con from="1/51" weight="0.681936616805079"/>
				<Con from="1/52" weight="1.413282685E-315"/>
				<Con from="1/53" weight="-6.359477E-317"/>
				<Con from="1/54" weight="0.4315881471775252"/>
				<Con from="1/55" weight="0.6298401132825022"/>
				<Con from="1/56" weight="0.6903999567053858"/>
				<Con from="1/57" weight="0.564466012252083"/>
				<Con from="1/58" weight="-1.4937546283225471"/>
				<Con from="1/59" weight="0.45856888297592263"/>
				<Con from="1/60" weight="2.845556053E-315"/>
				<Con from="1/61" weight="1.569740365E-315"/>
				<Con from="1/62" weight="0.2280270956920235"/>
				<Con from="1/63" weight="0.5130501014000053"/>
				<Con from="1/64" weight="0.1305366875557703"/>
			</Neuron>
			<Neuron id="2/23" bias="-0.04231534790612216">
				<Con from="1/1" weight="0.5704314743641508"/>
				<Con from="1/2" weight="0.5631878883683048"/>
				<Con from="1/3" weight="0.4457514177909883"/>
				<Con from="1/4" weight="4.2068924E-317"/>
				<Con from="1/5" weight="0.4828400701475146"/>
				<Con from="1/6" weight="0.4549643245441565"/>
				<Con from="1/7" weight="-0.03841903816279024"/>
				<Con from="1/8" weight="0.6520589398323329"/>
				<Con from="1/9" weight="3.7708580078588336E-53"/>
				<Con from="1/10" weight="-1.1539423202574501E-14"/>
				<Con from="1/11" weight="1.19936408E-315"/>
				<Con from="1/12" weight="0.658809220731071"/>
				<Con from="1/13" weight="0.47705026823413854"/>
				<Con from="1/14" weight="1.1028712E-315"/>
				<Con from="1/15" weight="-8.29765723E-316"/>
				<Con from="1/16" weight="2.13500435E-315"/>
				<Con from="1/17" weight="0.5400968818588968"/>
				<Con from="1/18" weight="0.552190592537938"/>
				<Con from="1/19" weight="-2.69146426E-316"/>
				<Con from="1/20" weight="-1.00104508E-315"/>
				<Con from="1/21" weight="-3.55251005187918"/>
				<Con from="1/22" weight="-5.07800394E-316"/>
				<Con from="1/23" weight="1.1021440095312754E-9"/>
				<Con from="1/24" weight="8.00012467E-316"/>
				<Con from="1/25" weight="0.8285001246979085"/>
				<Con from="1/26" weight="0.6102750456746526"/>
				<Con from="1/27" weight="1.000916553798289"/>
				<Con from="1/28" weight="3.268153443E-315"/>
				<Con from="1/29" weight="0.6082644710683037"/>
				<Con from="1/30" weight="0.7769510704031323"/>
				<Con from="1/31" weight="0.6516950737140305"/>
				<Con from="1/32" weight="0.5538674396258284"/>
				<Con from="1/33" weight="-0.9891847221578536"/>
				<Con from="1/34" weight="-2.3512337E-316"/>
				<Con from="1/35" weight="0.9534549308207797"/>
				<Con from="1/36" weight="0.36639446267192805"/>
				<Con from="1/37" weight="2.70802326E-316"/>
				<Con from="1/38" weight="0.621864649504796"/>
				<Con from="1/39" weight="0.4527713960935124"/>
				<Con from="1/40" weight="0.3377413134213436"/>
				<Con from="1/41" weight="-1.102449214E-315"/>
				<Con from="1/42" weight="-0.7630510038412447"/>
				<Con from="1/43" weight="-3.298995906E-315"/>
				<Con from="1/44" weight="0.5202296401126181"/>
				<Con from="1/45" weight="0.12598100408157956"/>
				<Con from="1/46" weight="-2.13190038E-315"/>
				<Con from="1/47" weight="0.28729747936715605"/>
				<Con from="1/48" weight="0.2582866162562168"/>
				<Con from="1/49" weight="0.8051258329839147"/>
				<Con from="1/50" weight="-1.6873400103557374"/>
				<Con from="1/51" weight="0.6153326787857861"/>
				<Con from="1/52" weight="1.82686184E-315"/>
				<Con from="1/53" weight="1.628759066E-315"/>
				<Con from="1/54" weight="0.30805026338855956"/>
				<Con from="1/55" weight="0.7865296860627402"/>
				<Con from="1/56" weight="0.5998390530284808"/>
				<Con from="1/57" weight="0.4607754074608172"/>
				<Con from="1/58" weight="-1.3406859205610846"/>
				<Con from="1/59" weight="0.6403777164379876"/>
				<Con from="1/60" weight="2.3059264E-315"/>
